{"learner":{"attributes":{"best_iteration":"329","best_score":"6.0961285741037985","scikit_learn":"{\"_estimator_type\": \"regressor\"}"},"feature_names":[],"feature_types":[],"gradient_booster":{"model":{"cats":{"enc":[],"feature_segments":[],"sorted_idx":[]},"gbtree_model_param":{"num_parallel_tree":"1","num_trees":"370"},"iteration_indptr":[0,1,2,3,4,5,6,7,8,9,10,11,12,13,14,15,16,17,18,19,20,21,22,23,24,25,26,27,28,29,30,31,32,33,34,35,36,37,38,39,40,41,42,43,44,45,46,47,48,49,50,51,52,53,54,55,56,57,58,59,60,61,62,63,64,65,66,67,68,69,70,71,72,73,74,75,76,77,78,79,80,81,82,83,84,85,86,87,88,89,90,91,92,93,94,95,96,97,98,99,100,101,102,103,104,105,106,107,108,109,110,111,112,113,114,115,116,117,118,119,120,121,122,123,124,125,126,127,128,129,130,131,132,133,134,135,136,137,138,139,140,141,142,143,144,145,146,147,148,149,150,151,152,153,154,155,156,157,158,159,160,161,162,163,164,165,166,167,168,169,170,171,172,173,174,175,176,177,178,179,180,181,182,183,184,185,186,187,188,189,190,191,192,193,194,195,196,197,198,199,200,201,202,203,204,205,206,207,208,209,210,211,212,213,214,215,216,217,218,219,220,221,222,223,224,225,226,227,228,229,230,231,232,233,234,235,236,237,238,239,240,241,242,243,244,245,246,247,248,249,250,251,252,253,254,255,256,257,258,259,260,261,262,263,264,265,266,267,268,269,270,271,272,273,274,275,276,277,278,279,280,281,282,283,284,285,286,287,288,289,290,291,292,293,294,295,296,297,298,299,300,301,302,303,304,305,306,307,308,309,310,311,312,313,314,315,316,317,318,319,320,321,322,323,324,325,326,327,328,329,330,331,332,333,334,335,336,337,338,339,340,341,342,343,344,345,346,347,348,349,350,351,352,353,354,355,356,357,358,359,360,361,362,363,364,365,366,367,368,369,370],"tree_info":[0,0,0,0,0,0,0,0,0,0,0,0,0,0,0,0,0,0,0,0,0,0,0,0,0,0,0,0,0,0,0,0,0,0,0,0,0,0,0,0,0,0,0,0,0,0,0,0,0,0,0,0,0,0,0,0,0,0,0,0,0,0,0,0,0,0,0,0,0,0,0,0,0,0,0,0,0,0,0,0,0,0,0,0,0,0,0,0,0,0,0,0,0,0,0,0,0,0,0,0,0,0,0,0,0,0,0,0,0,0,0,0,0,0,0,0,0,0,0,0,0,0,0,0,0,0,0,0,0,0,0,0,0,0,0,0,0,0,0,0,0,0,0,0,0,0,0,0,0,0,0,0,0,0,0,0,0,0,0,0,0,0,0,0,0,0,0,0,0,0,0,0,0,0,0,0,0,0,0,0,0,0,0,0,0,0,0,0,0,0,0,0,0,0,0,0,0,0,0,0,0,0,0,0,0,0,0,0,0,0,0,0,0,0,0,0,0,0,0,0,0,0,0,0,0,0,0,0,0,0,0,0,0,0,0,0,0,0,0,0,0,0,0,0,0,0,0,0,0,0,0,0,0,0,0,0,0,0,0,0,0,0,0,0,0,0,0,0,0,0,0,0,0,0,0,0,0,0,0,0,0,0,0,0,0,0,0,0,0,0,0,0,0,0,0,0,0,0,0,0,0,0,0,0,0,0,0,0,0,0,0,0,0,0,0,0,0,0,0,0,0,0,0,0,0,0,0,0,0,0,0,0,0,0,0,0,0,0,0,0,0,0,0,0,0,0,0,0,0,0,0,0,0,0,0,0,0,0,0,0,0,0,0,0,0,0,0,0,0,0],"trees":[{"base_weights":[-6.481736E-4,-1.6710822E-1,3.8089243E-1,-2.753523E-1,-4.6354733E-2,2.2559394E-1,5.83219E-1,-3.47366E-1,-2.2909118E-1,-1.0112516E-1,4.67059E-2,1.5896991E-1,3.1991187E-1,4.7882214E-1,7E-1,-1.9342517E-2,-1.6105378E-2,-1.2855033E-2,-9.53229E-3,-6.5788846E-3,-2.3131166E-3,-4.639762E-4,4.236936E-3,4.98373E-3,1.0072333E-2,1.3950819E-2,2.025172E-2,2.024945E-2,2.6105663E-2,3.125326E-2,3.5E-2],"categories":[],"categories_nodes":[],"categories_segments":[],"categories_sizes":[],"default_left":[0,0,0,0,0,0,0,0,0,0,0,0,0,0,0,0,0,0,0,0,0,0,0,0,0,0,0,0,0,0,0],"id":0,"left_children":[1,3,5,7,9,11,13,15,17,19,21,23,25,27,29,-1,-1,-1,-1,-1,-1,-1,-1,-1,-1,-1,-1,-1,-1,-1,-1],"loss_changes":[5.6738633E4,8.130004E3,8.526484E3,1.0925879E3,1.4985676E3,9.646919E2,1.6329961E3,1.2781543E2,2.1500098E2,3.0921216E2,2.3194289E2,2.2659717E2,2.2112549E2,2.1152051E2,1.145625E2,0E0,0E0,0E0,0E0,0E0,0E0,0E0,0E0,0E0,0E0,0E0,0E0,0E0,0E0,0E0,0E0],"parents":[2147483647,0,0,1,1,2,2,3,3,4,4,5,5,6,6,7,7,8,8,9,9,10,10,11,11,12,12,13,13,14,14],"right_children":[2,4,6,8,10,12,14,16,18,20,22,24,26,28,30,-1,-1,-1,-1,-1,-1,-1,-1,-1,-1,-1,-1,-1,-1,-1,-1],"split_conditions":[1.3104E1,7.08E0,2.0025E1,3.8E0,1.0575758E1,1.6528E1,2.4197369E1,2.2E0,5.704E0,9.616E0,1.0552E1,1.3444445E1,1.9704E1,2.0072E1,2.6434782E1,-1.9342517E-2,-1.6105378E-2,-1.2855033E-2,-9.53229E-3,-6.5788846E-3,-2.3131166E-3,-4.639762E-4,4.236936E-3,4.98373E-3,1.0072333E-2,1.3950819E-2,2.025172E-2,2.024945E-2,2.6105663E-2,3.125326E-2,3.5E-2],"split_indices":[4,4,8,4,8,4,8,4,4,4,4,8,4,4,8,0,0,0,0,0,0,0,0,0,0,0,0,0,0,0,0],"split_type":[0,0,0,0,0,0,0,0,0,0,0,0,0,0,0,0,0,0,0,0,0,0,0,0,0,0,0,0,0,0,0],"sum_hessian":[8.9336125E5,6.2199525E5,2.71366E5,3.2798578E5,2.9400947E5,1.5352667E5,1.17839336E5,1.2828332E5,1.9970245E5,1.8508086E5,1.0892861E5,8.9973875E4,6.3552797E4,6.624157E4,5.159776E4,5.0042273E4,7.824105E4,1.1552832E5,8.4174125E4,1.1901706E5,6.60638E4,4.4064754E4,6.486385E4,3.7553926E4,5.241995E4,4.2931473E4,2.0621328E4,2.4487826E4,4.1753742E4,2.0488E4,3.1109762E4],"tree_param":{"num_deleted":"0","num_feature":"17","num_nodes":"31","size_leaf_vector":"1"}},{"base_weights":[1.6561849E-3,-1.6212969E-1,3.7140575E-1,-2.6853597E-1,-4.078174E-2,2.6698783E-1,6.486333E-1,-3.3792374E-1,-2.1791907E-1,-9.303867E-2,4.3364808E-2,1.951283E-1,4.1175932E-1,5.5433697E-1,7E-1,-1.8860964E-2,-1.5224754E-2,-1.189015E-2,-8.47753E-3,-6.165599E-3,-1.9032633E-3,-6.5719214E-4,3.8507865E-3,5.6457636E-3,1.2430738E-2,1.7007204E-2,2.1941839E-2,2.4806464E-2,3.0295914E-2,3.315029E-2,3.5E-2],"categories":[],"categories_nodes":[],"categories_segments":[],"categories_sizes":[],"default_left":[0,0,0,0,0,0,0,0,0,0,0,0,0,0,0,0,0,0,0,0,0,0,0,0,0,0,0,0,0,0,0],"id":1,"left_children":[1,3,5,7,9,11,13,15,17,19,21,23,25,27,29,-1,-1,-1,-1,-1,-1,-1,-1,-1,-1,-1,-1,-1,-1,-1,-1],"loss_changes":[5.4272074E4,8.01929E3,7.9635625E3,1.162123E3,1.2759124E3,2.0789092E3,5.523535E2,1.8322656E2,1.8397754E2,2.9789075E2,2.1138512E2,5.8724365E2,1.2839551E2,1.0603223E2,2.9113281E1,0E0,0E0,0E0,0E0,0E0,0E0,0E0,0E0,0E0,0E0,0E0,0E0,0E0,0E0,0E0,0E0],"parents":[2147483647,0,0,1,1,2,2,3,3,4,4,5,5,6,6,7,7,8,8,9,9,10,10,11,11,12,12,13,13,14,14],"right_children":[2,4,6,8,10,12,14,16,18,20,22,24,26,28,30,-1,-1,-1,-1,-1,-1,-1,-1,-1,-1,-1,-1,-1,-1,-1,-1],"split_conditions":[1.3216E1,7.192E0,2.2075E1,4.04E0,1.0575758E1,1.8744E1,2.564626E1,2.576E0,7.285714E0,9.752E0,1.0464E1,1.4071428E1,1.8E1,2.2168E1,2.8842106E1,-1.8860964E-2,-1.5224754E-2,-1.189015E-2,-8.47753E-3,-6.165599E-3,-1.9032633E-3,-6.5719214E-4,3.8507865E-3,5.6457636E-3,1.2430738E-2,1.7007204E-2,2.1941839E-2,2.4806464E-2,3.0295914E-2,3.315029E-2,3.5E-2],"split_indices":[4,4,8,4,8,4,8,4,8,4,4,8,8,4,8,0,0,0,0,0,0,0,0,0,0,0,0,0,0,0,0],"split_type":[0,0,0,0,0,0,0,0,0,0,0,0,0,0,0,0,0,0,0,0,0,0,0,0,0,0,0,0,0,0,0],"sum_hessian":[8.961719E5,6.210635E5,2.751084E5,3.309033E5,2.901602E5,1.9984036E5,7.526803E4,1.3956969E5,1.9133362E5,1.7899814E5,1.1116205E5,1.3355211E5,6.6288266E4,3.541503E4,3.9852996E4,6.41504E4,7.541928E4,1.3558978E5,5.574384E4,1.1543049E5,6.356765E4,4.1490055E4,6.9671984E4,5.2641273E4,8.091083E4,1.819066E4,4.8097605E4,1.6643762E4,1.8771271E4,2.1626879E4,1.8226117E4],"tree_param":{"num_deleted":"0","num_feature":"17","num_nodes":"31","size_leaf_vector":"1"}},{"base_weights":[1.7050495E-4,-1.6222309E-1,3.5644817E-1,-2.6913938E-1,-4.365298E-2,2.5820395E-1,6.090391E-1,-3.4318238E-1,-2.2307076E-1,-1.01477705E-1,3.162222E-2,1.597709E-1,3.4750688E-1,5.5830526E-1,7E-1,-1.8724857E-2,-1.5520704E-2,-1.2599624E-2,-9.337389E-3,-6.4886077E-3,-2.27532E-3,-9.689942E-4,3.3566256E-3,6.0019037E-3,1.1201823E-2,1.4197749E-2,2.0809604E-2,2.4972519E-2,2.9656386E-2,3.5E-2,6.5039354E-3],"categories":[],"categories_nodes":[],"categories_segments":[],"categories_sizes":[],"default_left":[0,0,0,0,0,0,0,0,0,0,0,0,0,0,0,0,0,0,0,0,0,0,0,0,0,0,0,0,0,0,0],"id":2,"left_children":[1,3,5,7,9,11,13,15,17,19,21,23,25,27,29,-1,-1,-1,-1,-1,-1,-1,-1,-1,-1,-1,-1,-1,-1,-1,-1],"loss_changes":[5.175234E4,7.7891025E3,6.949668E3,1.101998E3,1.2681212E3,1.7723936E3,5.4334766E2,1.2704297E2,2.091875E2,2.6093152E2,2.2923312E2,2.448916E2,4.6136035E2,1.21453125E2,1.5317383E1,0E0,0E0,0E0,0E0,0E0,0E0,0E0,0E0,0E0,0E0,0E0,0E0,0E0,0E0,0E0,0E0],"parents":[2147483647,0,0,1,1,2,2,3,3,4,4,5,5,6,6,7,7,8,8,9,9,10,10,11,11,12,12,13,13,14,14],"right_children":[2,4,6,8,10,12,14,16,18,20,22,24,26,28,30,-1,-1,-1,-1,-1,-1,-1,-1,-1,-1,-1,-1,-1,-1,-1,-1],"split_conditions":[1.3216E1,7.152E0,2.2075E1,3.8E0,1.0076923E1,1.60625E1,2.8842106E1,2.576E0,5.64E0,9.752E0,1.0464E1,1.5944E1,1.9304E1,2.2424E1,1.6E1,-1.8724857E-2,-1.5520704E-2,-1.2599624E-2,-9.337389E-3,-6.4886077E-3,-2.27532E-3,-9.689942E-4,3.3566256E-3,6.0019037E-3,1.1201823E-2,1.4197749E-2,2.0809604E-2,2.4972519E-2,2.9656386E-2,3.5E-2,6.5039354E-3],"split_indices":[4,4,8,4,8,8,8,4,4,4,4,4,4,4,1,0,0,0,0,0,0,0,0,0,0,0,0,0,0,0,0],"split_type":[0,0,0,0,0,0,0,0,0,0,0,0,0,0,0,0,0,0,0,0,0,0,0,0,0,0,0,0,0,0,0],"sum_hessian":[8.9448175E5,6.14424E5,2.8005775E5,3.23089E5,2.9133503E5,2.0163475E5,7.842301E4,1.2391776E5,1.9917123E5,1.647655E5,1.26569516E5,9.5915664E4,1.05719086E5,5.9404688E4,1.9018322E4,6.335893E4,6.055883E4,1.1087919E5,8.829205E4,1.09440266E5,5.532524E4,5.195251E4,7.4617E4,5.9272617E4,3.6643047E4,5.4914164E4,5.080492E4,2.2088066E4,3.731662E4,1.8970658E4,4.766497E1],"tree_param":{"num_deleted":"0","num_feature":"17","num_nodes":"31","size_leaf_vector":"1"}},{"base_weights":[-2.6154416E-4,-1.704815E-1,3.1184918E-1,-2.7254042E-1,-6.345064E-2,1.6895011E-1,4.8500678E-1,-3.5002592E-1,-2.3283283E-1,-1.1524968E-1,4.125121E-3,1.1545535E-1,2.5057095E-1,3.7808186E-1,5.8854324E-1,-1.9931644E-2,-1.6702175E-2,-1.3427305E-2,-1.0200209E-2,-7.156084E-3,-3.3062368E-3,-1.0061696E-3,3.5149255E-3,2.8345187E-3,7.899894E-3,1.0538956E-2,1.5885556E-2,1.6276395E-2,2.1101385E-2,2.6429623E-2,3.4210093E-2],"categories":[],"categories_nodes":[],"categories_segments":[],"categories_sizes":[],"default_left":[0,0,0,0,0,0,0,0,0,0,0,0,0,0,0,0,0,0,0,0,0,0,0,0,0,0,0,0,0,0,0],"id":3,"left_children":[1,3,5,7,9,11,13,15,17,19,21,23,25,27,29,-1,-1,-1,-1,-1,-1,-1,-1,-1,-1,-1,-1,-1,-1,-1,-1],"loss_changes":[4.7479434E4,6.3169707E3,7.8040176E3,9.1071484E2,9.880598E2,7.544448E2,1.5784297E3,7.778125E1,2.0146094E2,2.1877612E2,1.9654153E2,2.60953E2,1.8270557E2,1.6188574E2,4.150996E2,0E0,0E0,0E0,0E0,0E0,0E0,0E0,0E0,0E0,0E0,0E0,0E0,0E0,0E0,0E0,0E0],"parents":[2147483647,0,0,1,1,2,2,3,3,4,4,5,5,6,6,7,7,8,8,9,9,10,10,11,11,12,12,13,13,14,14],"right_children":[2,4,6,8,10,12,14,16,18,20,22,24,26,28,30,-1,-1,-1,-1,-1,-1,-1,-1,-1,-1,-1,-1,-1,-1,-1,-1],"split_conditions":[1.2344E1,6.776E0,1.911215E1,3.4E0,9.6E0,1.5944E1,2.2948277E1,1.6E0,4.976E0,9.152E0,1.3E1,1.2736842E1,1.8744E1,2.0072E1,2.8E1,-1.9931644E-2,-1.6702175E-2,-1.3427305E-2,-1.0200209E-2,-7.156084E-3,-3.3062368E-3,-1.0061696E-3,3.5149255E-3,2.8345187E-3,7.899894E-3,1.0538956E-2,1.5885556E-2,1.6276395E-2,2.1101385E-2,2.6429623E-2,3.4210093E-2],"split_indices":[4,4,8,4,8,4,8,4,4,4,8,8,4,4,0,0,0,0,0,0,0,0,0,0,0,0,0,0,0,0,0],"split_type":[0,0,0,0,0,0,0,0,0,0,0,0,0,0,0,0,0,0,0,0,0,0,0,0,0,0,0,0,0,0,0],"sum_hessian":[8.936869E5,5.7829494E5,3.153919E5,2.960223E5,2.8227266E5,1.7279447E5,1.4259744E5,1.0029622E5,1.9572608E5,1.5978867E5,1.2248396E5,1.043834E5,6.841106E4,7.015311E4,7.244433E4,2.4812037E4,7.548419E4,8.7420375E4,1.083057E5,1.0194583E5,5.784285E4,8.963785E4,3.2846113E4,4.3835188E4,6.0548215E4,4.2956344E4,2.5454715E4,3.195141E4,3.82017E4,4.45381E4,2.7906229E4],"tree_param":{"num_deleted":"0","num_feature":"17","num_nodes":"31","size_leaf_vector":"1"}},{"base_weights":[-3.423259E-4,-1.6290124E-1,3.1638545E-1,-2.7169904E-1,-5.6042787E-2,1.765742E-1,4.7162363E-1,-3.3616757E-1,-2.23212E-1,-9.99944E-2,2.9369697E-2,1.2442714E-1,2.5628883E-1,4.0762094E-1,6.172529E-1,-1.850711E-2,-1.5295202E-2,-1.272201E-2,-9.756544E-3,-6.307026E-3,-2.0462673E-3,-1.4065707E-3,2.7691543E-3,3.8321149E-3,8.016515E-3,1.0592882E-2,1.5712252E-2,1.8208956E-2,2.3753272E-2,2.8258732E-2,3.5E-2],"categories":[],"categories_nodes":[],"categories_segments":[],"categories_sizes":[],"default_left":[0,0,0,0,0,0,0,0,0,0,0,0,0,0,0,0,0,0,0,0,0,0,0,0,0,0,0,0,0,0,0],"id":4,"left_children":[1,3,5,7,9,11,13,15,17,19,21,23,25,27,29,-1,-1,-1,-1,-1,-1,-1,-1,-1,-1,-1,-1,-1,-1,-1,-1],"loss_changes":[4.6120484E4,6.8820176E3,6.5939805E3,9.167969E2,1.1211018E3,6.64459E2,1.3415996E3,1.2934277E2,1.4675488E2,3.0451978E2,1.5177129E2,1.6578271E2,1.6271729E2,2.9286133E2,2.0453906E2,0E0,0E0,0E0,0E0,0E0,0E0,0E0,0E0,0E0,0E0,0E0,0E0,0E0,0E0,0E0,0E0],"parents":[2147483647,0,0,1,1,2,2,3,3,4,4,5,5,6,6,7,7,8,8,9,9,10,10,11,11,12,12,13,13,14,14],"right_children":[2,4,6,8,10,12,14,16,18,20,22,24,26,28,30,-1,-1,-1,-1,-1,-1,-1,-1,-1,-1,-1,-1,-1,-1,-1,-1],"split_conditions":[1.2816E1,6.776E0,1.9344538E1,3.888E0,1.0575758E1,1.6368E1,2.564626E1,2.488E0,5.72E0,9.752E0,1E1,1.3327103E1,1.8744E1,2.2075E1,2.9585365E1,-1.850711E-2,-1.5295202E-2,-1.272201E-2,-9.756544E-3,-6.307026E-3,-2.0462673E-3,-1.4065707E-3,2.7691543E-3,3.8321149E-3,8.016515E-3,1.0592882E-2,1.5712252E-2,1.8208956E-2,2.3753272E-2,2.8258732E-2,3.5E-2],"split_indices":[4,4,8,4,8,4,8,4,8,4,0,8,4,8,8,0,0,0,0,0,0,0,0,0,0,0,0,0,0,0,0],"split_type":[0,0,0,0,0,0,0,0,0,0,0,0,0,0,0,0,0,0,0,0,0,0,0,0,0,0,0,0,0,0,0],"sum_hessian":[8.957689E5,5.919527E5,3.0381622E5,2.9331394E5,2.9863875E5,1.598519E5,1.4396431E5,1.2590466E5,1.6740927E5,1.9717573E5,1.01463E5,9.663716E4,6.3214742E4,1.0001324E5,4.3951074E4,5.9310242E4,6.6594414E4,7.925931E4,8.814996E4,1.3667658E5,6.0499156E4,3.1604025E4,6.985898E4,4.145984E4,5.517732E4,3.5785223E4,2.742952E4,6.083504E4,3.91782E4,2.7833443E4,1.6117629E4],"tree_param":{"num_deleted":"0","num_feature":"17","num_nodes":"31","size_leaf_vector":"1"}},{"base_weights":[-3.3588207E-4,-1.6685914E-1,2.9269537E-1,-2.6842076E-1,-6.1634533E-2,1.6414618E-1,4.4684437E-1,-3.3287585E-1,-2.2163007E-1,-1.1443544E-1,-1.8886864E-3,1.188329E-1,2.5271207E-1,3.685122E-1,5.541893E-1,-1.8442344E-2,-1.4956891E-2,-1.2766155E-2,-9.607791E-3,-6.7517236E-3,-2.5759365E-3,-1.2969223E-3,3.5600287E-3,3.4692895E-3,8.166007E-3,1.0467933E-2,1.4887628E-2,1.5631782E-2,2.0299627E-2,2.5730813E-2,3.294036E-2],"categories":[],"categories_nodes":[],"categories_segments":[],"categories_sizes":[],"default_left":[0,0,0,0,0,0,0,0,0,0,0,0,0,0,0,0,0,0,0,0,0,0,0,0,0,0,0,0,0,0,0],"id":5,"left_children":[1,3,5,7,9,11,13,15,17,19,21,23,25,27,29,-1,-1,-1,-1,-1,-1,-1,-1,-1,-1,-1,-1,-1,-1,-1,-1],"loss_changes":[4.3718195E4,6.1051445E3,6.433039E3,8.7664844E2,8.85135E2,7.1040625E2,1.2410996E3,1.4827539E2,1.6721875E2,1.9303308E2,2.3138747E2,2.576029E2,1.1693164E2,1.7861523E2,2.574922E2,0E0,0E0,0E0,0E0,0E0,0E0,0E0,0E0,0E0,0E0,0E0,0E0,0E0,0E0,0E0,0E0],"parents":[2147483647,0,0,1,1,2,2,3,3,4,4,5,5,6,6,7,7,8,8,9,9,10,10,11,11,12,12,13,13,14,14],"right_children":[2,4,6,8,10,12,14,16,18,20,22,24,26,28,30,-1,-1,-1,-1,-1,-1,-1,-1,-1,-1,-1,-1,-1,-1,-1,-1],"split_conditions":[1.2344E1,6.776E0,1.9344538E1,3.888E0,9.386861E0,1.6528E1,2.4197369E1,2.576E0,5.72E0,9.752E0,1.3E1,1.3444445E1,1.8544E1,2.0072E1,2.9585365E1,-1.8442344E-2,-1.4956891E-2,-1.2766155E-2,-9.607791E-3,-6.7517236E-3,-2.5759365E-3,-1.2969223E-3,3.5600287E-3,3.4692895E-3,8.166007E-3,1.0467933E-2,1.4887628E-2,1.5631782E-2,2.0299627E-2,2.5730813E-2,3.294036E-2],"split_indices":[4,4,8,4,8,4,8,4,8,4,8,8,4,4,8,0,0,0,0,0,0,0,0,0,0,0,0,0,0,0,0],"split_type":[0,0,0,0,0,0,0,0,0,0,0,0,0,0,0,0,0,0,0,0,0,0,0,0,0,0,0,0,0,0,0],"sum_hessian":[8.9592656E5,5.712807E5,3.2464588E5,2.906993E5,2.8058134E5,1.7702327E5,1.4762261E5,1.2226745E5,1.6843188E5,1.4894711E5,1.3163422E5,1.171088E5,5.991446E4,8.534718E4,6.2275434E4,5.917067E4,6.3096777E4,7.858777E4,8.984409E4,1.1220867E5,3.6738445E4,9.90446E4,3.2589627E4,5.5463844E4,6.1644953E4,3.0531873E4,2.938259E4,3.426838E4,5.10788E4,4.5188305E4,1.7087129E4],"tree_param":{"num_deleted":"0","num_feature":"17","num_nodes":"31","size_leaf_vector":"1"}},{"base_weights":[-2.507438E-4,-1.513921E-1,2.906098E-1,-2.6163894E-1,-4.8400983E-2,1.7874032E-1,4.402481E-1,-3.2608107E-1,-2.1548538E-1,-1.05462514E-1,2.5263315E-2,1.2117752E-1,2.5360805E-1,3.6780095E-1,5.176937E-1,-1.8331598E-2,-1.5172643E-2,-1.1750605E-2,-7.1483883E-3,-6.7808144E-3,-2.7916692E-3,3.127713E-4,7.3722373E-3,7.5000693E-4,7.0618778E-3,9.4976295E-3,1.4287082E-2,1.4012295E-2,1.9340625E-2,2.3682034E-2,3.0175222E-2],"categories":[],"categories_nodes":[],"categories_segments":[],"categories_sizes":[],"default_left":[0,0,0,0,0,0,0,0,0,0,0,0,0,0,0,0,0,0,0,0,0,0,0,0,0,0,0,0,0,0,0],"id":6,"left_children":[1,3,5,7,9,11,13,15,17,19,21,23,25,27,29,-1,-1,-1,-1,-1,-1,-1,-1,-1,-1,-1,-1,-1,-1,-1,-1],"loss_changes":[3.9209773E4,6.6642607E3,5.1054355E3,8.430664E2,1.2755325E3,7.520845E2,7.3183984E2,1.084375E2,2.3386816E2,2.558894E2,3.0761865E2,2.1014673E2,1.5510986E2,1.1210449E2,2.3808203E2,0E0,0E0,0E0,0E0,0E0,0E0,0E0,0E0,0E0,0E0,0E0,0E0,0E0,0E0,0E0,0E0],"parents":[2147483647,0,0,1,1,2,2,3,3,4,4,5,5,6,6,7,7,8,8,9,9,10,10,11,11,12,12,13,13,14,14],"right_children":[2,4,6,8,10,12,14,16,18,20,22,24,26,28,30,-1,-1,-1,-1,-1,-1,-1,-1,-1,-1,-1,-1,-1,-1,-1,-1],"split_conditions":[1.3E1,6.8E0,2.0375E1,3.6E0,1.06E1,1.60625E1,2.4197369E1,1.8E0,7.818182E0,8.8529415E0,1.6E1,1.1E1,1.66E1,1.88E1,2.8842106E1,-1.8331598E-2,-1.5172643E-2,-1.1750605E-2,-7.1483883E-3,-6.7808144E-3,-2.7916692E-3,3.127713E-4,7.3722373E-3,7.5000693E-4,7.0618778E-3,9.4976295E-3,1.4287082E-2,1.4012295E-2,1.9340625E-2,2.3682034E-2,3.0175222E-2],"split_indices":[8,0,8,0,0,8,8,0,8,8,0,0,0,0,8,0,0,0,0,0,0,0,0,0,0,0,0,0,0,0,0],"split_type":[0,0,0,0,0,0,0,0,0,0,0,0,0,0,0,0,0,0,0,0,0,0,0,0,0,0,0,0,0,0,0],"sum_hessian":[8.9191856E5,5.8692975E5,3.0498884E5,2.834786E5,3.0345116E5,1.7452E5,1.30468836E5,1.1829811E5,1.6518048E5,1.7099517E5,1.32456E5,9.866389E4,7.585611E4,6.741273E4,6.3056105E4,4.2364184E4,7.593393E4,1.3013656E5,3.5043918E4,1.0636685E5,6.4628324E4,1.1462476E5,1.7831238E4,1.5678683E4,8.29852E4,2.5449158E4,5.0406953E4,1.202928E4,5.5383445E4,4.167022E4,2.1385889E4],"tree_param":{"num_deleted":"0","num_feature":"17","num_nodes":"31","size_leaf_vector":"1"}},{"base_weights":[-1.2042917E-3,-1.6766927E-1,2.5926095E-1,-2.6384425E-1,-6.862677E-2,1.4346352E-1,4.0086433E-1,-3.3996966E-1,-2.242445E-1,-1.16912745E-1,-1.5227938E-2,9.113506E-2,2.1133345E-1,3.381028E-1,4.8428315E-1,-1.8514542E-2,-1.5653528E-2,-1.2832157E-2,-9.818151E-3,-7.1372106E-3,-4.181989E-3,-4.334119E-3,-8.182519E-5,2.44096E-3,5.9433114E-3,8.873855E-3,1.3745518E-2,1.2364617E-2,1.7681552E-2,2.233858E-2,2.8274918E-2],"categories":[],"categories_nodes":[],"categories_segments":[],"categories_sizes":[],"default_left":[0,0,0,0,0,0,0,0,0,0,0,0,0,0,0,0,0,0,0,0,0,0,0,0,0,0,0,0,0,0,0],"id":7,"left_children":[1,3,5,7,9,11,13,15,17,19,21,23,25,27,29,-1,-1,-1,-1,-1,-1,-1,-1,-1,-1,-1,-1,-1,-1,-1,-1],"loss_changes":[3.879399E4,5.1995625E3,5.7203887E3,8.3477344E2,6.9339685E2,6.815974E2,8.215156E2,7.7174805E1,1.6451465E2,1.21367676E2,1.24020386E2,1.27163574E2,1.7979663E2,1.26211914E2,2.0502246E2,0E0,0E0,0E0,0E0,0E0,0E0,0E0,0E0,0E0,0E0,0E0,0E0,0E0,0E0,0E0,0E0],"parents":[2147483647,0,0,1,1,2,2,3,3,4,4,5,5,6,6,7,7,8,8,9,9,10,10,11,11,12,12,13,13,14,14],"right_children":[2,4,6,8,10,12,14,16,18,20,22,24,26,28,30,-1,-1,-1,-1,-1,-1,-1,-1,-1,-1,-1,-1,-1,-1,-1,-1],"split_conditions":[1.1992E1,6.664E0,1.8744E1,3.4E0,9.216E0,1.5208E1,2.3496E1,2.2E0,4.976E0,2.1883333E1,2.5E0,2.714865E1,3.275E1,3.040909E1,3E1,-1.8514542E-2,-1.5653528E-2,-1.2832157E-2,-9.818151E-3,-7.1372106E-3,-4.181989E-3,-4.334119E-3,-8.182519E-5,2.44096E-3,5.9433114E-3,8.873855E-3,1.3745518E-2,1.2364617E-2,1.7681552E-2,2.233858E-2,2.8274918E-2],"split_indices":[4,4,4,4,4,4,4,4,4,11,9,11,11,11,0,0,0,0,0,0,0,0,0,0,0,0,0,0,0,0,0],"split_type":[0,0,0,0,0,0,0,0,0,0,0,0,0,0,0,0,0,0,0,0,0,0,0,0,0,0,0,0,0,0,0],"sum_hessian":[8.947275E5,5.4586325E5,3.4886425E5,2.7693984E5,2.689234E5,1.9192108E5,1.5694319E5,9.476283E4,1.82177E5,1.41222E5,1.2770142E5,1.08369414E5,8.3551664E4,8.956359E4,6.737959E4,4.4541723E4,5.022111E4,8.425889E4,9.791811E4,7.949937E4,6.1722633E4,2.0407484E4,1.0729394E5,4.2903848E4,6.5465566E4,5.45214E4,2.9030268E4,1.3081121E4,7.648247E4,4.609555E4,2.1284045E4],"tree_param":{"num_deleted":"0","num_feature":"17","num_nodes":"31","size_leaf_vector":"1"}},{"base_weights":[6.527189E-4,-1.621793E-1,2.523929E-1,-2.6450422E-1,-6.906797E-2,1.3414586E-1,3.8211507E-1,-3.363477E-1,-2.2481382E-1,-1.0922379E-1,6.220508E-3,9.352916E-2,2.0736267E-1,3.1973854E-1,4.7641E-1,-1.8829623E-2,-1.5800815E-2,-1.2038982E-2,-7.870527E-3,-6.607598E-3,-3.1607696E-3,-2.5702545E-3,1.4774725E-3,2.5265848E-3,6.3180737E-3,9.024981E-3,1.2898293E-2,1.3676995E-2,1.7756151E-2,2.2373475E-2,2.9291714E-2],"categories":[],"categories_nodes":[],"categories_segments":[],"categories_sizes":[],"default_left":[0,0,0,0,0,0,0,0,0,0,0,0,0,0,0,0,0,0,0,0,0,0,0,0,0,0,0,0,0,0,0],"id":8,"left_children":[1,3,5,7,9,11,13,15,17,19,21,23,25,27,29,-1,-1,-1,-1,-1,-1,-1,-1,-1,-1,-1,-1,-1,-1,-1,-1],"loss_changes":[3.670079E4,5.1798555E3,5.3941484E3,7.3851953E2,8.605801E2,5.4707007E2,9.8618164E2,7.530078E1,1.7951367E2,1.9582007E2,1.3310956E2,1.6703918E2,8.9181885E1,1.6489551E2,2.1116016E2,0E0,0E0,0E0,0E0,0E0,0E0,0E0,0E0,0E0,0E0,0E0,0E0,0E0,0E0,0E0,0E0],"parents":[2147483647,0,0,1,1,2,2,3,3,4,4,5,5,6,6,7,7,8,8,9,9,10,10,11,11,12,12,13,13,14,14],"right_children":[2,4,6,8,10,12,14,16,18,20,22,24,26,28,30,-1,-1,-1,-1,-1,-1,-1,-1,-1,-1,-1,-1,-1,-1,-1,-1],"split_conditions":[1.208E1,6.44E0,1.8644444E1,3.4E0,1.0076923E1,1.5944E1,2.4197369E1,5.6E0,7.5555553E0,9.152E0,9.28E0,1.2736842E1,1.8744E1,2.0072E1,3.0689655E1,-1.8829623E-2,-1.5800815E-2,-1.2038982E-2,-7.870527E-3,-6.607598E-3,-3.1607696E-3,-2.5702545E-3,1.4774725E-3,2.5265848E-3,6.3180737E-3,9.024981E-3,1.2898293E-2,1.3676995E-2,1.7756151E-2,2.2373475E-2,2.9291714E-2],"split_indices":[4,4,8,4,8,4,8,3,8,4,4,8,4,4,8,0,0,0,0,0,0,0,0,0,0,0,0,0,0,0,0],"split_type":[0,0,0,0,0,0,0,0,0,0,0,0,0,0,0,0,0,0,0,0,0,0,0,0,0,0,0,0,0,0,0],"sum_hessian":[8.953278E5,5.43669E5,3.5165878E5,2.5901839E5,2.8465062E5,1.8396723E5,1.6769155E5,9.217149E4,1.6684689E5,1.8563825E5,9.9012375E4,1.1832774E5,6.56395E4,1.0093015E5,6.67614E4,3.092999E4,6.1241504E4,1.348924E5,3.1954494E4,1.23894086E5,6.1744168E4,2.8532383E4,7.047999E4,5.1233926E4,6.709381E4,4.2880617E4,2.2758885E4,4.377954E4,5.7150605E4,5.2801547E4,1.395985E4],"tree_param":{"num_deleted":"0","num_feature":"17","num_nodes":"31","size_leaf_vector":"1"}},{"base_weights":[-1.1751142E-4,-1.6620423E-1,2.3317002E-1,-2.712226E-1,-8.177273E-2,1.285808E-1,3.6567783E-1,-3.4583792E-1,-2.3381251E-1,-1.305242E-1,-3.503023E-2,7.965894E-2,1.8978049E-1,3.122248E-1,4.3411353E-1,-1.8589934E-2,-1.590233E-2,-1.2534918E-2,-9.572971E-3,-7.7899373E-3,-5.0517167E-3,-4.5189443E-3,-7.4446184E-4,1.447562E-3,4.819467E-3,8.055712E-3,1.2287551E-2,1.1394953E-2,1.6337622E-2,2.0220755E-2,2.5803296E-2],"categories":[],"categories_nodes":[],"categories_segments":[],"categories_sizes":[],"default_left":[0,0,0,0,0,0,0,0,0,0,0,0,0,0,0,0,0,0,0,0,0,0,0,0,0,0,0,0,0,0,0],"id":9,"left_children":[1,3,5,7,9,11,13,15,17,19,21,23,25,27,29,-1,-1,-1,-1,-1,-1,-1,-1,-1,-1,-1,-1,-1,-1,-1,-1],"loss_changes":[3.4694438E4,4.6378047E3,5.16075E3,6.506035E2,6.607158E2,6.230864E2,6.007676E2,5.6043945E1,1.10993164E2,1.05765625E2,1.6501303E2,9.811987E1,1.4830322E2,1.12916016E2,1.7511133E2,0E0,0E0,0E0,0E0,0E0,0E0,0E0,0E0,0E0,0E0,0E0,0E0,0E0,0E0,0E0,0E0],"parents":[2147483647,0,0,1,1,2,2,3,3,4,4,5,5,6,6,7,7,8,8,9,9,10,10,11,11,12,12,13,13,14,14],"right_children":[2,4,6,8,10,12,14,16,18,20,22,24,26,28,30,-1,-1,-1,-1,-1,-1,-1,-1,-1,-1,-1,-1,-1,-1,-1,-1],"split_conditions":[1.1656E1,6.04E0,1.8744E1,3.104E0,8.568E0,1.492E1,2.3496E1,2.176E0,1.72E1,2.1E1,2.0467289E1,2.45E1,3.2658535E1,3.05E1,3.08E1,-1.8589934E-2,-1.590233E-2,-1.2534918E-2,-9.572971E-3,-7.7899373E-3,-5.0517167E-3,-4.5189443E-3,-7.4446184E-4,1.447562E-3,4.819467E-3,8.055712E-3,1.2287551E-2,1.1394953E-2,1.6337622E-2,2.0220755E-2,2.5803296E-2],"split_indices":[4,4,4,4,4,4,4,4,3,3,11,11,11,11,0,0,0,0,0,0,0,0,0,0,0,0,0,0,0,0,0],"split_type":[0,0,0,0,0,0,0,0,0,0,0,0,0,0,0,0,0,0,0,0,0,0,0,0,0,0,0,0,0,0,0],"sum_hessian":[8.9543175E5,5.2305106E5,3.723807E5,2.3310545E5,2.8994562E5,2.0811569E5,1.6426498E5,7.784113E4,1.5526433E5,1.4192203E5,1.480236E5,1.1566089E5,9.2454805E4,9.223141E4,7.203358E4,4.023966E4,3.760147E4,1.1100327E5,4.426105E4,7.6420734E4,6.55013E4,3.949246E4,1.08531125E5,2.869443E4,8.696646E4,6.1143176E4,3.1311623E4,1.3556914E4,7.8674484E4,5.2877445E4,1.9156137E4],"tree_param":{"num_deleted":"0","num_feature":"17","num_nodes":"31","size_leaf_vector":"1"}},{"base_weights":[-6.963123E-4,-1.6399641E-1,2.2481711E-1,-2.702292E-1,-8.279466E-2,1.15097076E-1,3.4740925E-1,-3.413837E-1,-2.3368807E-1,-1.2807962E-1,-1.4960333E-2,7.28897E-2,1.7809513E-1,2.8135198E-1,4.174802E-1,-1.8606288E-2,-1.610492E-2,-1.305074E-2,-1.0204271E-2,-8.416596E-3,-5.1103393E-3,-3.176026E-3,4.958242E-4,1.975074E-3,5.654733E-3,7.0317886E-3,1.0627189E-2,1.0800208E-2,1.5066275E-2,1.9769177E-2,2.6411844E-2],"categories":[],"categories_nodes":[],"categories_segments":[],"categories_sizes":[],"default_left":[0,0,0,0,0,0,0,0,0,0,0,0,0,0,0,0,0,0,0,0,0,0,0,0,0,0,0,0,0,0,0],"id":10,"left_children":[1,3,5,7,9,11,13,15,17,19,21,23,25,27,29,-1,-1,-1,-1,-1,-1,-1,-1,-1,-1,-1,-1,-1,-1,-1,-1],"loss_changes":[3.2882164E4,4.4673936E3,5.0441934E3,5.8327637E2,9.016675E2,5.261929E2,8.197031E2,4.5012695E1,1.19862305E2,1.8329468E2,1.4195226E2,1.5907306E2,1.0242212E2,1.1893506E2,2.1012988E2,0E0,0E0,0E0,0E0,0E0,0E0,0E0,0E0,0E0,0E0,0E0,0E0,0E0,0E0,0E0,0E0],"parents":[2147483647,0,0,1,1,2,2,3,3,4,4,5,5,6,6,7,7,8,8,9,9,10,10,11,11,12,12,13,13,14,14],"right_children":[2,4,6,8,10,12,14,16,18,20,22,24,26,28,30,-1,-1,-1,-1,-1,-1,-1,-1,-1,-1,-1,-1,-1,-1,-1,-1],"split_conditions":[1.1656E1,5.952E0,1.8338709E1,3.104E0,9.285714E0,1.5208E1,2.2948277E1,5.6E0,5.428571E0,2E1,9.016E0,1.3229167E1,1.5190476E1,1.7992E1,3.0689655E1,-1.8606288E-2,-1.610492E-2,-1.305074E-2,-1.0204271E-2,-8.416596E-3,-5.1103393E-3,-3.176026E-3,4.958242E-4,1.975074E-3,5.654733E-3,7.0317886E-3,1.0627189E-2,1.0800208E-2,1.5066275E-2,1.9769177E-2,2.6411844E-2],"split_indices":[4,4,8,4,8,4,8,3,8,3,4,8,8,4,8,0,0,0,0,0,0,0,0,0,0,0,0,0,0,0,0],"split_type":[0,0,0,0,0,0,0,0,0,0,0,0,0,0,0,0,0,0,0,0,0,0,0,0,0,0,0,0,0,0,0],"sum_hessian":[8.9289544E5,5.1788312E5,3.750123E5,2.243601E5,2.9352303E5,1.9789664E5,1.7711567E5,7.6122555E4,1.4823753E5,1.7601664E5,1.1750641E5,1.18503766E5,7.939288E4,9.1171516E4,8.594415E4,2.9337828E4,4.678473E4,7.707783E4,7.115971E4,6.886805E4,1.0714859E5,3.9804816E4,7.7701586E4,6.4741312E4,5.376245E4,3.8036816E4,4.1356066E4,2.134579E4,6.982573E4,7.165341E4,1.4290745E4],"tree_param":{"num_deleted":"0","num_feature":"17","num_nodes":"31","size_leaf_vector":"1"}},{"base_weights":[-6.8507344E-4,-1.57655E-1,2.2283924E-1,-2.690066E-1,-7.802765E-2,1.1396902E-1,3.312481E-1,-3.3890417E-1,-2.323556E-1,-1.2566845E-1,-1.1394659E-2,8.419106E-2,1.9046304E-1,2.6974294E-1,4.0514803E-1,-1.8511562E-2,-1.5813438E-2,-1.2992002E-2,-1.0112417E-2,-8.501988E-3,-5.1253974E-3,-3.0512325E-3,6.2022073E-4,1.5214008E-3,5.60317E-3,8.166367E-3,1.1541574E-2,1.1381057E-2,1.4893318E-2,1.8851398E-2,2.399577E-2],"categories":[],"categories_nodes":[],"categories_segments":[],"categories_sizes":[],"default_left":[0,0,0,0,0,0,0,0,0,0,0,0,0,0,0,0,0,0,0,0,0,0,0,0,0,0,0,0,0,0,0],"id":11,"left_children":[1,3,5,7,9,11,13,15,17,19,21,23,25,27,29,-1,-1,-1,-1,-1,-1,-1,-1,-1,-1,-1,-1,-1,-1,-1,-1],"loss_changes":[3.1242764E4,4.638119E3,4.335574E3,5.586572E2,9.682009E2,4.174768E2,8.3649805E2,5.3081055E1,1.183457E2,1.8274683E2,1.5018979E2,1.9769312E2,5.621997E1,1.1893652E2,1.7559668E2,0E0,0E0,0E0,0E0,0E0,0E0,0E0,0E0,0E0,0E0,0E0,0E0,0E0,0E0,0E0,0E0],"parents":[2147483647,0,0,1,1,2,2,3,3,4,4,5,5,6,6,7,7,8,8,9,9,10,10,11,11,12,12,13,13,14,14],"right_children":[2,4,6,8,10,12,14,16,18,20,22,24,26,28,30,-1,-1,-1,-1,-1,-1,-1,-1,-1,-1,-1,-1,-1,-1,-1,-1],"split_conditions":[1.1904E1,5.88E0,1.8E1,3.104E0,9.227273E0,1.6368E1,2.3285715E1,1.952E0,5.428571E0,1.94E1,9.016E0,1.193985E1,1.8744E1,1.98E1,3E1,-1.8511562E-2,-1.5813438E-2,-1.2992002E-2,-1.0112417E-2,-8.501988E-3,-5.1253974E-3,-3.0512325E-3,6.2022073E-4,1.5214008E-3,5.60317E-3,8.166367E-3,1.1541574E-2,1.1381057E-2,1.4893318E-2,1.8851398E-2,2.399577E-2],"split_indices":[4,4,8,4,8,4,8,4,8,3,4,8,4,0,0,0,0,0,0,0,0,0,0,0,0,0,0,0,0,0,0],"split_type":[0,0,0,0,0,0,0,0,0,0,0,0,0,0,0,0,0,0,0,0,0,0,0,0,0,0,0,0,0,0,0],"sum_hessian":[8.904453E5,5.230992E5,3.673461E5,2.1810158E5,3.0499762E5,1.8328408E5,1.84062E5,7.502064E4,1.4308095E5,1.7784344E5,1.2715417E5,1.3192844E5,5.1355645E4,1.0045791E5,8.360409E4,3.1462143E4,4.3558496E4,7.479458E4,6.8286375E4,6.0990484E4,1.1685296E5,4.1211395E4,8.594277E4,4.5044348E4,8.688409E4,3.0714426E4,2.0641219E4,4.0223023E4,6.0234883E4,6.075872E4,2.2845371E4],"tree_param":{"num_deleted":"0","num_feature":"17","num_nodes":"31","size_leaf_vector":"1"}},{"base_weights":[-1.01736194E-4,-1.651785E-1,1.9951907E-1,-2.6933298E-1,-8.94929E-2,9.80954E-2,3.1593475E-1,-3.4143707E-1,-2.3419043E-1,-1.3119195E-1,-3.7704483E-2,6.39259E-2,1.5788212E-1,2.6969713E-1,3.8410258E-1,-1.894263E-2,-1.6224226E-2,-1.1062856E-2,-1.4228309E-2,-7.5703706E-3,-4.791265E-3,-4.485523E-3,-8.77769E-4,1.5270063E-3,4.454676E-3,6.6363253E-3,1.0680948E-2,1.0077315E-2,1.434275E-2,1.7660415E-2,2.2426262E-2],"categories":[],"categories_nodes":[],"categories_segments":[],"categories_sizes":[],"default_left":[0,0,0,0,0,0,0,0,0,0,0,0,0,0,0,0,0,0,0,0,0,0,0,0,0,0,0,0,0,0,0],"id":12,"left_children":[1,3,5,7,9,11,13,15,17,19,21,23,25,27,29,-1,-1,-1,-1,-1,-1,-1,-1,-1,-1,-1,-1,-1,-1,-1,-1],"loss_changes":[2.9519346E4,3.8652363E3,4.787582E3,5.228076E2,6.132483E2,4.4266943E2,5.949336E2,4.2765137E1,9.03291E1,1.1245654E2,1.3272816E2,1.1585748E2,1.1046387E2,1.3147998E2,1.5169531E2,0E0,0E0,0E0,0E0,0E0,0E0,0E0,0E0,0E0,0E0,0E0,0E0,0E0,0E0,0E0,0E0],"parents":[2147483647,0,0,1,1,2,2,3,3,4,4,5,5,6,6,7,7,8,8,9,9,10,10,11,11,12,12,13,13,14,14],"right_children":[2,4,6,8,10,12,14,16,18,20,22,24,26,28,30,-1,-1,-1,-1,-1,-1,-1,-1,-1,-1,-1,-1,-1,-1,-1,-1],"split_conditions":[1.1176E1,5.704E0,1.7992E1,2.976E0,8.568E0,1.492E1,2.3496E1,1.6E0,4E0,2.175E1,2.0467289E1,1.3E1,3.2658535E1,3.1051723E1,3E1,-1.894263E-2,-1.6224226E-2,-1.1062856E-2,-1.4228309E-2,-7.5703706E-3,-4.791265E-3,-4.485523E-3,-8.77769E-4,1.5270063E-3,4.454676E-3,6.6363253E-3,1.0680948E-2,1.0077315E-2,1.434275E-2,1.7660415E-2,2.2426262E-2],"split_indices":[4,4,4,4,4,4,4,4,14,11,11,0,11,11,0,0,0,0,0,0,0,0,0,0,0,0,0,0,0,0,0],"split_type":[0,0,0,0,0,0,0,0,0,0,0,0,0,0,0,0,0,0,0,0,0,0,0,0,0,0,0,0,0,0,0],"sum_hessian":[8.958061E5,4.903284E5,4.0547772E5,2.0635333E5,2.8397506E5,2.166926E5,1.8878511E5,6.761496E4,1.3873838E5,1.573103E5,1.2666479E5,1.378883E5,7.88043E4,1.1248951E5,7.629561E4,2.1076383E4,4.6538582E4,1.1039996E5,2.8338408E4,1.0009376E5,5.721653E4,3.536982E4,9.129496E4,5.926857E4,7.8619734E4,5.4300375E4,2.4503918E4,2.262725E4,8.986226E4,5.157093E4,2.4724676E4],"tree_param":{"num_deleted":"0","num_feature":"17","num_nodes":"31","size_leaf_vector":"1"}},{"base_weights":[-3.880975E-4,-1.5085743E-1,2.0773289E-1,-2.6164967E-1,-7.392627E-2,1.1145077E-1,3.048761E-1,-3.358615E-1,-2.265013E-1,-1.2023408E-1,-9.2620365E-3,7.884852E-2,1.6553703E-1,2.4092393E-1,3.6494434E-1,-1.8279087E-2,-1.5782459E-2,-1.2600166E-2,-9.866716E-3,-7.1221213E-3,-3.7982732E-3,-3.1498184E-3,5.662653E-4,3.2223908E-3,7.386909E-3,7.5341496E-3,1.2126887E-2,1.0113683E-2,1.3046171E-2,1.6938513E-2,2.1937616E-2],"categories":[],"categories_nodes":[],"categories_segments":[],"categories_sizes":[],"default_left":[0,0,0,0,0,0,0,0,0,0,0,0,0,0,0,0,0,0,0,0,0,0,0,0,0,0,0,0,0,0,0],"id":13,"left_children":[1,3,5,7,9,11,13,15,17,19,21,23,25,27,29,-1,-1,-1,-1,-1,-1,-1,-1,-1,-1,-1,-1,-1,-1,-1,-1],"loss_changes":[2.7929432E4,4.4118955E3,3.5002725E3,5.5324414E2,9.148004E2,3.3141113E2,7.1552344E2,4.0839844E1,1.07024414E2,1.750022E2,1.4102855E2,1.1632831E2,8.081152E1,6.969238E1,1.854209E2,0E0,0E0,0E0,0E0,0E0,0E0,0E0,0E0,0E0,0E0,0E0,0E0,0E0,0E0,0E0,0E0],"parents":[2147483647,0,0,1,1,2,2,3,3,4,4,5,5,6,6,7,7,8,8,9,9,10,10,11,11,12,12,13,13,14,14],"right_children":[2,4,6,8,10,12,14,16,18,20,22,24,26,28,30,-1,-1,-1,-1,-1,-1,-1,-1,-1,-1,-1,-1,-1,-1,-1,-1],"split_conditions":[1.1992E1,5.88E0,1.8338709E1,3E0,9.285714E0,1.4947762E1,2.2538462E1,5.6E0,5.428571E0,9E0,8.8E0,1.76E1,1.9512E1,1.892E1,2.8842106E1,-1.8279087E-2,-1.5782459E-2,-1.2600166E-2,-9.866716E-3,-7.1221213E-3,-3.7982732E-3,-3.1498184E-3,5.662653E-4,3.2223908E-3,7.386909E-3,7.5341496E-3,1.2126887E-2,1.0113683E-2,1.3046171E-2,1.6938513E-2,2.1937616E-2],"split_indices":[4,4,8,4,8,8,8,3,8,0,0,0,4,4,8,0,0,0,0,0,0,0,0,0,0,0,0,0,0,0,0],"split_type":[0,0,0,0,0,0,0,0,0,0,0,0,0,0,0,0,0,0,0,0,0,0,0,0,0,0,0,0,0,0,0],"sum_hessian":[8.918612E5,5.1762434E5,3.742368E5,2.1212731E5,3.0549703E5,1.8795248E5,1.8628433E5,6.8174945E4,1.4395236E5,1.7801489E5,1.2748214E5,1.17267914E5,7.068458E4,9.02277E4,9.605663E4,2.7589824E4,4.0585125E4,7.679737E4,6.715499E4,1.1854296E5,5.9471938E4,3.5312395E4,9.216974E4,9.6994164E4,2.027375E4,5.9256496E4,1.1428081E4,3.07713E4,5.94564E4,7.091431E4,2.5142324E4],"tree_param":{"num_deleted":"0","num_feature":"17","num_nodes":"31","size_leaf_vector":"1"}},{"base_weights":[-1.2902021E-3,-1.5831311E-1,1.8465006E-1,-2.627863E-1,-8.500974E-2,9.055418E-2,2.9066122E-1,-3.324035E-1,-2.2719578E-1,-1.2474134E-1,-1.739161E-2,5.6196973E-2,1.5081276E-1,2.5336045E-1,3.827533E-1,-1.7811384E-2,-1.5196592E-2,-1.2684471E-2,-9.79243E-3,-7.444964E-3,-4.2839493E-3,-2.9553932E-3,4.8265085E-4,1.1542089E-3,4.724251E-3,6.542306E-3,1.01446435E-2,1.0489794E-2,1.3922289E-2,1.806565E-2,2.1796092E-2],"categories":[],"categories_nodes":[],"categories_segments":[],"categories_sizes":[],"default_left":[0,0,0,0,0,0,0,0,0,0,0,0,0,0,0,0,0,0,0,0,0,0,0,0,0,0,0,0,0,0,0],"id":14,"left_children":[1,3,5,7,9,11,13,15,17,19,21,23,25,27,29,-1,-1,-1,-1,-1,-1,-1,-1,-1,-1,-1,-1,-1,-1,-1,-1],"loss_changes":[2.615337E4,3.7191475E3,4.0909658E3,4.960791E2,7.667395E2,4.4980798E2,6.623545E2,4.5839844E1,1.0999805E2,1.6962744E2,1.1917305E2,1.7543365E2,8.2013794E1,1.499414E2,6.321338E1,0E0,0E0,0E0,0E0,0E0,0E0,0E0,0E0,0E0,0E0,0E0,0E0,0E0,0E0,0E0,0E0],"parents":[2147483647,0,0,1,1,2,2,3,3,4,4,5,5,6,6,7,7,8,8,9,9,10,10,11,11,12,12,13,13,14,14],"right_children":[2,4,6,8,10,12,14,16,18,20,22,24,26,28,30,-1,-1,-1,-1,-1,-1,-1,-1,-1,-1,-1,-1,-1,-1,-1,-1],"split_conditions":[1.1256E1,5.704E0,1.8E1,3E0,9.285714E0,1.5208E1,2.564626E1,2.176E0,5.428571E0,8.2E0,9.016E0,1.3E1,1.8744E1,1.9704E1,3.0689655E1,-1.7811384E-2,-1.5196592E-2,-1.2684471E-2,-9.79243E-3,-7.444964E-3,-4.2839493E-3,-2.9553932E-3,4.8265085E-4,1.1542089E-3,4.724251E-3,6.542306E-3,1.01446435E-2,1.0489794E-2,1.3922289E-2,1.806565E-2,2.1796092E-2],"split_indices":[4,4,8,4,8,4,8,4,8,4,4,8,4,4,8,0,0,0,0,0,0,0,0,0,0,0,0,0,0,0,0],"split_type":[0,0,0,0,0,0,0,0,0,0,0,0,0,0,0,0,0,0,0,0,0,0,0,0,0,0,0,0,0,0,0],"sum_hessian":[8.9575694E5,4.8564197E5,4.1011497E5,2.002458E5,2.8539616E5,2.172685E5,1.9284647E5,6.773793E4,1.3250786E5,1.7976661E5,1.0562956E5,1.3837445E5,7.889405E4,1.3725627E5,5.559021E4,3.687264E4,3.0865287E4,7.180959E4,6.069827E4,1.1107191E5,6.86947E4,4.1545137E4,6.4084426E4,7.420289E4,6.4171562E4,5.703232E4,2.1861723E4,5.0158176E4,8.7098086E4,3.962083E4,1.5969384E4],"tree_param":{"num_deleted":"0","num_feature":"17","num_nodes":"31","size_leaf_vector":"1"}},{"base_weights":[-6.797531E-4,-1.5957063E-1,1.8014017E-1,-2.6028833E-1,-8.917601E-2,8.9264736E-2,2.8128788E-1,-3.298537E-1,-2.2440124E-1,-1.21132135E-1,-1.20471595E-2,6.3870296E-2,1.6260652E-1,2.2822276E-1,3.3696064E-1,-1.7738748E-2,-1.5001269E-2,-1.2243734E-2,-9.51085E-3,-7.779403E-3,-4.4613606E-3,-3.732979E-3,1.0938648E-4,1.5394106E-3,5.0491896E-3,6.8668234E-3,1.0565446E-2,9.913016E-3,1.2588017E-2,1.5472955E-2,1.9090274E-2],"categories":[],"categories_nodes":[],"categories_segments":[],"categories_sizes":[],"default_left":[0,0,0,0,0,0,0,0,0,0,0,0,0,0,0,0,0,0,0,0,0,0,0,0,0,0,0,0,0,0,0],"id":15,"left_children":[1,3,5,7,9,11,13,15,17,19,21,23,25,27,29,-1,-1,-1,-1,-1,-1,-1,-1,-1,-1,-1,-1,-1,-1,-1,-1],"loss_changes":[2.5731389E4,3.3798447E3,3.8504111E3,4.8953125E2,6.9159546E2,4.1095276E2,5.855928E2,4.9503418E1,9.049902E1,2.1808618E2,7.3264305E1,2.0123816E2,6.9814575E1,7.153369E1,1.1919531E2,0E0,0E0,0E0,0E0,0E0,0E0,0E0,0E0,0E0,0E0,0E0,0E0,0E0,0E0,0E0,0E0],"parents":[2147483647,0,0,1,1,2,2,3,3,4,4,5,5,6,6,7,7,8,8,9,9,10,10,11,11,12,12,13,13,14,14],"right_children":[2,4,6,8,10,12,14,16,18,20,22,24,26,28,30,-1,-1,-1,-1,-1,-1,-1,-1,-1,-1,-1,-1,-1,-1,-1,-1],"split_conditions":[1.1176E1,5.64E0,1.8E1,3E0,9.798657E0,1.72E1,2.2948277E1,2.176E0,5.875E0,7.1034484E0,2E1,1.3115385E1,1.8744E1,1.9704E1,2.7545454E1,-1.7738748E-2,-1.5001269E-2,-1.2243734E-2,-9.51085E-3,-7.779403E-3,-4.4613606E-3,-3.732979E-3,1.0938648E-4,1.5394106E-3,5.0491896E-3,6.8668234E-3,1.0565446E-2,9.913016E-3,1.2588017E-2,1.5472955E-2,1.9090274E-2],"split_indices":[4,4,8,4,8,0,8,4,8,8,3,8,4,4,8,0,0,0,0,0,0,0,0,0,0,0,0,0,0,0,0],"split_type":[0,0,0,0,0,0,0,0,0,0,0,0,0,0,0,0,0,0,0,0,0,0,0,0,0,0,0,0,0,0,0],"sum_hessian":[8.9560606E5,4.7670972E5,4.1889634E5,1.9611452E5,2.8059522E5,2.206536E5,1.9824277E5,6.673799E4,1.29376516E5,1.9839525E5,8.219995E4,1.6390405E5,5.674955E4,1.0150104E5,9.674172E4,3.635387E4,3.0384123E4,8.091135E4,4.8465164E4,9.538247E4,1.0301278E5,1.5225606E4,6.697435E4,8.6659586E4,7.724446E4,3.7365594E4,1.9383955E4,4.4659996E4,5.6841047E4,5.99715E4,3.6770215E4],"tree_param":{"num_deleted":"0","num_feature":"17","num_nodes":"31","size_leaf_vector":"1"}},{"base_weights":[-8.7825547E-4,-1.6504017E-1,1.5839623E-1,-2.6000905E-1,-9.676952E-2,7.120653E-2,2.694777E-1,-3.0182528E-1,-2.0790137E-1,-1.3047427E-1,-2.6037898E-2,2.6734117E-2,1.2435208E-1,2.1482687E-1,3.2225937E-1,-1.7610198E-2,-1.3877041E-2,-1.1614326E-2,-8.650569E-3,-8.550691E-3,-5.1539387E-3,-4.574291E-3,-4.5335104E-4,3.7054668E-4,4.641694E-3,4.928741E-3,8.009609E-3,9.2750555E-3,1.1825745E-2,1.51689565E-2,1.960225E-2],"categories":[],"categories_nodes":[],"categories_segments":[],"categories_sizes":[],"default_left":[0,0,0,0,0,0,0,0,0,0,0,0,0,0,0,0,0,0,0,0,0,0,0,0,0,0,0,0,0,0,0],"id":16,"left_children":[1,3,5,7,9,11,13,15,17,19,21,23,25,27,29,-1,-1,-1,-1,-1,-1,-1,-1,-1,-1,-1,-1,-1,-1,-1,-1],"loss_changes":[2.3366639E4,2.853293E3,4.393049E3,4.009795E2,6.1037354E2,6.0062146E2,5.752988E2,1.2482129E2,6.96792E1,1.9256372E2,9.17774E1,1.7671103E2,1.0694153E2,6.228711E1,1.3356934E2,0E0,0E0,0E0,0E0,0E0,0E0,0E0,0E0,0E0,0E0,0E0,0E0,0E0,0E0,0E0,0E0],"parents":[2147483647,0,0,1,1,2,2,3,3,4,4,5,5,6,6,7,7,8,8,9,9,10,10,11,11,12,12,13,13,14,14],"right_children":[2,4,6,8,10,12,14,16,18,20,22,24,26,28,30,-1,-1,-1,-1,-1,-1,-1,-1,-1,-1,-1,-1,-1,-1,-1,-1],"split_conditions":[1.08E1,5.4E0,1.8E1,3.6E0,9.227273E0,1.3444445E1,2.2538462E1,6.4E0,5.875E0,1.92E1,1.98E1,1.52E1,1.68E1,1.98E1,2.9585365E1,-1.7610198E-2,-1.3877041E-2,-1.1614326E-2,-8.650569E-3,-8.550691E-3,-5.1539387E-3,-4.574291E-3,-4.5335104E-4,3.7054668E-4,4.641694E-3,4.928741E-3,8.009609E-3,9.2750555E-3,1.1825745E-2,1.51689565E-2,1.960225E-2],"split_indices":[0,0,8,0,8,8,8,3,8,3,3,0,0,0,8,0,0,0,0,0,0,0,0,0,0,0,0,0,0,0,0],"split_type":[0,0,0,0,0,0,0,0,0,0,0,0,0,0,0,0,0,0,0,0,0,0,0,0,0,0,0,0,0,0,0],"sum_hessian":[8.93669E5,4.4008238E5,4.5358662E5,1.8405172E5,2.5603067E5,2.5412295E5,1.9946367E5,1.021067E5,8.1945016E4,1.7340131E5,8.262935E4,1.383514E5,1.1577154E5,9.799915E4,1.01464516E5,3.3206184E4,6.8900516E4,4.823039E4,3.3714625E4,6.9923734E4,1.03477586E5,1.7013332E4,6.561602E4,1.0705634E5,3.1295059E4,6.7341375E4,4.8430164E4,4.166747E4,5.633168E4,7.986317E4,2.1601344E4],"tree_param":{"num_deleted":"0","num_feature":"17","num_nodes":"31","size_leaf_vector":"1"}},{"base_weights":[-2.8342447E-5,-1.5120053E-1,1.6962048E-1,-2.539237E-1,-8.0299266E-2,8.706894E-2,2.6048392E-1,-3.2708716E-1,-2.1735536E-1,-1.1834417E-1,-1.5592028E-2,4.8120197E-2,1.2659095E-1,2.1850906E-1,3.2575738E-1,-1.8213464E-2,-1.5096985E-2,-1.219057E-2,-9.324163E-3,-7.357456E-3,-4.300721E-3,-1.5594811E-3,2.6775813E-3,1.9775683E-3,7.339623E-3,5.26391E-3,8.312615E-3,8.62569E-3,1.198193E-2,1.5427035E-2,1.946156E-2],"categories":[],"categories_nodes":[],"categories_segments":[],"categories_sizes":[],"default_left":[0,0,0,0,0,0,0,0,0,0,0,0,0,0,0,0,0,0,0,0,0,0,0,0,0,0,0,0,0,0,0],"id":17,"left_children":[1,3,5,7,9,11,13,15,17,19,21,23,25,27,29,-1,-1,-1,-1,-1,-1,-1,-1,-1,-1,-1,-1,-1,-1,-1,-1],"loss_changes":[2.28464E4,3.4308613E3,3.148582E3,5.145947E2,6.861057E2,3.3855908E2,5.474092E2,5.983008E1,1.0471289E2,1.634336E2,1.112935E2,9.365631E1,9.22605E1,1.1815381E2,8.53418E1,0E0,0E0,0E0,0E0,0E0,0E0,0E0,0E0,0E0,0E0,0E0,0E0,0E0,0E0,0E0,0E0],"parents":[2147483647,0,0,1,1,2,2,3,3,4,4,5,5,6,6,7,7,8,8,9,9,10,10,11,11,12,12,13,13,14,14],"right_children":[2,4,6,8,10,12,14,16,18,20,22,24,26,28,30,-1,-1,-1,-1,-1,-1,-1,-1,-1,-1,-1,-1,-1,-1,-1,-1],"split_conditions":[1.1256E1,5.704E0,1.8E1,3E0,9.285714E0,1.3647727E1,2.4197369E1,5.6E0,5.428571E0,7.1034484E0,1.3E1,1.86E1,1.76E1,1.892E1,3.0689655E1,-1.8213464E-2,-1.5096985E-2,-1.219057E-2,-9.324163E-3,-7.357456E-3,-4.300721E-3,-1.5594811E-3,2.6775813E-3,1.9775683E-3,7.339623E-3,5.26391E-3,8.312615E-3,8.62569E-3,1.198193E-2,1.5427035E-2,1.946156E-2],"split_indices":[4,4,8,4,8,8,8,3,8,8,8,0,0,4,8,0,0,0,0,0,0,0,0,0,0,0,0,0,0,0,0],"split_type":[0,0,0,0,0,0,0,0,0,0,0,0,0,0,0,0,0,0,0,0,0,0,0,0,0,0,0,0,0,0,0],"sum_hessian":[8.908284E5,4.710664E5,4.1976194E5,1.9236361E5,2.787028E5,2.1994172E5,1.9982023E5,6.4102934E4,1.28260664E5,1.7551006E5,1.0319275E5,1.10775375E5,1.0916634E5,1.2161721E5,7.8203016E4,2.585752E4,3.8245414E4,6.906664E4,5.9194023E4,9.28128E4,8.2697266E4,8.419939E4,1.8993357E4,1.0192544E5,8.849938E3,7.1010945E4,3.8155402E4,3.828555E4,8.3331664E4,6.1521668E4,1.6681346E4],"tree_param":{"num_deleted":"0","num_feature":"17","num_nodes":"31","size_leaf_vector":"1"}},{"base_weights":[-1.2580615E-3,-1.5592001E-1,1.5469012E-1,-2.5159883E-1,-8.5490875E-2,5.9878435E-2,2.3289065E-1,-3.2085976E-1,-2.1720426E-1,-1.2431441E-1,-3.1810455E-2,3.9507825E-2,1.2280398E-1,1.8700752E-1,2.947358E-1,-1.7344944E-2,-1.4504808E-2,-1.01525625E-2,-1.3690119E-2,-8.054403E-3,-5.174448E-3,-3.5356593E-3,-3.6163532E-4,7.4195414E-4,3.6878313E-3,5.6651365E-3,1.1677623E-2,7.774144E-3,1.0990738E-2,1.3696303E-2,1.7579835E-2],"categories":[],"categories_nodes":[],"categories_segments":[],"categories_sizes":[],"default_left":[0,0,0,0,0,0,0,0,0,0,0,0,0,0,0,0,0,0,0,0,0,0,0,0,0,0,0,0,0,0,0],"id":18,"left_children":[1,3,5,7,9,11,13,15,17,19,21,23,25,27,29,-1,-1,-1,-1,-1,-1,-1,-1,-1,-1,-1,-1,-1,-1,-1,-1],"loss_changes":[2.1634748E4,3.0347139E3,3.3115059E3,4.548047E2,5.406151E2,2.5877045E2,6.9448926E2,5.0652832E1,1.02149414E2,1.1526709E2,1.0409761E2,1.2885066E2,5.19234E1,1.4529199E2,1.2325098E2,0E0,0E0,0E0,0E0,0E0,0E0,0E0,0E0,0E0,0E0,0E0,0E0,0E0,0E0,0E0,0E0],"parents":[2147483647,0,0,1,1,2,2,3,3,4,4,5,5,6,6,7,7,8,8,9,9,10,10,11,11,12,12,13,13,14,14],"right_children":[2,4,6,8,10,12,14,16,18,20,22,24,26,28,30,-1,-1,-1,-1,-1,-1,-1,-1,-1,-1,-1,-1,-1,-1,-1,-1],"split_conditions":[1.0776E1,5.704E0,1.60625E1,3E0,8.736842E0,1.5496E1,2.2538462E1,2.176E0,4E0,1.9E1,8.568E0,1.2626667E1,2.28E1,1.9304E1,2.8842106E1,-1.7344944E-2,-1.4504808E-2,-1.01525625E-2,-1.3690119E-2,-8.054403E-3,-5.174448E-3,-3.5356593E-3,-3.6163532E-4,7.4195414E-4,3.6878313E-3,5.6651365E-3,1.1677623E-2,7.774144E-3,1.0990738E-2,1.3696303E-2,1.7579835E-2],"split_indices":[4,4,8,4,8,4,8,4,14,3,4,8,0,4,8,0,0,0,0,0,0,0,0,0,0,0,0,0,0,0,0],"split_type":[0,0,0,0,0,0,0,0,0,0,0,0,0,0,0,0,0,0,0,0,0,0,0,0,0,0,0,0,0,0,0],"sum_hessian":[8.969889E5,4.5035162E5,4.4663725E5,1.9094628E5,2.5940534E5,2.0187828E5,2.4475895E5,6.3356316E4,1.2758997E5,1.505332E5,1.0887214E5,1.5250889E5,4.9369402E4,1.4051467E5,1.0424429E5,3.4307375E4,2.904894E4,1.02070625E5,2.5519344E4,5.442418E4,9.610902E4,4.215132E4,6.672083E4,8.865433E4,6.385455E4,4.5470457E4,3.8989443E3,7.1660984E4,6.885368E4,7.631909E4,2.7925197E4],"tree_param":{"num_deleted":"0","num_feature":"17","num_nodes":"31","size_leaf_vector":"1"}},{"base_weights":[5.139564E-4,-1.534325E-1,1.5249345E-1,-2.4880613E-1,-8.449621E-2,7.505061E-2,2.4372633E-1,-3.189395E-1,-2.1335629E-1,-1.363408E-1,-4.468255E-2,2.5776621E-2,1.06611595E-1,2.0009723E-1,2.8589013E-1,-1.7588513E-2,-1.466928E-2,-1.1491192E-2,-8.519663E-3,-6.2133768E-3,-1.0934538E-2,-3.6903005E-3,-4.690224E-4,-5.174961E-4,2.7015149E-3,4.4296165E-3,7.4196192E-3,8.354102E-3,1.087381E-2,1.33965565E-2,1.6795808E-2],"categories":[],"categories_nodes":[],"categories_segments":[],"categories_sizes":[],"default_left":[0,0,0,0,0,0,0,0,0,0,0,0,0,0,0,0,0,0,0,0,0,0,0,0,0,0,0,0,0,0,0],"id":19,"left_children":[1,3,5,7,9,11,13,15,17,19,21,23,25,27,29,-1,-1,-1,-1,-1,-1,-1,-1,-1,-1,-1,-1,-1,-1,-1,-1],"loss_changes":[2.0916713E4,2.9199854E3,3.1785E3,4.631963E2,5.321145E2,3.7840686E2,3.799004E2,5.2381836E1,8.753174E1,1.11305176E2,1.4991748E2,9.697388E1,1.1165369E2,5.8208984E1,9.427637E1,0E0,0E0,0E0,0E0,0E0,0E0,0E0,0E0,0E0,0E0,0E0,0E0,0E0,0E0,0E0,0E0],"parents":[2147483647,0,0,1,1,2,2,3,3,4,4,5,5,6,6,7,7,8,8,9,9,10,10,11,11,12,12,13,13,14,14],"right_children":[2,4,6,8,10,12,14,16,18,20,22,24,26,28,30,-1,-1,-1,-1,-1,-1,-1,-1,-1,-1,-1,-1,-1,-1,-1,-1],"split_conditions":[1.0776E1,5.64E0,1.8E1,3E0,7.818182E0,1.3104E1,2.2538462E1,6E0,1.66E1,4E0,9.016E0,1.1210526E1,1.7008E1,1.892E1,2.8842106E1,-1.7588513E-2,-1.466928E-2,-1.1491192E-2,-8.519663E-3,-6.2133768E-3,-1.0934538E-2,-3.6903005E-3,-4.690224E-4,-5.174961E-4,2.7015149E-3,4.4296165E-3,7.4196192E-3,8.354102E-3,1.087381E-2,1.33965565E-2,1.6795808E-2],"split_indices":[4,4,8,4,8,4,8,3,3,14,4,8,4,4,8,0,0,0,0,0,0,0,0,0,0,0,0,0,0,0,0],"split_type":[0,0,0,0,0,0,0,0,0,0,0,0,0,0,0,0,0,0,0,0,0,0,0,0,0,0,0,0,0,0,0],"sum_hessian":[8.9400056E5,4.4412625E5,4.498743E5,1.8633227E5,2.5779398E5,2.4332784E5,2.0654648E5,6.2558867E4,1.237734E5,1.1197711E5,1.4581688E5,9.500497E4,1.4832288E5,1.01512234E5,1.0503424E5,2.7375283E4,3.5183582E4,8.947406E4,3.4299336E4,9.766154E4,1.431557E4,7.990002E4,6.591685E4,4.169382E4,5.3311145E4,1.0363163E5,4.4691242E4,3.5011266E4,6.650097E4,7.729295E4,2.7741291E4],"tree_param":{"num_deleted":"0","num_feature":"17","num_nodes":"31","size_leaf_vector":"1"}},{"base_weights":[9.945963E-4,-1.5069333E-1,1.4701451E-1,-2.4926126E-1,-8.5517645E-2,6.0253147E-2,2.1869376E-1,-3.1566286E-1,-2.1323268E-1,-1.23068556E-1,-3.5435893E-2,3.9293204E-2,1.1215956E-1,1.7739636E-1,2.74056E-1,-1.7006837E-2,-1.4184033E-2,-9.985204E-3,-1.32544255E-2,-7.750332E-3,-4.7113756E-3,-4.305017E-3,-8.900207E-4,2.3026182E-4,3.3852756E-3,5.282213E-3,9.566131E-3,7.3452564E-3,1.02153085E-2,1.2667633E-2,1.5840247E-2],"categories":[],"categories_nodes":[],"categories_segments":[],"categories_sizes":[],"default_left":[0,0,0,0,0,0,0,0,0,0,0,0,0,0,0,0,0,0,0,0,0,0,0,0,0,0,0,0,0,0,0],"id":20,"left_children":[1,3,5,7,9,11,13,15,17,19,21,23,25,27,29,-1,-1,-1,-1,-1,-1,-1,-1,-1,-1,-1,-1,-1,-1,-1,-1],"loss_changes":[1.9785617E4,2.814662E3,2.8305107E3,4.1714062E2,4.9599573E2,2.2401624E2,5.697783E2,4.7913574E1,7.926123E1,1.3882544E2,1.0097781E2,1.4456401E2,3.0528564E1,1.17101074E2,9.416211E1,0E0,0E0,0E0,0E0,0E0,0E0,0E0,0E0,0E0,0E0,0E0,0E0,0E0,0E0,0E0,0E0],"parents":[2147483647,0,0,1,1,2,2,3,3,4,4,5,5,6,6,7,7,8,8,9,9,10,10,11,11,12,12,13,13,14,14],"right_children":[2,4,6,8,10,12,14,16,18,20,22,24,26,28,30,-1,-1,-1,-1,-1,-1,-1,-1,-1,-1,-1,-1,-1,-1,-1,-1],"split_conditions":[1.0704E1,5.464E0,1.60625E1,3E0,8.590909E0,1.5064E1,2.2538462E1,2.2E0,4E0,7.192E0,2.04E1,1.1553191E1,2.0896E1,1.892E1,2.6456E1,-1.7006837E-2,-1.4184033E-2,-9.985204E-3,-1.32544255E-2,-7.750332E-3,-4.7113756E-3,-4.305017E-3,-8.900207E-4,2.3026182E-4,3.3852756E-3,5.282213E-3,9.566131E-3,7.3452564E-3,1.02153085E-2,1.2667633E-2,1.5840247E-2],"split_indices":[4,4,8,4,8,4,8,4,14,4,3,8,4,4,4,0,0,0,0,0,0,0,0,0,0,0,0,0,0,0,0],"split_type":[0,0,0,0,0,0,0,0,0,0,0,0,0,0,0,0,0,0,0,0,0,0,0,0,0,0,0,0,0,0,0],"sum_hessian":[8.932757E5,4.3813438E5,4.551413E5,1.7439167E5,2.637427E5,2.0590881E5,2.492325E5,6.1337426E4,1.1305424E5,1.5072719E5,1.13015516E5,1.4668056E5,5.9228246E4,1.427514E5,1.0648109E5,3.4742027E4,2.65954E4,8.9666164E4,2.3388078E4,7.152132E4,7.920586E4,2.918033E4,8.383519E4,6.6046734E4,8.0633836E4,5.4726465E4,4.5017783E3,6.69254E4,7.5826E4,7.174293E4,3.4738164E4],"tree_param":{"num_deleted":"0","num_feature":"17","num_nodes":"31","size_leaf_vector":"1"}},{"base_weights":[-5.664682E-4,-1.4343423E-1,1.4633241E-1,-2.4305281E-1,-7.680067E-2,7.538757E-2,2.2340728E-1,-3.1354895E-1,-2.0762728E-1,-1.130492E-1,-2.9144447E-2,4.82213E-2,1.2281017E-1,1.921891E-1,2.6790294E-1,-1.762829E-2,-1.482179E-2,-9.729087E-3,-1.2941395E-2,-6.9916025E-3,-4.4370242E-3,-3.5275721E-3,-8.40952E-4,2.5498198E-4,3.189699E-3,5.273503E-3,8.018181E-3,7.865123E-3,1.035349E-2,1.2264864E-2,1.5075798E-2],"categories":[],"categories_nodes":[],"categories_segments":[],"categories_sizes":[],"default_left":[0,0,0,0,0,0,0,0,0,0,0,0,0,0,0,0,0,0,0,0,0,0,0,0,0,0,0,0,0,0,0],"id":21,"left_children":[1,3,5,7,9,11,13,15,17,19,21,23,25,27,29,-1,-1,-1,-1,-1,-1,-1,-1,-1,-1,-1,-1,-1,-1,-1,-1],"loss_changes":[1.8760709E4,3.0081338E3,2.4099775E3,4.5353516E2,4.6908228E2,2.9565503E2,2.9338184E2,4.045459E1,8.069629E1,1.00401E2,5.98711E1,9.798328E1,5.4412354E1,6.441699E1,6.610596E1,0E0,0E0,0E0,0E0,0E0,0E0,0E0,0E0,0E0,0E0,0E0,0E0,0E0,0E0,0E0,0E0],"parents":[2147483647,0,0,1,1,2,2,3,3,4,4,5,5,6,6,7,7,8,8,9,9,10,10,11,11,12,12,13,13,14,14],"right_children":[2,4,6,8,10,12,14,16,18,20,22,24,26,28,30,-1,-1,-1,-1,-1,-1,-1,-1,-1,-1,-1,-1,-1,-1,-1,-1],"split_conditions":[1.1104E1,5.64E0,1.7992E1,3E0,8.616E0,1.492E1,2.3496E1,1.6E0,4E0,7.08E0,1.9580246E1,2.45E1,3.2658535E1,1.98E1,2.688E1,-1.762829E-2,-1.482179E-2,-9.729087E-3,-1.2941395E-2,-6.9916025E-3,-4.4370242E-3,-3.5275721E-3,-8.40952E-4,2.5498198E-4,3.189699E-3,5.273503E-3,8.018181E-3,7.865123E-3,1.035349E-2,1.2264864E-2,1.5075798E-2],"split_indices":[4,4,4,4,4,4,4,4,14,4,11,11,11,0,4,0,0,0,0,0,0,0,0,0,0,0,0,0,0,0,0],"split_type":[0,0,0,0,0,0,0,0,0,0,0,0,0,0,0,0,0,0,0,0,0,0,0,0,0,0,0,0,0,0,0],"sum_hessian":[8.939137E5,4.5317475E5,4.4073894E5,1.8163056E5,2.715442E5,2.2949678E5,2.1124214E5,6.0743754E4,1.20886805E5,1.5423089E5,1.17313305E5,1.4591225E5,8.358453E4,1.2414632E5,8.709582E4,1.8513834E4,4.2229918E4,9.634389E4,2.4542912E4,7.337884E4,8.0852055E4,2.6908826E4,9.040448E4,3.871353E4,1.0719871E5,5.7183938E4,2.6400592E4,3.7123867E4,8.702245E4,5.207934E4,3.501648E4],"tree_param":{"num_deleted":"0","num_feature":"17","num_nodes":"31","size_leaf_vector":"1"}},{"base_weights":[-1.3373381E-3,-1.4609516E-1,1.3474774E-1,-2.4378243E-1,-8.076476E-2,6.1301656E-2,2.140054E-1,-3.0992115E-1,-2.0934108E-1,-1.17950514E-1,-3.8444925E-2,2.176978E-2,9.03304E-2,1.8063626E-1,2.5525758E-1,-1.666438E-2,-1.3947611E-2,-9.761337E-3,-1.3194511E-2,-7.193576E-3,-4.5042164E-3,-3.8640106E-3,-1.0299247E-3,-1.389127E-3,1.8287348E-3,3.8384877E-3,6.4930366E-3,8.316714E-3,1.0107709E-2,1.19987E-2,1.4967534E-2],"categories":[],"categories_nodes":[],"categories_segments":[],"categories_sizes":[],"default_left":[0,0,0,0,0,0,0,0,0,0,0,0,0,0,0,0,0,0,0,0,0,0,0,0,0,0,0,0,0,0,0],"id":22,"left_children":[1,3,5,7,9,11,13,15,17,19,21,23,25,27,29,-1,-1,-1,-1,-1,-1,-1,-1,-1,-1,-1,-1,-1,-1,-1,-1],"loss_changes":[1.7622674E4,2.766412E3,2.6841406E3,3.956494E2,4.0877808E2,2.7464062E2,3.0524316E2,4.295117E1,8.790088E1,9.985986E1,8.42027E1,7.4340775E1,7.3963135E1,3.7697754E1,6.6760254E1,0E0,0E0,0E0,0E0,0E0,0E0,0E0,0E0,0E0,0E0,0E0,0E0,0E0,0E0,0E0,0E0],"parents":[2147483647,0,0,1,1,2,2,3,3,4,4,5,5,6,6,7,7,8,8,9,9,10,10,11,11,12,12,13,13,14,14],"right_children":[2,4,6,8,10,12,14,16,18,20,22,24,26,28,30,-1,-1,-1,-1,-1,-1,-1,-1,-1,-1,-1,-1,-1,-1,-1,-1],"split_conditions":[1.0704E1,5.552E0,1.7672E1,3E0,8.2E0,1.3104E1,2.292E1,2.2E0,4E0,2E1,2.0467289E1,2.267647E1,3.2153847E1,2.0696E1,8.416059E0,-1.666438E-2,-1.3947611E-2,-9.761337E-3,-1.3194511E-2,-7.193576E-3,-4.5042164E-3,-3.8640106E-3,-1.0299247E-3,-1.389127E-3,1.8287348E-3,3.8384877E-3,6.4930366E-3,8.316714E-3,1.0107709E-2,1.19987E-2,1.4967534E-2],"split_indices":[4,4,4,4,4,4,4,4,14,3,11,11,11,4,9,0,0,0,0,0,0,0,0,0,0,0,0,0,0,0,0],"split_type":[0,0,0,0,0,0,0,0,0,0,0,0,0,0,0,0,0,0,0,0,0,0,0,0,0,0,0,0,0,0,0],"sum_hessian":[8.945782E5,4.3347625E5,4.611019E5,1.7371736E5,2.597589E5,2.3932616E5,2.2177577E5,5.9482816E4,1.1423454E5,1.3826548E5,1.2149342E5,1.0133205E5,1.3799411E5,1.2260511E5,9.917065E4,3.3897188E4,2.558563E4,9.075633E4,2.347821E4,7.163073E4,6.663475E4,3.825157E4,8.324185E4,2.3310504E4,7.802154E4,1.0274947E5,3.524465E4,7.365725E4,4.8947855E4,7.3648875E4,2.5521777E4],"tree_param":{"num_deleted":"0","num_feature":"17","num_nodes":"31","size_leaf_vector":"1"}},{"base_weights":[-1.1903255E-3,-1.5251212E-1,1.2276229E-1,-2.3947507E-1,-8.805007E-2,4.3067724E-2,1.9513123E-1,-3.0671906E-1,-2.0466709E-1,-1.4010139E-1,-5.4735217E-2,9.675992E-3,7.903879E-2,1.5658922E-1,2.4153869E-1,-1.7534709E-2,-1.4395039E-2,-1.2253798E-2,-9.411456E-3,-8.857177E-3,-6.201259E-3,-4.639786E-3,-1.6012216E-3,-7.0817175E-4,2.2201438E-3,2.8534129E-3,5.1826327E-3,6.7137084E-3,9.136017E-3,1.1321652E-2,1.4244218E-2],"categories":[],"categories_nodes":[],"categories_segments":[],"categories_sizes":[],"default_left":[0,0,0,0,0,0,0,0,0,0,0,0,0,0,0,0,0,0,0,0,0,0,0,0,0,0,0,0,0,0,0],"id":23,"left_children":[1,3,5,7,9,11,13,15,17,19,21,23,25,27,29,-1,-1,-1,-1,-1,-1,-1,-1,-1,-1,-1,-1,-1,-1,-1,-1],"loss_changes":[1.6792787E4,2.2599014E3,2.8384468E3,4.0162988E2,4.0147302E2,2.813337E2,4.613086E2,4.8336914E1,7.506885E1,5.3783325E1,1.22023254E2,1.0056015E2,6.0970642E1,8.2141846E1,7.6558105E1,0E0,0E0,0E0,0E0,0E0,0E0,0E0,0E0,0E0,0E0,0E0,0E0,0E0,0E0,0E0,0E0],"parents":[2147483647,0,0,1,1,2,2,3,3,4,4,5,5,6,6,7,7,8,8,9,9,10,10,11,11,12,12,13,13,14,14],"right_children":[2,4,6,8,10,12,14,16,18,20,22,24,26,28,30,-1,-1,-1,-1,-1,-1,-1,-1,-1,-1,-1,-1,-1,-1,-1,-1],"split_conditions":[1.0104E1,5.552E0,1.60625E1,3E0,7.1034484E0,1.3104E1,2.2075E1,1.6E0,4.19E0,6.2E0,2.12E1,1.168E1,1.6E1,1.9512E1,2.8842106E1,-1.7534709E-2,-1.4395039E-2,-1.2253798E-2,-9.411456E-3,-8.857177E-3,-6.201259E-3,-4.639786E-3,-1.6012216E-3,-7.0817175E-4,2.2201438E-3,2.8534129E-3,5.1826327E-3,6.7137084E-3,9.136017E-3,1.1321652E-2,1.4244218E-2],"split_indices":[4,4,8,4,8,4,8,4,8,0,3,8,0,4,8,0,0,0,0,0,0,0,0,0,0,0,0,0,0,0,0],"split_type":[0,0,0,0,0,0,0,0,0,0,0,0,0,0,0,0,0,0,0,0,0,0,0,0,0,0,0,0,0,0,0],"sum_hessian":[8.952917E5,4.0313853E5,4.921532E5,1.7161605E5,2.3152248E5,2.3422266E5,2.5793053E5,5.8532297E4,1.1308376E5,9.0352305E4,1.4117019E5,1.2146691E5,1.1275574E5,1.409085E5,1.1702202E5,1.7536023E4,4.0996273E4,3.2695586E4,8.038817E4,2.7342002E4,6.30103E4,5.2755434E4,8.841475E4,7.202413E4,4.9442773E4,5.957867E4,5.3177074E4,7.600721E4,6.4901297E4,8.6784484E4,3.0237533E4],"tree_param":{"num_deleted":"0","num_feature":"17","num_nodes":"31","size_leaf_vector":"1"}},{"base_weights":[-7.343543E-4,-1.4192387E-1,1.2669843E-1,-2.2972651E-1,-7.288645E-2,4.9327254E-2,1.8821259E-1,-3.0086696E-1,-1.9326915E-1,-1.306525E-1,-4.40579E-2,2.689606E-2,9.548985E-2,1.5380934E-1,2.3734051E-1,-1.7097842E-2,-1.381366E-2,-8.935643E-3,-1.2775234E-2,-5.894944E-3,-1.0853808E-2,-3.6903792E-3,-7.817067E-4,-6.5365114E-4,2.3867302E-3,4.415089E-3,1.0896415E-2,6.259466E-3,8.49994E-3,1.0872471E-2,1.33787785E-2],"categories":[],"categories_nodes":[],"categories_segments":[],"categories_sizes":[],"default_left":[0,0,0,0,0,0,0,0,0,0,0,0,0,0,0,0,0,0,0,0,0,0,0,0,0,0,0,0,0,0,0],"id":24,"left_children":[1,3,5,7,9,11,13,15,17,19,21,23,25,27,29,-1,-1,-1,-1,-1,-1,-1,-1,-1,-1,-1,-1,-1,-1,-1,-1],"loss_changes":[1.6129138E4,2.5778389E3,2.242541E3,4.8544922E2,3.9646863E2,2.1609613E2,4.4361035E2,6.4E1,1.120791E2,8.733496E1,1.3429703E2,1.1698033E2,6.0043457E1,7.1511475E1,6.4958496E1,0E0,0E0,0E0,0E0,0E0,0E0,0E0,0E0,0E0,0E0,0E0,0E0,0E0,0E0,0E0,0E0],"parents":[2147483647,0,0,1,1,2,2,3,3,4,4,5,5,6,6,7,7,8,8,9,9,10,10,11,11,12,12,13,13,14,14],"right_children":[2,4,6,8,10,12,14,16,18,20,22,24,26,28,30,-1,-1,-1,-1,-1,-1,-1,-1,-1,-1,-1,-1,-1,-1,-1,-1],"split_conditions":[1.0704E1,5.88E0,1.60625E1,3.176E0,7.1034484E0,1.4648E1,2.2948277E1,5.6E0,4E0,4E0,8.8E0,1.075E1,2.28E1,1.84E1,2.82E1,-1.7097842E-2,-1.381366E-2,-8.935643E-3,-1.2775234E-2,-5.894944E-3,-1.0853808E-2,-3.6903792E-3,-7.817067E-4,-6.5365114E-4,2.3867302E-3,4.415089E-3,1.0896415E-2,6.259466E-3,8.49994E-3,1.0872471E-2,1.33787785E-2],"split_indices":[4,4,8,4,8,4,8,3,14,14,0,8,0,0,0,0,0,0,0,0,0,0,0,0,0,0,0,0,0,0,0],"split_type":[0,0,0,0,0,0,0,0,0,0,0,0,0,0,0,0,0,0,0,0,0,0,0,0,0,0,0,0,0,0,0],"sum_hessian":[8.964509E5,4.252708E5,4.711801E5,1.871935E5,2.380773E5,2.0869269E5,2.624874E5,6.342431E4,1.23769195E5,7.9258086E4,1.5881922E5,1.4044812E5,6.8244555E4,1.5438142E5,1.0810598E5,2.3742984E4,3.968133E4,1.0031125E5,2.3457945E4,6.9068016E4,1.0190068E4,7.7598875E4,8.122034E4,4.8131176E4,9.231695E4,6.4461867E4,3.7826882E3,5.578046E4,9.860096E4,6.5212215E4,4.289376E4],"tree_param":{"num_deleted":"0","num_feature":"17","num_nodes":"31","size_leaf_vector":"1"}},{"base_weights":[-1.9473665E-3,-1.5374531E-1,1.0977718E-1,-2.474031E-1,-9.8911636E-2,3.6089513E-2,1.8014608E-1,-3.1794956E-1,-2.165373E-1,-1.3569845E-1,-5.3777065E-2,5.9009674E-3,7.279806E-2,1.481674E-1,2.2549364E-1,-1.6906748E-2,-1.426183E-2,-1.1933499E-2,-9.026786E-3,-8.514068E-3,-5.504592E-3,-4.7419616E-3,-1.540269E-3,-1.3284262E-3,1.5196305E-3,2.5355527E-3,4.763151E-3,6.382104E-3,8.4381895E-3,1.0485944E-2,1.3539212E-2],"categories":[],"categories_nodes":[],"categories_segments":[],"categories_sizes":[],"default_left":[0,0,0,0,0,0,0,0,0,0,0,0,0,0,0,0,0,0,0,0,0,0,0,0,0,0,0,0,0,0,0],"id":25,"left_children":[1,3,5,7,9,11,13,15,17,19,21,23,25,27,29,-1,-1,-1,-1,-1,-1,-1,-1,-1,-1,-1,-1,-1,-1,-1,-1],"loss_changes":[1.5174143E4,1.9480781E3,2.6724663E3,3.0494336E2,3.9724634E2,2.7899503E2,3.822754E2,2.805371E1,7.760254E1,1.1671289E2,1.0134207E2,1.0986204E2,5.636731E1,6.533862E1,7.783594E1,0E0,0E0,0E0,0E0,0E0,0E0,0E0,0E0,0E0,0E0,0E0,0E0,0E0,0E0,0E0,0E0],"parents":[2147483647,0,0,1,1,2,2,3,3,4,4,5,5,6,6,7,7,8,8,9,9,10,10,11,11,12,12,13,13,14,14],"right_children":[2,4,6,8,10,12,14,16,18,20,22,24,26,28,30,-1,-1,-1,-1,-1,-1,-1,-1,-1,-1,-1,-1,-1,-1,-1,-1],"split_conditions":[9.752E0,4.976E0,1.60625E1,2.576E0,7.928571E0,1.3104E1,2.2948277E1,3.5E0,5.375E0,6.44E0,2.04E1,1.0473684E1,1.58E1,1.9304E1,2.7416E1,-1.6906748E-2,-1.426183E-2,-1.1933499E-2,-9.026786E-3,-8.514068E-3,-5.504592E-3,-4.7419616E-3,-1.540269E-3,-1.3284262E-3,1.5196305E-3,2.5355527E-3,4.763151E-3,6.382104E-3,8.4381895E-3,1.0485944E-2,1.3539212E-2],"split_indices":[4,4,8,4,8,4,8,8,8,4,3,8,0,4,4,0,0,0,0,0,0,0,0,0,0,0,0,0,0,0,0],"split_type":[0,0,0,0,0,0,0,0,0,0,0,0,0,0,0,0,0,0,0,0,0,0,0,0,0,0,0,0,0,0,0],"sum_hessian":[8.947232E5,3.7933194E5,5.1539122E5,1.4007522E5,2.3925673E5,2.5175955E5,2.636317E5,4.2630426E4,9.744479E4,1.3181733E5,1.07439414E5,1.3814905E5,1.136105E5,1.5460789E5,1.0902378E5,2.635739E4,1.6273036E4,6.0342438E4,3.7102348E4,5.6077074E4,7.574025E4,3.8541996E4,6.8897414E4,5.9400066E4,7.874898E4,5.7288797E4,5.6321703E4,7.744113E4,7.716676E4,8.08643E4,2.8159484E4],"tree_param":{"num_deleted":"0","num_feature":"17","num_nodes":"31","size_leaf_vector":"1"}},{"base_weights":[-2.7111832E-5,-1.3485594E-1,1.2014845E-1,-2.4724342E-1,-8.332724E-2,4.725651E-2,1.7730986E-1,-3.0171275E-1,-2.0968692E-1,-1.2890191E-1,-4.1171696E-2,2.9425293E-2,1.0007538E-1,1.4523953E-1,2.188056E-1,-1.6720183E-2,-1.3951847E-2,-1.1354755E-2,-8.673932E-3,-5.845962E-3,-1.0368361E-2,-4.455894E-3,-9.789472E-4,9.751354E-5,2.5209887E-3,4.641714E-3,9.473638E-3,5.3569092E-3,7.834492E-3,1.0016161E-2,1.2494907E-2],"categories":[],"categories_nodes":[],"categories_segments":[],"categories_sizes":[],"default_left":[0,0,0,0,0,0,0,0,0,0,0,0,0,0,0,0,0,0,0,0,0,0,0,0,0,0,0,0,0,0,0],"id":26,"left_children":[1,3,5,7,9,11,13,15,17,19,21,23,25,27,29,-1,-1,-1,-1,-1,-1,-1,-1,-1,-1,-1,-1,-1,-1,-1,-1],"loss_changes":[1.4478453E4,2.4386807E3,1.9685137E3,2.707412E2,5.547079E2,1.9557166E2,3.523584E2,3.995215E1,4.935083E1,1.3042017E2,1.552837E2,8.955E1,3.3908752E1,6.514673E1,6.628516E1,0E0,0E0,0E0,0E0,0E0,0E0,0E0,0E0,0E0,0E0,0E0,0E0,0E0,0E0,0E0,0E0],"parents":[2147483647,0,0,1,1,2,2,3,3,4,4,5,5,6,6,7,7,8,8,9,9,10,10,11,11,12,12,13,13,14,14],"right_children":[2,4,6,8,10,12,14,16,18,20,22,24,26,28,30,-1,-1,-1,-1,-1,-1,-1,-1,-1,-1,-1,-1,-1,-1,-1,-1],"split_conditions":[1.0776E1,4.864E0,1.60625E1,2.976E0,7.818182E0,1.5496E1,2.2538462E1,5.6E0,5.826087E0,4E0,2.06E1,1.1553191E1,2.28E1,1.6528E1,2.82E1,-1.6720183E-2,-1.3951847E-2,-1.1354755E-2,-8.673932E-3,-5.845962E-3,-1.0368361E-2,-4.455894E-3,-9.789472E-4,9.751354E-5,2.5209887E-3,4.641714E-3,9.473638E-3,5.3569092E-3,7.834492E-3,1.0016161E-2,1.2494907E-2],"split_indices":[4,4,8,4,8,4,8,3,8,14,3,8,0,4,0,0,0,0,0,0,0,0,0,0,0,0,0,0,0,0,0],"split_type":[0,0,0,0,0,0,0,0,0,0,0,0,0,0,0,0,0,0,0,0,0,0,0,0,0,0,0,0,0,0,0],"sum_hessian":[8.9355694E5,4.2110528E5,4.7245166E5,1.3237748E5,2.8872778E5,2.0765405E5,2.6479762E5,5.402147E4,7.835601E4,1.3873658E5,1.4999122E5,1.5524588E5,5.240818E4,1.4936452E5,1.1543309E5,2.2119236E4,3.1902232E4,5.291186E4,2.544415E4,1.2035872E5,1.8377855E4,4.657327E4,1.0341795E5,6.724495E4,8.800092E4,4.8483133E4,3.9250476E3,3.451728E4,1.1484724E5,7.240233E4,4.303076E4],"tree_param":{"num_deleted":"0","num_feature":"17","num_nodes":"31","size_leaf_vector":"1"}},{"base_weights":[1.5649949E-4,-1.3254024E-1,1.1609098E-1,-2.199874E-1,-7.316163E-2,4.4563945E-2,1.707982E-1,-2.8909037E-1,-1.8775244E-1,-1.2177844E-1,-3.965255E-2,-1.1570811E-1,5.0912477E-2,1.4249559E-1,2.1391827E-1,-1.6343914E-2,-1.2608187E-2,-1.0855095E-2,-7.4328356E-3,-7.6000327E-3,-4.584485E-3,-3.3150122E-3,-6.876815E-4,-5.9746564E-3,3.0373493E-2,1.4907526E-3,3.7123468E-3,6.0119745E-3,7.989015E-3,1.0055512E-2,1.2775938E-2],"categories":[],"categories_nodes":[],"categories_segments":[],"categories_sizes":[],"default_left":[0,0,0,0,0,0,0,0,0,0,0,0,0,0,0,0,0,0,0,0,0,0,0,0,0,0,0,0,0,0,0],"id":27,"left_children":[1,3,5,7,9,11,13,15,17,19,21,23,25,27,29,-1,-1,-1,-1,-1,-1,-1,-1,-1,-1,-1,-1,-1,-1,-1,-1],"loss_changes":[1.3760498E4,2.1656616E3,1.8680088E3,3.7566992E2,4.046764E2,2.1051334E2,3.3008496E2,7.478223E1,1.3194897E2,9.2152954E1,1.0148744E2,2.1650513E1,9.796808E1,6.2803223E1,5.7059082E1,0E0,0E0,0E0,0E0,0E0,0E0,0E0,0E0,0E0,0E0,0E0,0E0,0E0,0E0,0E0,0E0],"parents":[2147483647,0,0,1,1,2,2,3,3,4,4,5,5,6,6,7,7,8,8,9,9,10,10,11,11,12,12,13,13,14,14],"right_children":[2,4,6,8,10,12,14,16,18,20,22,24,26,28,30,-1,-1,-1,-1,-1,-1,-1,-1,-1,-1,-1,-1,-1,-1,-1,-1],"split_conditions":[1.0473684E1,1.66E1,1.60625E1,9.2E0,7.1034484E0,1.8E1,2.3285715E1,6.2E0,5.769231E0,4.472136E0,2.5E1,9.37E1,1.3327103E1,1.9571428E1,2.9585365E1,-1.6343914E-2,-1.2608187E-2,-1.0855095E-2,-7.4328356E-3,-7.6000327E-3,-4.584485E-3,-3.3150122E-3,-6.876815E-4,-5.9746564E-3,3.0373493E-2,1.4907526E-3,3.7123468E-3,6.0119745E-3,7.989015E-3,1.0055512E-2,1.2775938E-2],"split_indices":[8,3,8,3,8,3,8,3,8,6,3,16,8,8,8,0,0,0,0,0,0,0,0,0,0,0,0,0,0,0,0],"split_type":[0,0,0,0,0,0,0,0,0,0,0,0,0,0,0,0,0,0,0,0,0,0,0,0,0,0,0,0,0,0,0],"sum_hessian":[8.944587E5,4.1707788E5,4.773808E5,1.6867166E5,2.4840623E5,2.068874E5,2.704934E5,5.365089E4,1.1502076E5,1.0135387E5,1.4705238E5,7.88211E3,1.9900528E5,1.6330775E5,1.0718566E5,2.6512318E4,2.7138574E4,6.5696984E4,4.932377E4,5.0562766E4,5.07911E4,7.2477695E4,7.457468E4,7.8419014E3,4.020862E1,1.04513555E5,9.4491734E4,7.1391234E4,9.1916516E4,8.19581E4,2.5227553E4],"tree_param":{"num_deleted":"0","num_feature":"17","num_nodes":"31","size_leaf_vector":"1"}},{"base_weights":[-7.3741376E-4,-1.479249E-1,1.00346796E-1,-2.3945265E-1,-9.432868E-2,2.9896699E-2,1.607655E-1,-2.9346815E-1,-2.0317113E-1,-1.2853691E-1,-5.413017E-2,-8.507682E-3,6.123271E-2,1.312381E-1,2.0066316E-1,-1.576965E-2,-1.2730214E-2,-1.1053066E-2,-8.385438E-3,-7.7131884E-3,-5.0213602E-3,-3.6766485E-3,-9.69626E-4,-1.5362098E-3,5.557504E-4,1.785934E-3,3.694947E-3,5.5662887E-3,7.794936E-3,9.484492E-3,1.1621243E-2],"categories":[],"categories_nodes":[],"categories_segments":[],"categories_sizes":[],"default_left":[0,0,0,0,0,0,0,0,0,0,0,0,0,0,0,0,0,0,0,0,0,0,0,0,0,0,0,0,0,0,0],"id":28,"left_children":[1,3,5,7,9,11,13,15,17,19,21,23,25,27,29,-1,-1,-1,-1,-1,-1,-1,-1,-1,-1,-1,-1,-1,-1,-1,-1],"loss_changes":[1.3276954E4,1.7823047E3,2.251852E3,2.629038E2,3.15099E2,2.9393457E2,3.3548486E2,4.585791E1,5.0888428E1,8.951221E1,7.100659E1,4.78438E1,4.3463257E1,8.035327E1,4.2171875E1,0E0,0E0,0E0,0E0,0E0,0E0,0E0,0E0,0E0,0E0,0E0,0E0,0E0,0E0,0E0,0E0],"parents":[2147483647,0,0,1,1,2,2,3,3,4,4,5,5,6,6,7,7,8,8,9,9,10,10,11,11,12,12,13,13,14,14],"right_children":[2,4,6,8,10,12,14,16,18,20,22,24,26,28,30,-1,-1,-1,-1,-1,-1,-1,-1,-1,-1,-1,-1,-1,-1,-1,-1],"split_conditions":[9.616E0,4.976E0,1.5944E1,3E0,7.818182E0,1.168E1,2.2075E1,3.9166667E0,5.826087E0,6.776E0,1E1,1.1256E1,1.3444445E1,1.9704E1,2.8842106E1,-1.576965E-2,-1.2730214E-2,-1.1053066E-2,-8.385438E-3,-7.7131884E-3,-5.0213602E-3,-3.6766485E-3,-9.69626E-4,-1.5362098E-3,5.557504E-4,1.785934E-3,3.694947E-3,5.5662887E-3,7.794936E-3,9.484492E-3,1.1621243E-2],"split_indices":[4,4,4,4,8,8,8,8,8,4,8,4,8,4,8,0,0,0,0,0,0,0,0,0,0,0,0,0,0,0,0],"split_type":[0,0,0,0,0,0,0,0,0,0,0,0,0,0,0,0,0,0,0,0,0,0,0,0,0,0,0,0,0,0,0],"sum_hessian":[8.9236644E5,3.633282E5,5.2903825E5,1.341807E5,2.291475E5,2.4424383E5,2.8479444E5,5.3911215E4,8.026949E4,1.2379658E5,1.0535092E5,1.0974486E5,1.3449895E5,1.6367003E5,1.211244E5,3.4462355E4,1.944886E4,5.3350062E4,2.6919428E4,6.4635594E4,5.916098E4,6.759465E4,3.775627E4,5.1470344E4,5.8274516E4,4.4621055E4,8.987791E4,9.055583E4,7.3114195E4,9.002776E4,3.1096643E4],"tree_param":{"num_deleted":"0","num_feature":"17","num_nodes":"31","size_leaf_vector":"1"}},{"base_weights":[-9.2000497E-4,-1.2761284E-1,1.07214294E-1,-2.1069221E-1,-6.3115515E-2,4.6409756E-2,1.6221273E-1,-2.6163703E-1,-1.6558032E-1,-1.0191315E-1,-2.6796173E-2,2.4957743E-2,8.96941E-2,1.3131298E-1,1.9892749E-1,-1.5796794E-2,-1.1769555E-2,-9.173042E-3,-5.9029977E-3,-4.57639E-3,-8.772146E-3,-1.958942E-3,1.5560092E-3,-4.9940357E-3,1.5883641E-3,9.2050916E-4,4.8212195E-3,5.075394E-3,6.9878227E-3,9.128983E-3,1.1229818E-2],"categories":[],"categories_nodes":[],"categories_segments":[],"categories_sizes":[],"default_left":[0,0,0,0,0,0,0,0,0,0,0,0,0,0,0,0,0,0,0,0,0,0,0,0,0,0,0,0,0,0,0],"id":29,"left_children":[1,3,5,7,9,11,13,15,17,19,21,23,25,27,29,-1,-1,-1,-1,-1,-1,-1,-1,-1,-1,-1,-1,-1,-1,-1,-1],"loss_changes":[1.2292439E4,2.213961E3,1.6188657E3,4.1495947E2,3.277597E2,2.1347849E2,2.8833594E2,1.2078223E2,8.13562E1,8.586511E1,8.616074E1,1.3068411E2,3.65495E1,3.4720703E1,4.8702637E1,0E0,0E0,0E0,0E0,0E0,0E0,0E0,0E0,0E0,0E0,0E0,0E0,0E0,0E0,0E0,0E0],"parents":[2147483647,0,0,1,1,2,2,3,3,4,4,5,5,6,6,7,7,8,8,9,9,10,10,11,11,12,12,13,13,14,14],"right_children":[2,4,6,8,10,12,14,16,18,20,22,24,26,28,30,-1,-1,-1,-1,-1,-1,-1,-1,-1,-1,-1,-1,-1,-1,-1,-1],"split_conditions":[1.0473684E1,6E0,1.76E1,3.6E0,8.8E0,1.4947762E1,2.2538462E1,6.6E0,1.84E1,4E0,1.36E1,1.8E1,4.157991E0,1.60625E1,2.82E1,-1.5796794E-2,-1.1769555E-2,-9.173042E-3,-5.9029977E-3,-4.57639E-3,-8.772146E-3,-1.958942E-3,1.5560092E-3,-4.9940357E-3,1.5883641E-3,9.2050916E-4,4.8212195E-3,5.075394E-3,6.9878227E-3,9.128983E-3,1.1229818E-2],"split_indices":[8,0,0,0,0,8,8,3,3,14,0,3,6,8,0,0,0,0,0,0,0,0,0,0,0,0,0,0,0,0,0],"split_type":[0,0,0,0,0,0,0,0,0,0,0,0,0,0,0,0,0,0,0,0,0,0,0,0,0,0,0,0,0,0,0],"sum_hessian":[8.972668E5,4.1317753E5,4.8408928E5,1.8057525E5,2.326023E5,2.2990994E5,2.5417933E5,8.4802766E4,9.577248E4,1.1246323E5,1.2013907E5,1.5372456E5,7.618537E4,1.3802216E5,1.1615718E5,2.7629842E4,5.717292E4,6.9586336E4,2.6186143E4,9.8546734E4,1.3916493E4,9.89777E4,2.1161367E4,7.9507524E3,1.4577381E5,6.572838E3,6.961253E4,3.0471672E4,1.0755048E5,7.0967766E4,4.5189414E4],"tree_param":{"num_deleted":"0","num_feature":"17","num_nodes":"31","size_leaf_vector":"1"}},{"base_weights":[-2.540516E-4,-1.4093487E-1,9.7120576E-2,-2.3231517E-1,-8.961942E-2,3.5221294E-2,1.5502755E-1,-3.0327794E-1,-2.0193633E-1,-1.3072084E-1,-6.143279E-2,8.788998E-3,6.266573E-2,1.2647787E-1,1.8604992E-1,-1.7481089E-2,-1.4295707E-2,-9.621202E-3,-1.3892466E-2,-5.936834E-3,-9.675064E-3,-4.4450867E-3,-1.8972418E-3,6.8620004E-4,-4.570765E-3,2.7462335E-3,5.1189424E-3,5.2521597E-3,6.907468E-3,8.503479E-3,1.0798622E-2],"categories":[],"categories_nodes":[],"categories_segments":[],"categories_sizes":[],"default_left":[0,0,0,0,0,0,0,0,0,0,0,0,0,0,0,0,0,0,0,0,0,0,0,0,0,0,0,0,0,0,0],"id":30,"left_children":[1,3,5,7,9,11,13,15,17,19,21,23,25,27,29,-1,-1,-1,-1,-1,-1,-1,-1,-1,-1,-1,-1,-1,-1,-1,-1],"loss_changes":[1.2225116E4,1.7117305E3,1.8903584E3,2.8293213E2,2.708141E2,1.8491428E2,2.4130664E2,3.1564209E1,6.632617E1,7.152515E1,8.946625E1,6.421282E1,3.8440247E1,3.548462E1,6.2404785E1,0E0,0E0,0E0,0E0,0E0,0E0,0E0,0E0,0E0,0E0,0E0,0E0,0E0,0E0,0E0,0E0],"parents":[2147483647,0,0,1,1,2,2,3,3,4,4,5,5,6,6,7,7,8,8,9,9,10,10,11,11,12,12,13,13,14,14],"right_children":[2,4,6,8,10,12,14,16,18,20,22,24,26,28,30,-1,-1,-1,-1,-1,-1,-1,-1,-1,-1,-1,-1,-1,-1,-1,-1],"split_conditions":[9.752E0,4.976E0,1.6528E1,2.576E0,1.94E1,1.272E1,2.1944E1,4E0,7E0,4E0,7.84E0,6E0,1.76E1,3.1807339E1,2.6456E1,-1.7481089E-2,-1.4295707E-2,-9.621202E-3,-1.3892466E-2,-5.936834E-3,-9.675064E-3,-4.4450867E-3,-1.8972418E-3,6.8620004E-4,-4.570765E-3,2.7462335E-3,5.1189424E-3,5.2521597E-3,6.907468E-3,8.503479E-3,1.0798622E-2],"split_indices":[4,4,4,4,3,4,4,3,14,14,4,14,0,11,4,0,0,0,0,0,0,0,0,0,0,0,0,0,0,0,0],"split_type":[0,0,0,0,0,0,0,0,0,0,0,0,0,0,0,0,0,0,0,0,0,0,0,0,0,0,0,0,0,0,0],"sum_hessian":[8.924242E5,3.6503862E5,5.2738556E5,1.3127186E5,2.3376675E5,2.5490653E5,2.7247906E5,3.934823E4,9.192363E4,9.509569E4,1.3867106E5,1.298483E5,1.2505823E5,1.4189712E5,1.30581914E5,1.0719321E4,2.8628912E4,8.169085E4,1.0232783E4,7.985505E4,1.5240638E4,6.391744E4,7.475363E4,1.23754336E5,6.0939644E3,1.0465984E5,2.0398379E4,5.002904E4,9.186809E4,8.512625E4,4.5455664E4],"tree_param":{"num_deleted":"0","num_feature":"17","num_nodes":"31","size_leaf_vector":"1"}},{"base_weights":[3.7415992E-4,-1.3768479E-1,9.4140925E-2,-2.2901586E-1,-8.677613E-2,3.4628093E-2,1.494502E-1,-2.865634E-1,-1.9040492E-1,-1.2523502E-1,-5.720363E-2,6.036689E-3,6.0096983E-2,1.2579948E-1,1.8890938E-1,-1.6640374E-2,-1.3339347E-2,-8.848505E-3,-1.1975508E-2,-5.7684854E-3,-9.268983E-3,-3.6977124E-3,-1.2627471E-3,-3.3250425E-4,2.2874663E-3,8.52853E-4,3.5385375E-3,5.4061497E-3,7.1772607E-3,8.465856E-3,1.0456321E-2],"categories":[],"categories_nodes":[],"categories_segments":[],"categories_sizes":[],"default_left":[0,0,0,0,0,0,0,0,0,0,0,0,0,0,0,0,0,0,0,0,0,0,0,0,0,0,0,0,0,0,0],"id":31,"left_children":[1,3,5,7,9,11,13,15,17,19,21,23,25,27,29,-1,-1,-1,-1,-1,-1,-1,-1,-1,-1,-1,-1,-1,-1,-1,-1],"loss_changes":[1.1599634E4,1.6850908E3,1.7564707E3,2.8816602E2,2.64662E2,1.8717725E2,2.5808984E2,4.754297E1,5.1173096E1,5.999939E1,7.040195E1,6.1013504E1,6.2451904E1,5.422998E1,4.101953E1,0E0,0E0,0E0,0E0,0E0,0E0,0E0,0E0,0E0,0E0,0E0,0E0,0E0,0E0,0E0,0E0],"parents":[2147483647,0,0,1,1,2,2,3,3,4,4,5,5,6,6,7,7,8,8,9,9,10,10,11,11,12,12,13,13,14,14],"right_children":[2,4,6,8,10,12,14,16,18,20,22,24,26,28,30,-1,-1,-1,-1,-1,-1,-1,-1,-1,-1,-1,-1,-1,-1,-1,-1],"split_conditions":[9.752E0,4.976E0,1.6528E1,3E0,7.08E0,1.3E1,2.32E1,1.6E0,4E0,4E0,9.4E0,2.995E1,2.45E1,1.9704E1,5.8E0,-1.6640374E-2,-1.3339347E-2,-8.848505E-3,-1.1975508E-2,-5.7684854E-3,-9.268983E-3,-3.6977124E-3,-1.2627471E-3,-3.3250425E-4,2.2874663E-3,8.52853E-4,3.5385375E-3,5.4061497E-3,7.1772607E-3,8.465856E-3,1.0456321E-2],"split_indices":[4,4,4,4,4,0,4,4,14,14,0,11,11,4,2,0,0,0,0,0,0,0,0,0,0,0,0,0,0,0,0],"split_type":[0,0,0,0,0,0,0,0,0,0,0,0,0,0,0,0,0,0,0,0,0,0,0,0,0,0,0,0,0,0,0],"sum_hessian":[8.9604494E5,3.6242397E5,5.33621E5,1.29712984E5,2.3271097E5,2.5704353E5,2.7657747E5,5.2081645E4,7.7631336E4,1.0115551E5,1.3155547E5,1.2109895E5,1.359446E5,1.729314E5,1.0364605E5,1.5596327E4,3.6485316E4,6.0958234E4,1.6673102E4,8.690389E4,1.4251624E4,8.630477E4,4.5250695E4,9.17795E4,2.9319453E4,2.7014873E4,1.0892971E5,8.663829E4,8.629312E4,5.2641094E4,5.1004953E4],"tree_param":{"num_deleted":"0","num_feature":"17","num_nodes":"31","size_leaf_vector":"1"}},{"base_weights":[-3.035908E-4,-1.3583755E-1,9.0974234E-2,-2.254531E-1,-8.5457966E-2,2.8220773E-2,1.422481E-1,-2.962476E-1,-1.9678724E-1,-1.296112E-1,-5.9750684E-2,-3.4660796E-5,5.3176664E-2,1.1506237E-1,1.7526479E-1,-1.5904946E-2,-1.3091974E-2,-1.1076356E-2,-8.814952E-3,-7.2668204E-3,-5.0253626E-3,-5.2103074E-3,-2.1504192E-3,-2.3633796E-3,4.445707E-4,1.2126773E-3,3.4446695E-3,4.9634813E-3,6.6384086E-3,8.188392E-3,1.0300019E-2],"categories":[],"categories_nodes":[],"categories_segments":[],"categories_sizes":[],"default_left":[0,0,0,0,0,0,0,0,0,0,0,0,0,0,0,0,0,0,0,0,0,0,0,0,0,0,0,0,0,0,0],"id":32,"left_children":[1,3,5,7,9,11,13,15,17,19,21,23,25,27,29,-1,-1,-1,-1,-1,-1,-1,-1,-1,-1,-1,-1,-1,-1,-1,-1],"loss_changes":[1.1027565E4,1.619565E3,1.7138857E3,2.6192383E2,2.6064233E2,1.6889362E2,2.6309717E2,2.788916E1,4.6537598E1,3.865857E1,1.0801843E2,4.7360943E1,5.781366E1,4.494165E1,4.6742188E1,0E0,0E0,0E0,0E0,0E0,0E0,0E0,0E0,0E0,0E0,0E0,0E0,0E0,0E0,0E0,0E0],"parents":[2147483647,0,0,1,1,2,2,3,3,4,4,5,5,6,6,7,7,8,8,9,9,10,10,11,11,12,12,13,13,14,14],"right_children":[2,4,6,8,10,12,14,16,18,20,22,24,26,28,30,-1,-1,-1,-1,-1,-1,-1,-1,-1,-1,-1,-1,-1,-1,-1,-1],"split_conditions":[9.752E0,4.976E0,1.5944E1,2.488E0,6.776E0,1.224E1,2.1944E1,6.6E0,3.6E0,1.9833334E1,1.94E1,2.5833333E0,2.714865E1,1.98E1,7.981818E0,-1.5904946E-2,-1.3091974E-2,-1.1076356E-2,-8.814952E-3,-7.2668204E-3,-5.0253626E-3,-5.2103074E-3,-2.1504192E-3,-2.3633796E-3,4.445707E-4,1.2126773E-3,3.4446695E-3,4.9634813E-3,6.6384086E-3,8.188392E-3,1.0300019E-2],"split_indices":[4,4,4,4,4,4,4,3,0,11,3,9,11,0,9,0,0,0,0,0,0,0,0,0,0,0,0,0,0,0,0],"split_type":[0,0,0,0,0,0,0,0,0,0,0,0,0,0,0,0,0,0,0,0,0,0,0,0,0,0,0,0,0,0,0],"sum_hessian":[8.913849E5,3.587275E5,5.326574E5,1.2909284E5,2.2963467E5,2.39517E5,2.9314038E5,3.720366E4,9.188918E4,8.449951E4,1.4513516E5,1.1233296E5,1.2718404E5,1.6076884E5,1.3237153E5,2.2748615E4,1.4455047E4,4.1621094E4,5.026809E4,5.4856105E4,2.9643402E4,3.970421E4,1.0543095E5,1.7853842E4,9.447912E4,4.477964E4,8.24044E4,8.497857E4,7.579027E4,9.634063E4,3.6030902E4],"tree_param":{"num_deleted":"0","num_feature":"17","num_nodes":"31","size_leaf_vector":"1"}},{"base_weights":[-6.52468E-4,-1.4127684E-1,8.1888355E-2,-2.1398385E-1,-8.613888E-2,1.8645942E-2,1.3390222E-1,-2.6703662E-1,-1.7441426E-1,-1.2685615E-1,-5.2518535E-2,-1.5887402E-2,4.2666957E-2,1.0950586E-1,1.7058581E-1,-1.47917075E-2,-1.1257959E-2,-7.958814E-3,-1.16451895E-2,-5.864526E-3,-1.10922335E-2,-5.725596E-3,-1.9339275E-3,-1.5083239E-3,1.7759035E-3,1.6191099E-3,3.4906026E-3,3.893834E-3,6.017127E-3,7.5835264E-3,9.586777E-3],"categories":[],"categories_nodes":[],"categories_segments":[],"categories_sizes":[],"default_left":[0,0,0,0,0,0,0,0,0,0,0,0,0,0,0,0,0,0,0,0,0,0,0,0,0,0,0,0,0,0,0],"id":33,"left_children":[1,3,5,7,9,11,13,15,17,19,21,23,25,27,29,-1,-1,-1,-1,-1,-1,-1,-1,-1,-1,-1,-1,-1,-1,-1,-1],"loss_changes":[1.03916045E4,1.3274453E3,1.8557273E3,2.9975195E2,2.5778748E2,2.1119095E2,2.7701318E2,7.350781E1,7.287109E1,7.736072E1,8.849698E1,7.666455E1,4.1916595E1,6.3713623E1,4.943213E1,0E0,0E0,0E0,0E0,0E0,0E0,0E0,0E0,0E0,0E0,0E0,0E0,0E0,0E0,0E0,0E0],"parents":[2147483647,0,0,1,1,2,2,3,3,4,4,5,5,6,6,7,7,8,8,9,9,10,10,11,11,12,12,13,13,14,14],"right_children":[2,4,6,8,10,12,14,16,18,20,22,24,26,28,30,-1,-1,-1,-1,-1,-1,-1,-1,-1,-1,-1,-1,-1,-1,-1,-1],"split_conditions":[9.4E0,5.2E0,1.5190476E1,3E0,7.1034484E0,1.0666667E1,2.2538462E1,4E0,4E0,5E0,1.72E1,1.36E1,1.58E1,1.64E1,2.6434782E1,-1.47917075E-2,-1.1257959E-2,-7.958814E-3,-1.16451895E-2,-5.864526E-3,-1.10922335E-2,-5.725596E-3,-1.9339275E-3,-1.5083239E-3,1.7759035E-3,1.6191099E-3,3.4906026E-3,3.893834E-3,6.017127E-3,7.5835264E-3,9.586777E-3],"split_indices":[0,0,8,0,8,8,8,8,14,14,3,0,0,0,8,0,0,0,0,0,0,0,0,0,0,0,0,0,0,0,0],"split_type":[0,0,0,0,0,0,0,0,0,0,0,0,0,0,0,0,0,0,0,0,0,0,0,0,0,0,0,0,0,0,0],"sum_hessian":[8.9526644E5,3.3112678E5,5.641397E5,1.4280964E5,1.8831712E5,2.5459052E5,3.0954916E5,6.1007832E4,8.180181E4,8.516809E4,1.0314902E5,1.0444194E5,1.5014858E5,1.8591245E5,1.23636695E5,3.6145727E4,2.4862105E4,6.4897965E4,1.690385E4,7.7378125E4,7.789972E3,1.882391E4,8.432512E4,8.1737766E4,2.270417E4,1.0889321E5,4.1255367E4,4.7444258E4,1.3846819E5,6.5270297E4,5.83664E4],"tree_param":{"num_deleted":"0","num_feature":"17","num_nodes":"31","size_leaf_vector":"1"}},{"base_weights":[4.8250155E-4,-1.3252066E-1,8.496802E-2,-2.2494933E-1,-8.3357766E-2,2.8821059E-2,1.3679865E-1,-3.0016074E-1,-1.9326276E-1,-1.1621413E-1,-4.1727994E-2,-1.5072607E-2,4.851328E-2,1.12874955E-1,1.6681738E-1,-1.799954E-2,-1.4253813E-2,-9.141303E-3,-1.3796111E-2,-5.2389153E-3,-9.568811E-3,-3.9072484E-3,-1.0635181E-3,-2.1682836E-3,4.4632328E-4,1.8181553E-3,4.06645E-3,4.757208E-3,6.42249E-3,7.492762E-3,9.367492E-3],"categories":[],"categories_nodes":[],"categories_segments":[],"categories_sizes":[],"default_left":[0,0,0,0,0,0,0,0,0,0,0,0,0,0,0,0,0,0,0,0,0,0,0,0,0,0,0,0,0,0,0],"id":34,"left_children":[1,3,5,7,9,11,13,15,17,19,21,23,25,27,29,-1,-1,-1,-1,-1,-1,-1,-1,-1,-1,-1,-1,-1,-1,-1,-1],"loss_changes":[1.0055918E4,1.5796553E3,1.5926292E3,2.8760107E2,3.1039307E2,2.2706781E2,2.043501E2,3.2186768E1,7.321655E1,1.0899573E2,7.4575455E1,5.524248E1,7.230121E1,4.37218E1,4.3926514E1,0E0,0E0,0E0,0E0,0E0,0E0,0E0,0E0,0E0,0E0,0E0,0E0,0E0,0E0,0E0,0E0],"parents":[2147483647,0,0,1,1,2,2,3,3,4,4,5,5,6,6,7,7,8,8,9,9,10,10,11,11,12,12,13,13,14,14],"right_children":[2,4,6,8,10,12,14,16,18,20,22,24,26,28,30,-1,-1,-1,-1,-1,-1,-1,-1,-1,-1,-1,-1,-1,-1,-1,-1],"split_conditions":[9.616E0,4.864E0,1.60625E1,2.488E0,7.928571E0,1.0473684E1,2.2538462E1,1.4944341E0,7E0,4E0,2.04E1,1.1176E1,1.5496E1,1.892E1,5.8E0,-1.799954E-2,-1.4253813E-2,-9.141303E-3,-1.3796111E-2,-5.2389153E-3,-9.568811E-3,-3.9072484E-3,-1.0635181E-3,-2.1682836E-3,4.4632328E-4,1.8181553E-3,4.06645E-3,4.757208E-3,6.42249E-3,7.492762E-3,9.367492E-3],"split_indices":[4,4,8,4,8,8,8,6,14,14,3,4,4,4,2,0,0,0,0,0,0,0,0,0,0,0,0,0,0,0,0],"split_type":[0,0,0,0,0,0,0,0,0,0,0,0,0,0,0,0,0,0,0,0,0,0,0,0,0,0,0,0,0,0,0],"sum_hessian":[8.949041E5,3.476337E5,5.4727044E5,1.2070281E5,2.2693088E5,2.6269756E5,2.8457284E5,3.5776074E4,8.492674E4,1.2682906E5,1.0010182E5,8.135615E4,1.8134142E5,1.5836617E5,1.2620666E5,7.199116E3,2.8576959E4,7.540872E4,9.5180205E3,1.1008253E5,1.6746525E4,3.600532E4,6.4096496E4,3.7337402E4,4.4018742E4,1.3234295E5,4.8998477E4,7.406071E4,8.430546E4,6.911673E4,5.7089938E4],"tree_param":{"num_deleted":"0","num_feature":"17","num_nodes":"31","size_leaf_vector":"1"}},{"base_weights":[1.1900606E-3,-1.2895551E-1,8.35065E-2,-2.1619207E-1,-8.001383E-2,2.8319445E-2,1.3369995E-1,-2.860066E-1,-1.8886574E-1,-1.1893708E-1,-4.8532307E-2,3.4286669E-3,6.566734E-2,1.1065804E-1,1.6122304E-1,-1.7473103E-2,-1.33326305E-2,-8.935719E-3,-1.3420767E-2,-5.3297454E-3,-9.889322E-3,-4.4090594E-3,-1.3710307E-3,-1.1682616E-3,1.101497E-3,6.873586E-4,3.5678928E-3,4.5223143E-3,6.242162E-3,7.307732E-3,8.995999E-3],"categories":[],"categories_nodes":[],"categories_segments":[],"categories_sizes":[],"default_left":[0,0,0,0,0,0,0,0,0,0,0,0,0,0,0,0,0,0,0,0,0,0,0,0,0,0,0,0,0,0,0],"id":35,"left_children":[1,3,5,7,9,11,13,15,17,19,21,23,25,27,29,-1,-1,-1,-1,-1,-1,-1,-1,-1,-1,-1,-1,-1,-1,-1,-1],"loss_changes":[9.592936E3,1.4811982E3,1.5193811E3,2.3781396E2,2.7232678E2,2.4287163E2,1.8215186E2,4.297998E1,7.231836E1,9.66897E1,1.02846954E2,7.813807E1,3.086914E1,4.4817383E1,3.6850586E1,0E0,0E0,0E0,0E0,0E0,0E0,0E0,0E0,0E0,0E0,0E0,0E0,0E0,0E0,0E0,0E0],"parents":[2147483647,0,0,1,1,2,2,3,3,4,4,5,5,6,6,7,7,8,8,9,9,10,10,11,11,12,12,13,13,14,14],"right_children":[2,4,6,8,10,12,14,16,18,20,22,24,26,28,30,-1,-1,-1,-1,-1,-1,-1,-1,-1,-1,-1,-1,-1,-1,-1,-1],"split_conditions":[9.616E0,4.976E0,1.6368E1,2.488E0,7.1034484E0,1.3327103E1,2.2075E1,1.6329932E0,7E0,4E0,2E1,1.1256E1,4.2216372E0,1.8338709E1,5.8E0,-1.7473103E-2,-1.33326305E-2,-8.935719E-3,-1.3420767E-2,-5.3297454E-3,-9.889322E-3,-4.4090594E-3,-1.3710307E-3,-1.1682616E-3,1.101497E-3,6.873586E-4,3.5678928E-3,4.5223143E-3,6.242162E-3,7.307732E-3,8.995999E-3],"split_indices":[4,4,4,4,8,8,8,6,14,14,3,4,6,8,2,0,0,0,0,0,0,0,0,0,0,0,0,0,0,0,0],"split_type":[0,0,0,0,0,0,0,0,0,0,0,0,0,0,0,0,0,0,0,0,0,0,0,0,0,0,0,0,0,0,0],"sum_hessian":[8.9543606E5,3.469282E5,5.485079E5,1.24682805E5,2.2224538E5,2.6125878E5,2.872491E5,3.507138E4,8.961143E4,9.937587E4,1.2286951E5,1.5677562E5,1.04483164E5,1.563556E5,1.3089351E5,8.192788E3,2.687859E4,7.947307E4,1.0138356E4,8.592804E4,1.3447836E4,4.2690777E4,8.0178734E4,6.4240777E4,9.253484E4,1.0320696E4,9.416247E4,6.44836E4,9.187199E4,7.2484766E4,5.8408742E4],"tree_param":{"num_deleted":"0","num_feature":"17","num_nodes":"31","size_leaf_vector":"1"}},{"base_weights":[3.9401648E-4,-1.3244204E-1,7.617751E-2,-2.1870506E-1,-8.727211E-2,2.3307601E-2,1.2845826E-1,-2.8796747E-1,-1.8808663E-1,-1.2214619E-1,-5.3586297E-2,-9.3765167E-4,5.6822833E-2,1.05461806E-1,1.5561655E-1,-1.5939375E-2,-1.2738014E-2,-1.0293385E-2,-7.3305303E-3,-5.5161165E-3,-9.757816E-3,-4.263111E-3,-1.3842706E-3,-1.5277622E-3,1.2086871E-3,2.2921523E-3,4.1793827E-3,4.2727618E-3,5.8921394E-3,6.9325934E-3,8.837055E-3],"categories":[],"categories_nodes":[],"categories_segments":[],"categories_sizes":[],"default_left":[0,0,0,0,0,0,0,0,0,0,0,0,0,0,0,0,0,0,0,0,0,0,0,0,0,0,0,0,0,0,0],"id":36,"left_children":[1,3,5,7,9,11,13,15,17,19,21,23,25,27,29,-1,-1,-1,-1,-1,-1,-1,-1,-1,-1,-1,-1,-1,-1,-1,-1],"loss_changes":[9.026551E3,1.2691646E3,1.578127E3,2.3734277E2,2.5113855E2,2.3067094E2,1.7927148E2,3.503784E1,5.721997E1,9.06543E1,8.921683E1,1.2250704E2,3.5013153E1,3.8494873E1,4.7145508E1,0E0,0E0,0E0,0E0,0E0,0E0,0E0,0E0,0E0,0E0,0E0,0E0,0E0,0E0,0E0,0E0],"parents":[2147483647,0,0,1,1,2,2,3,3,4,4,5,5,6,6,7,7,8,8,9,9,10,10,11,11,12,12,13,13,14,14],"right_children":[2,4,6,8,10,12,14,16,18,20,22,24,26,28,30,-1,-1,-1,-1,-1,-1,-1,-1,-1,-1,-1,-1,-1,-1,-1,-1],"split_conditions":[9.216E0,4.728E0,1.60625E1,2.488E0,7.1034484E0,1.3104E1,2.2075E1,5.8E0,5.769231E0,4E0,2.1E1,1.0473684E1,1.76E1,1.7992E1,5.8E0,-1.5939375E-2,-1.2738014E-2,-1.0293385E-2,-7.3305303E-3,-5.5161165E-3,-9.757816E-3,-4.263111E-3,-1.3842706E-3,-1.5277622E-3,1.2086871E-3,2.2921523E-3,4.1793827E-3,4.2727618E-3,5.8921394E-3,6.9325934E-3,8.837055E-3],"split_indices":[4,4,8,4,8,4,8,3,8,14,3,8,0,4,2,0,0,0,0,0,0,0,0,0,0,0,0,0,0,0,0],"split_type":[0,0,0,0,0,0,0,0,0,0,0,0,0,0,0,0,0,0,0,0,0,0,0,0,0,0,0,0,0,0,0],"sum_hessian":[8.966651E5,3.257238E5,5.709413E5,1.1194109E5,2.1378273E5,2.838719E5,2.870694E5,3.4312926E4,7.762817E4,1.0503744E5,1.0874529E5,1.6471581E5,1.19156086E5,1.554478E5,1.316216E5,1.7791662E4,1.6521262E4,5.433178E4,2.3296389E4,9.039984E4,1.4637595E4,4.891796E4,5.9827332E4,7.557674E4,8.913907E4,8.4495875E4,3.466021E4,5.942699E4,9.602081E4,7.300244E4,5.8619152E4],"tree_param":{"num_deleted":"0","num_feature":"17","num_nodes":"31","size_leaf_vector":"1"}},{"base_weights":[-5.414397E-5,-1.3148038E-1,7.3769994E-2,-2.1319084E-1,-8.702016E-2,2.064483E-2,1.2616523E-1,-2.591691E-1,-1.7684181E-1,-1.2509683E-1,-5.135518E-2,-7.881156E-3,4.965809E-2,1.1061235E-1,1.6298531E-1,-1.7132977E-2,-1.2182186E-2,-1.0596818E-2,-7.596129E-3,-5.83155E-3,-1.1430331E-2,-4.281203E-3,-1.7114619E-3,-6.9922843E-4,4.6411394E-3,2.1267221E-3,3.9285417E-3,-2.567484E-3,5.601936E-3,8.234745E-3,-9.868674E-4],"categories":[],"categories_nodes":[],"categories_segments":[],"categories_sizes":[],"default_left":[0,0,0,0,0,0,0,0,0,0,0,0,0,0,0,0,0,0,0,0,0,0,0,0,0,0,0,0,0,0,0],"id":37,"left_children":[1,3,5,7,9,11,13,15,17,19,21,23,25,27,29,-1,-1,-1,-1,-1,-1,-1,-1,-1,-1,-1,-1,-1,-1,-1,-1],"loss_changes":[8.691931E3,1.1705576E3,1.5967075E3,1.8971484E2,2.833767E2,2.357377E2,1.6536523E2,6.489551E1,5.542578E1,8.8413574E1,6.3235382E1,8.827782E1,2.9081085E1,4.6911133E1,2.6793457E1,0E0,0E0,0E0,0E0,0E0,0E0,0E0,0E0,0E0,0E0,0E0,0E0,0E0,0E0,0E0,0E0],"parents":[2147483647,0,0,1,1,2,2,3,3,4,4,5,5,6,6,7,7,8,8,9,9,10,10,11,11,12,12,13,13,14,14],"right_children":[2,4,6,8,10,12,14,16,18,20,22,24,26,28,30,-1,-1,-1,-1,-1,-1,-1,-1,-1,-1,-1,-1,-1,-1,-1,-1],"split_conditions":[9.4E0,4.6E0,1.60625E1,4E0,7.1034484E0,1.1768292E1,2.4947369E1,4E0,1.1E1,6E0,1.96E1,1.7E1,1.76E1,2.34E1,1.2E1,-1.7132977E-2,-1.2182186E-2,-1.0596818E-2,-7.596129E-3,-5.83155E-3,-1.1430331E-2,-4.281203E-3,-1.7114619E-3,-6.9922843E-4,4.6411394E-3,2.1267221E-3,3.9285417E-3,-2.567484E-3,5.601936E-3,8.234745E-3,-9.868674E-4],"split_indices":[0,0,8,8,8,8,8,3,3,14,3,0,0,3,14,0,0,0,0,0,0,0,0,0,0,0,0,0,0,0,0],"split_type":[0,0,0,0,0,0,0,0,0,0,0,0,0,0,0,0,0,0,0,0,0,0,0,0,0,0,0,0,0,0,0],"sum_hessian":[8.958491E5,3.2221734E5,5.736318E5,1.1354213E5,2.086752E5,2.8483256E5,2.8879925E5,5.0128254E4,6.3413883E4,1.0092406E5,1.0775114E5,1.436227E5,1.4120986E5,2.0303914E5,8.576009E4,7.8566616E3,4.227159E4,2.6327912E4,3.7085973E4,9.329574E4,7.6283257E3,3.590384E4,7.1847305E4,1.3541633E5,8.206381E3,1.1329758E5,2.7912285E4,1.7722108E3,2.0126694E5,8.496525E4,7.9484406E2],"tree_param":{"num_deleted":"0","num_feature":"17","num_nodes":"31","size_leaf_vector":"1"}},{"base_weights":[-8.3954976E-4,-1.2292577E-1,7.482061E-2,-2.0694427E-1,-7.744466E-2,2.1439726E-2,1.1774431E-1,-2.8326076E-1,-1.7741469E-1,-1.1293847E-1,-4.9157437E-2,-4.370477E-3,5.1720243E-2,9.612027E-2,1.457728E-1,-1.6727794E-2,-1.3070794E-2,-8.057415E-3,-1.1648926E-2,-5.0584297E-3,-9.428341E-3,-3.656288E-3,-1.4550732E-3,2.7816946E-5,-5.112982E-3,2.8227614E-3,4.2197853E-4,4.317381E-3,5.988378E-3,6.809398E-3,9.049853E-3],"categories":[],"categories_nodes":[],"categories_segments":[],"categories_sizes":[],"default_left":[0,0,0,0,0,0,0,0,0,0,0,0,0,0,0,0,0,0,0,0,0,0,0,0,0,0,0,0,0,0,0],"id":38,"left_children":[1,3,5,7,9,11,13,15,17,19,21,23,25,27,29,-1,-1,-1,-1,-1,-1,-1,-1,-1,-1,-1,-1,-1,-1,-1,-1],"loss_changes":[8.274429E3,1.3096763E3,1.267198E3,2.712173E2,2.2325671E2,1.9265039E2,1.8578223E2,3.7540283E1,7.840747E1,8.776672E1,5.948471E1,6.417875E1,2.3244415E1,3.9980713E1,4.504834E1,0E0,0E0,0E0,0E0,0E0,0E0,0E0,0E0,0E0,0E0,0E0,0E0,0E0,0E0,0E0,0E0],"parents":[2147483647,0,0,1,1,2,2,3,3,4,4,5,5,6,6,7,7,8,8,9,9,10,10,11,11,12,12,13,13,14,14],"right_children":[2,4,6,8,10,12,14,16,18,20,22,24,26,28,30,-1,-1,-1,-1,-1,-1,-1,-1,-1,-1,-1,-1,-1,-1,-1,-1],"split_conditions":[9.616E0,4.976E0,1.5944E1,2.488E0,7.1034484E0,1.2506667E1,2.2075E1,1.8378732E0,4E0,4E0,7.776E0,6E0,5.418605E0,2.1112E1,2.9585365E1,-1.6727794E-2,-1.3070794E-2,-8.057415E-3,-1.1648926E-2,-5.0584297E-3,-9.428341E-3,-3.656288E-3,-1.4550732E-3,2.7816946E-5,-5.112982E-3,2.8227614E-3,4.2197853E-4,4.317381E-3,5.988378E-3,6.809398E-3,9.049853E-3],"split_indices":[4,4,4,4,8,8,8,6,14,14,4,14,10,4,8,0,0,0,0,0,0,0,0,0,0,0,0,0,0,0,0],"split_type":[0,0,0,0,0,0,0,0,0,0,0,0,0,0,0,0,0,0,0,0,0,0,0,0,0,0,0,0,0,0,0],"sum_hessian":[8.957838E5,3.427375E5,5.530463E5,1.203704E5,2.2236708E5,2.4649772E5,3.0654862E5,3.3579273E4,8.6791125E4,9.861965E4,1.2374744E5,1.3307198E5,1.1342572E5,1.7304698E5,1.3350164E5,1.0024934E4,2.3554342E4,6.7139766E4,1.9651363E4,8.534061E4,1.3279037E4,5.6373918E4,6.7373516E4,1.2669629E5,6.3757007E3,1.0224015E5,1.1185571E4,1.2244791E5,5.059907E4,1.04948914E5,2.855272E4],"tree_param":{"num_deleted":"0","num_feature":"17","num_nodes":"31","size_leaf_vector":"1"}},{"base_weights":[-1.3603469E-3,-1.3126685E-1,6.7862935E-2,-2.3284343E-1,-9.427875E-2,1.6185699E-2,1.1441996E-1,-2.79839E-1,-1.9842122E-1,-1.4447974E-1,-7.2143674E-2,-2.0970955E-2,3.9588057E-2,8.7756604E-2,1.3750505E-1,-1.7013755E-2,-1.3279363E-2,-1.05004E-2,-7.4133123E-3,-8.415572E-3,-5.516401E-3,-5.1679765E-3,-2.567861E-3,-1.9942836E-3,3.140522E-4,1.1425451E-3,2.659668E-3,2.933597E-3,4.852306E-3,6.4917677E-3,8.828546E-3],"categories":[],"categories_nodes":[],"categories_segments":[],"categories_sizes":[],"default_left":[0,0,0,0,0,0,0,0,0,0,0,0,0,0,0,0,0,0,0,0,0,0,0,0,0,0,0,0,0,0,0],"id":39,"left_children":[1,3,5,7,9,11,13,15,17,19,21,23,25,27,29,-1,-1,-1,-1,-1,-1,-1,-1,-1,-1,-1,-1,-1,-1,-1,-1],"loss_changes":[8.0393228E3,1.1676147E3,1.403185E3,1.3414551E2,2.5314697E2,2.4035483E2,1.8883667E2,3.0116943E1,2.7798218E1,5.6720825E1,1.02586975E2,5.506032E1,3.8618042E1,3.846106E1,4.924585E1,0E0,0E0,0E0,0E0,0E0,0E0,0E0,0E0,0E0,0E0,0E0,0E0,0E0,0E0,0E0,0E0],"parents":[2147483647,0,0,1,1,2,2,3,3,4,4,5,5,6,6,7,7,8,8,9,9,10,10,11,11,12,12,13,13,14,14],"right_children":[2,4,6,8,10,12,14,16,18,20,22,24,26,28,30,-1,-1,-1,-1,-1,-1,-1,-1,-1,-1,-1,-1,-1,-1,-1,-1],"split_conditions":[9.016E0,4.04E0,1.5944E1,2.576E0,5.72E0,1.0952381E1,2.1117647E1,1.4944341E0,6.214286E0,6E0,6.664E0,1.1256E1,1.3444445E1,1.5190476E1,2.9585365E1,-1.7013755E-2,-1.3279363E-2,-1.05004E-2,-7.4133123E-3,-8.415572E-3,-5.516401E-3,-5.1679765E-3,-2.567861E-3,-1.9942836E-3,3.140522E-4,1.1425451E-3,2.659668E-3,2.933597E-3,4.852306E-3,6.4917677E-3,8.828546E-3],"split_indices":[4,4,4,4,8,8,8,6,8,0,4,4,8,8,8,0,0,0,0,0,0,0,0,0,0,0,0,0,0,0,0],"split_type":[0,0,0,0,0,0,0,0,0,0,0,0,0,0,0,0,0,0,0,0,0,0,0,0,0,0,0,0,0,0,0],"sum_hessian":[8.9399575E5,3.1077853E5,5.8321725E5,8.295699E4,2.2782155E5,2.764099E5,3.068073E5,3.5069938E4,4.788705E4,6.971246E4,1.5810908E5,1.06815586E5,1.6959433E5,1.4237198E5,1.6443534E5,6.687599E3,2.838234E4,3.889774E4,8.989311E3,4.10577E4,2.8654764E4,6.319806E4,9.491102E4,6.3052473E4,4.376311E4,7.6045875E4,9.354846E4,3.4466805E4,1.0790518E5,1.3745375E5,2.6981588E4],"tree_param":{"num_deleted":"0","num_feature":"17","num_nodes":"31","size_leaf_vector":"1"}},{"base_weights":[-2.8830481E-4,-1.24808505E-1,6.8014786E-2,-2.0635642E-1,-8.088452E-2,1.720001E-2,1.0952765E-1,-2.7441856E-1,-1.7729682E-1,-1.1501367E-1,-4.985819E-2,-7.144265E-3,4.8480105E-2,8.9397006E-2,1.3525583E-1,-1.504965E-2,-1.1510193E-2,-1.0795069E-2,-7.8052557E-3,-7.2297934E-3,-4.8008664E-3,-6.1394726E-3,-2.1499225E-3,-2.5010824E-3,7.705616E-5,1.9577688E-3,3.3369157E-3,2.7629507E-3,4.859585E-3,6.3301795E-3,8.428664E-3],"categories":[],"categories_nodes":[],"categories_segments":[],"categories_sizes":[],"default_left":[0,0,0,0,0,0,0,0,0,0,0,0,0,0,0,0,0,0,0,0,0,0,0,0,0,0,0,0,0,0,0],"id":40,"left_children":[1,3,5,7,9,11,13,15,17,19,21,23,25,27,29,-1,-1,-1,-1,-1,-1,-1,-1,-1,-1,-1,-1,-1,-1,-1,-1],"loss_changes":[7.6300405E3,1.1382451E3,1.2220781E3,2.1997852E2,2.1869641E2,1.9835611E2,1.6512769E2,3.9038086E1,6.3746826E1,5.5254272E1,5.4120087E1,5.4551098E1,1.9406494E1,4.7595215E1,4.0325928E1,0E0,0E0,0E0,0E0,0E0,0E0,0E0,0E0,0E0,0E0,0E0,0E0,0E0,0E0,0E0,0E0],"parents":[2147483647,0,0,1,1,2,2,3,3,4,4,5,5,6,6,7,7,8,8,9,9,10,10,11,11,12,12,13,13,14,14],"right_children":[2,4,6,8,10,12,14,16,18,20,22,24,26,28,30,-1,-1,-1,-1,-1,-1,-1,-1,-1,-1,-1,-1,-1,-1,-1,-1],"split_conditions":[9.216E0,4.8E0,1.5632E1,2.488E0,7.1034484E0,1.2411765E1,2.1944E1,3.5E0,4.0666666E0,6E0,5.64E0,7.7E0,6.2313433E0,1.4947762E1,2.9585365E1,-1.504965E-2,-1.1510193E-2,-1.0795069E-2,-7.8052557E-3,-7.2297934E-3,-4.8008664E-3,-6.1394726E-3,-2.1499225E-3,-2.5010824E-3,7.705616E-5,1.9577688E-3,3.3369157E-3,2.7629507E-3,4.859585E-3,6.3301795E-3,8.428664E-3],"split_indices":[4,4,4,4,8,8,4,8,8,0,4,8,9,8,8,0,0,0,0,0,0,0,0,0,0,0,0,0,0,0,0],"split_type":[0,0,0,0,0,0,0,0,0,0,0,0,0,0,0,0,0,0,0,0,0,0,0,0,0,0,0,0,0,0,0],"sum_hessian":[8.9711006E5,3.1777972E5,5.793303E5,1.11243945E5,2.0653578E5,2.6048231E5,3.18848E5,3.3282547E4,7.79614E4,9.834881E4,1.0818697E5,1.464814E5,1.14000914E5,1.788858E5,1.3996219E5,2.0784564E4,1.2497981E4,2.7626148E4,5.033525E4,3.8456113E4,5.98927E4,9.299522E3,9.8887445E4,2.4672967E4,1.2180844E5,7.546368E4,3.8537234E4,3.3253844E4,1.4563195E5,1.1111218E5,2.885001E4],"tree_param":{"num_deleted":"0","num_feature":"17","num_nodes":"31","size_leaf_vector":"1"}},{"base_weights":[-5.4022996E-4,-1.2212129E-1,6.6031724E-2,-2.2445753E-1,-8.7498285E-2,2.097597E-2,1.0854609E-1,-2.8211218E-1,-1.9661155E-1,-1.2281146E-1,-5.3197145E-2,-1.8607785E-3,4.277515E-2,8.692418E-2,1.2638356E-1,-1.7166315E-2,-1.3203683E-2,-9.021567E-3,-1.1993707E-2,-5.567809E-3,-9.027183E-3,-3.5762598E-3,-1.4702159E-3,-5.0856353E-4,1.560261E-3,1.8134275E-3,4.0272535E-3,4.2879526E-3,1.388322E-2,5.7604234E-3,7.4480474E-3],"categories":[],"categories_nodes":[],"categories_segments":[],"categories_sizes":[],"default_left":[0,0,0,0,0,0,0,0,0,0,0,0,0,0,0,0,0,0,0,0,0,0,0,0,0,0,0,0,0,0,0],"id":41,"left_children":[1,3,5,7,9,11,13,15,17,19,21,23,25,27,29,-1,-1,-1,-1,-1,-1,-1,-1,-1,-1,-1,-1,-1,-1,-1,-1],"loss_changes":[7.272987E3,1.126477E3,1.1122322E3,1.2897827E2,2.8774805E2,1.4033522E2,1.1520996E2,2.8810303E1,3.7896484E1,7.73916E1,5.2549225E1,3.7832283E1,3.544104E1,2.998944E1,4.1284912E1,0E0,0E0,0E0,0E0,0E0,0E0,0E0,0E0,0E0,0E0,0E0,0E0,0E0,0E0,0E0,0E0],"parents":[2147483647,0,0,1,1,2,2,3,3,4,4,5,5,6,6,7,7,8,8,9,9,10,10,11,11,12,12,13,13,14,14],"right_children":[2,4,6,8,10,12,14,16,18,20,22,24,26,28,30,-1,-1,-1,-1,-1,-1,-1,-1,-1,-1,-1,-1,-1,-1,-1,-1],"split_conditions":[9.216E0,4E0,1.6368E1,2.2E0,1.92E1,1.224E1,2.1112E1,1.4944341E0,4E0,4E0,7.84E0,2.995E1,1.74E1,2.68E1,2.82E1,-1.7166315E-2,-1.3203683E-2,-9.021567E-3,-1.1993707E-2,-5.567809E-3,-9.027183E-3,-3.5762598E-3,-1.4702159E-3,-5.0856353E-4,1.560261E-3,1.8134275E-3,4.0272535E-3,4.2879526E-3,1.388322E-2,5.7604234E-3,7.4480474E-3],"split_indices":[4,4,4,4,3,4,4,6,14,14,4,11,0,0,0,0,0,0,0,0,0,0,0,0,0,0,0,0,0,0,0],"split_type":[0,0,0,0,0,0,0,0,0,0,0,0,0,0,0,0,0,0,0,0,0,0,0,0,0,0,0,0,0,0,0],"sum_hessian":[8.985756E5,3.179321E5,5.8064356E5,8.0371164E4,2.3756092E5,2.8189703E5,2.9874653E5,2.617243E4,5.419873E4,1.170524E5,1.2050853E5,1.376726E5,1.4422444E5,1.3504994E5,1.636966E5,5.9529497E3,2.021948E4,3.9449703E4,1.4749026E4,9.767463E4,1.9377766E4,6.807055E4,5.243799E4,1.1002152E5,2.7651064E4,1.230318E5,2.1192646E4,1.3423144E5,8.1849866E2,1.0950241E5,5.4194184E4],"tree_param":{"num_deleted":"0","num_feature":"17","num_nodes":"31","size_leaf_vector":"1"}},{"base_weights":[-8.136162E-4,-1.1255236E-1,6.823113E-2,-2.0075873E-1,-7.059163E-2,2.1230651E-2,1.0311464E-1,-2.5367698E-1,-1.6393153E-1,-1.057497E-1,-4.250558E-2,-1.2658565E-2,3.4020945E-2,8.500887E-2,1.2861472E-1,-1.3954148E-2,-1.0428707E-2,-7.7613713E-3,-1.2085275E-2,-4.7097555E-3,-9.029159E-3,-3.957667E-3,-1.1648253E-3,-2.3199131E-3,1.8785837E-4,9.074646E-4,2.3979167E-3,3.696603E-3,4.955465E-3,6.272122E-3,9.4879735E-3],"categories":[],"categories_nodes":[],"categories_segments":[],"categories_sizes":[],"default_left":[0,0,0,0,0,0,0,0,0,0,0,0,0,0,0,0,0,0,0,0,0,0,0,0,0,0,0,0,0,0,0],"id":42,"left_children":[1,3,5,7,9,11,13,15,17,19,21,23,25,27,29,-1,-1,-1,-1,-1,-1,-1,-1,-1,-1,-1,-1,-1,-1,-1,-1],"loss_changes":[6.8845513E3,1.2613955E3,9.042903E2,2.1406299E2,2.2804553E2,1.0184831E2,1.4615479E2,5.159912E1,4.3818115E1,8.866443E1,9.037961E1,3.565928E1,3.7734543E1,2.8909058E1,2.5473633E1,0E0,0E0,0E0,0E0,0E0,0E0,0E0,0E0,0E0,0E0,0E0,0E0,0E0,0E0,0E0,0E0],"parents":[2147483647,0,0,1,1,2,2,3,3,4,4,5,5,6,6,7,7,8,8,9,9,10,10,11,11,12,12,13,13,14,14],"right_children":[2,4,6,8,10,12,14,16,18,20,22,24,26,28,30,-1,-1,-1,-1,-1,-1,-1,-1,-1,-1,-1,-1,-1,-1,-1,-1],"split_conditions":[9.752E0,4.8E0,1.5416667E1,3E0,7.1034484E0,1E1,2.2538462E1,3.9166667E0,7E0,4E0,2E1,2.52E1,1.292E1,1.9512E1,3.56E1,-1.3954148E-2,-1.0428707E-2,-7.7613713E-3,-1.2085275E-2,-4.7097555E-3,-9.029159E-3,-3.957667E-3,-1.1648253E-3,-2.3199131E-3,1.8785837E-4,9.074646E-4,2.3979167E-3,3.696603E-3,4.955465E-3,6.272122E-3,9.4879735E-3],"split_indices":[4,4,8,4,8,8,8,8,14,14,3,3,4,4,0,0,0,0,0,0,0,0,0,0,0,0,0,0,0,0,0],"split_type":[0,0,0,0,0,0,0,0,0,0,0,0,0,0,0,0,0,0,0,0,0,0,0,0,0,0,0,0,0,0,0],"sum_hessian":[8.923604E5,3.4080962E5,5.515508E5,1.0986234E5,2.3094727E5,2.3496762E5,3.1658316E5,4.5079777E4,6.4782566E4,1.0256002E5,1.2838725E5,6.4381676E4,1.7058595E5,1.8513583E5,1.3144733E5,2.8833154E4,1.6246622E4,5.826482E4,6.5177456E3,8.884435E4,1.371567E4,4.4151098E4,8.423615E4,2.1071346E4,4.331033E4,7.9759516E4,9.082643E4,1.0368822E5,8.144761E4,1.249669E5,6.4804316E3],"tree_param":{"num_deleted":"0","num_feature":"17","num_nodes":"31","size_leaf_vector":"1"}},{"base_weights":[-9.1831904E-4,-1.2903392E-1,5.604577E-2,-2.2043031E-1,-9.665571E-2,6.4250296E-3,9.758886E-2,-2.782251E-1,-1.9381756E-1,-1.3081592E-1,-6.2755965E-2,-2.2214808E-2,2.335173E-2,7.200605E-2,1.136649E-1,-1.6876122E-2,-1.303079E-2,-1.0120059E-2,-5.7644774E-3,-7.201828E-3,-5.4189386E-3,-4.6720267E-3,-2.2922305E-3,-1.6542961E-3,4.3885177E-4,4.547346E-4,2.0672425E-3,4.2884382E-3,3.0067428E-3,5.247002E-3,6.8819174E-3],"categories":[],"categories_nodes":[],"categories_segments":[],"categories_sizes":[],"default_left":[0,0,0,0,0,0,0,0,0,0,0,0,0,0,0,0,0,0,0,0,0,0,0,0,0,0,0,0,0,0,0],"id":43,"left_children":[1,3,5,7,9,11,13,15,17,19,21,23,25,27,29,-1,-1,-1,-1,-1,-1,-1,-1,-1,-1,-1,-1,-1,-1,-1,-1],"loss_changes":[6.544937E3,8.167988E2,1.2796975E3,1.11001465E2,2.3601965E2,1.3714117E2,1.3895947E2,2.3680664E1,3.330359E1,3.0098389E1,5.308185E1,3.5406002E1,4.561225E1,2.1299072E1,4.338794E1,0E0,0E0,0E0,0E0,0E0,0E0,0E0,0E0,0E0,0E0,0E0,0E0,0E0,0E0,0E0,0E0],"parents":[2147483647,0,0,1,1,2,2,3,3,4,4,5,5,6,6,7,7,8,8,9,9,10,10,11,11,12,12,13,13,14,14],"right_children":[2,4,6,8,10,12,14,16,18,20,22,24,26,28,30,-1,-1,-1,-1,-1,-1,-1,-1,-1,-1,-1,-1,-1,-1,-1,-1],"split_conditions":[8.6E0,3.6E0,1.58E1,6.6E0,1.84E1,2.475E1,2.04E1,1.4944341E0,5.186521E0,6E0,2.0044117E1,2.64E1,1.3E1,5.7427067E-1,2.82E1,-1.6876122E-2,-1.303079E-2,-1.0120059E-2,-5.7644774E-3,-7.201828E-3,-5.4189386E-3,-4.6720267E-3,-2.2922305E-3,-1.6542961E-3,4.3885177E-4,4.547346E-4,2.0672425E-3,4.2884382E-3,3.0067428E-3,5.247002E-3,6.8819174E-3],"split_indices":[0,0,0,3,3,11,0,6,6,0,11,3,0,5,0,0,0,0,0,0,0,0,0,0,0,0,0,0,0,0,0],"split_type":[0,0,0,0,0,0,0,0,0,0,0,0,0,0,0,0,0,0,0,0,0,0,0,0,0,0,0,0,0,0,0],"sum_hessian":[8.968118E5,2.7602162E5,6.207902E5,7.220301E4,2.0381862E5,2.828928E5,3.378974E5,2.276183E4,4.9441176E4,1.0151788E5,1.0230075E5,1.0508669E5,1.7780611E5,1.3039581E5,2.075016E5,5.20761E3,1.755422E4,4.4568016E4,4.87316E3,6.3875266E4,3.7642613E4,3.6346977E4,6.5953766E4,7.7797375E4,2.7289314E4,9.920304E4,7.860307E4,6.0384082E4,7.001173E4,1.5213806E5,5.5363535E4],"tree_param":{"num_deleted":"0","num_feature":"17","num_nodes":"31","size_leaf_vector":"1"}},{"base_weights":[-1.0502403E-4,-1.2250074E-1,5.6154165E-2,-2.1406348E-1,-8.717956E-2,8.0275815E-3,9.495922E-2,-2.4860212E-1,-1.7038918E-1,-1.12728976E-1,-4.411317E-2,-2.2157434E-2,2.7180055E-2,7.29841E-2,1.20564915E-1,-1.4963138E-2,-1.1518649E-2,-9.000309E-3,-3.904479E-3,-7.1855276E-3,-4.758354E-3,-2.91976E-3,-8.412556E-4,-1.863776E-3,5.3992594E-4,1.04467E-3,3.0432092E-3,2.1624097E-3,4.0288786E-3,5.2888817E-3,6.779199E-3],"categories":[],"categories_nodes":[],"categories_segments":[],"categories_sizes":[],"default_left":[0,0,0,0,0,0,0,0,0,0,0,0,0,0,0,0,0,0,0,0,0,0,0,0,0,0,0,0,0,0,0],"id":44,"left_children":[1,3,5,7,9,11,13,15,17,19,21,23,25,27,29,-1,-1,-1,-1,-1,-1,-1,-1,-1,-1,-1,-1,-1,-1,-1,-1],"loss_changes":[6.151454E3,9.09791E2,1.1429902E3,1.1808496E2,2.2336853E2,1.5794267E2,1.906438E2,4.0313232E1,3.0685242E1,6.931287E1,2.9459595E1,5.284034E1,3.539373E1,4.116925E1,3.4739502E1,0E0,0E0,0E0,0E0,0E0,0E0,0E0,0E0,0E0,0E0,0E0,0E0,0E0,0E0,0E0,0E0],"parents":[2147483647,0,0,1,1,2,2,3,3,4,4,5,5,6,6,7,7,8,8,9,9,10,10,11,11,12,12,13,13,14,14],"right_children":[2,4,6,8,10,12,14,16,18,20,22,24,26,28,30,-1,-1,-1,-1,-1,-1,-1,-1,-1,-1,-1,-1,-1,-1,-1,-1],"split_conditions":[8.8E0,4.04E0,1.4947762E1,3E0,7.875E0,1.0076923E1,2.1555555E1,1.552E0,7.285714E0,5.130435E0,4.2E0,1.1416E1,1.7E1,1.492E1,2.564626E1,-1.4963138E-2,-1.1518649E-2,-9.000309E-3,-3.904479E-3,-7.1855276E-3,-4.758354E-3,-2.91976E-3,-8.412556E-4,-1.863776E-3,5.3992594E-4,1.04467E-3,3.0432092E-3,2.1624097E-3,4.0288786E-3,5.2888817E-3,6.779199E-3],"split_indices":[0,4,8,4,8,8,8,4,8,8,1,4,0,4,8,0,0,0,0,0,0,0,0,0,0,0,0,0,0,0,0],"split_type":[0,0,0,0,0,0,0,0,0,0,0,0,0,0,0,0,0,0,0,0,0,0,0,0,0,0,0,0,0,0,0],"sum_hessian":[8.933406E5,2.813164E5,6.1202425E5,7.830975E4,2.0300666E5,2.7319953E5,3.3882472E5,4.3725742E4,3.458401E4,1.2741516E5,7.55915E4,1.0605411E5,1.671454E5,1.8234114E5,1.564836E5,1.1566338E4,3.2159404E4,3.1319752E4,3.264258E3,4.609325E4,8.132191E4,4.9620152E4,2.5971346E4,7.270265E4,3.3351457E4,1.4085794E5,2.6287477E4,3.709284E4,1.452483E5,7.885428E4,7.762931E4],"tree_param":{"num_deleted":"0","num_feature":"17","num_nodes":"31","size_leaf_vector":"1"}},{"base_weights":[5.617608E-4,-1.2210922E-1,5.5548992E-2,-2.1004854E-1,-8.849396E-2,1.3305396E-2,9.954237E-2,-2.530097E-1,-1.7947027E-1,-1.2689696E-1,-6.411136E-2,-2.3421207E-2,3.1045461E-2,8.750265E-2,1.3421091E-1,-1.5031558E-2,-1.1811708E-2,-8.06988E-3,-1.1607949E-2,-5.585638E-3,-1.0316854E-2,-5.16062E-3,-2.3499087E-3,-2.6878847E-3,-2.3633933E-4,5.684614E-4,2.2623618E-3,-2.9182658E-3,4.4257506E-3,6.802889E-3,-1.9476619E-3],"categories":[],"categories_nodes":[],"categories_segments":[],"categories_sizes":[],"default_left":[0,0,0,0,0,0,0,0,0,0,0,0,0,0,0,0,0,0,0,0,0,0,0,0,0,0,0,0,0,0,0],"id":45,"left_children":[1,3,5,7,9,11,13,15,17,19,21,23,25,27,29,-1,-1,-1,-1,-1,-1,-1,-1,-1,-1,-1,-1,-1,-1,-1,-1],"loss_changes":[6.0420757E3,8.195376E2,1.149441E3,1.0067285E2,1.8780212E2,2.0557579E2,1.2644995E2,2.539502E1,4.2615356E1,9.3932495E1,8.2088135E1,5.82823E1,5.945192E1,3.32135E1,2.4980713E1,0E0,0E0,0E0,0E0,0E0,0E0,0E0,0E0,0E0,0E0,0E0,0E0,0E0,0E0,0E0,0E0],"parents":[2147483647,0,0,1,1,2,2,3,3,4,4,5,5,6,6,7,7,8,