{"learner":{"attributes":{"scikit_learn":"{\"_estimator_type\": \"regressor\"}"},"feature_names":[],"feature_types":[],"gradient_booster":{"model":{"cats":{"enc":[],"feature_segments":[],"sorted_idx":[]},"gbtree_model_param":{"num_parallel_tree":"1","num_trees":"600"},"iteration_indptr":[0,1,2,3,4,5,6,7,8,9,10,11,12,13,14,15,16,17,18,19,20,21,22,23,24,25,26,27,28,29,30,31,32,33,34,35,36,37,38,39,40,41,42,43,44,45,46,47,48,49,50,51,52,53,54,55,56,57,58,59,60,61,62,63,64,65,66,67,68,69,70,71,72,73,74,75,76,77,78,79,80,81,82,83,84,85,86,87,88,89,90,91,92,93,94,95,96,97,98,99,100,101,102,103,104,105,106,107,108,109,110,111,112,113,114,115,116,117,118,119,120,121,122,123,124,125,126,127,128,129,130,131,132,133,134,135,136,137,138,139,140,141,142,143,144,145,146,147,148,149,150,151,152,153,154,155,156,157,158,159,160,161,162,163,164,165,166,167,168,169,170,171,172,173,174,175,176,177,178,179,180,181,182,183,184,185,186,187,188,189,190,191,192,193,194,195,196,197,198,199,200,201,202,203,204,205,206,207,208,209,210,211,212,213,214,215,216,217,218,219,220,221,222,223,224,225,226,227,228,229,230,231,232,233,234,235,236,237,238,239,240,241,242,243,244,245,246,247,248,249,250,251,252,253,254,255,256,257,258,259,260,261,262,263,264,265,266,267,268,269,270,271,272,273,274,275,276,277,278,279,280,281,282,283,284,285,286,287,288,289,290,291,292,293,294,295,296,297,298,299,300,301,302,303,304,305,306,307,308,309,310,311,312,313,314,315,316,317,318,319,320,321,322,323,324,325,326,327,328,329,330,331,332,333,334,335,336,337,338,339,340,341,342,343,344,345,346,347,348,349,350,351,352,353,354,355,356,357,358,359,360,361,362,363,364,365,366,367,368,369,370,371,372,373,374,375,376,377,378,379,380,381,382,383,384,385,386,387,388,389,390,391,392,393,394,395,396,397,398,399,400,401,402,403,404,405,406,407,408,409,410,411,412,413,414,415,416,417,418,419,420,421,422,423,424,425,426,427,428,429,430,431,432,433,434,435,436,437,438,439,440,441,442,443,444,445,446,447,448,449,450,451,452,453,454,455,456,457,458,459,460,461,462,463,464,465,466,467,468,469,470,471,472,473,474,475,476,477,478,479,480,481,482,483,484,485,486,487,488,489,490,491,492,493,494,495,496,497,498,499,500,501,502,503,504,505,506,507,508,509,510,511,512,513,514,515,516,517,518,519,520,521,522,523,524,525,526,527,528,529,530,531,532,533,534,535,536,537,538,539,540,541,542,543,544,545,546,547,548,549,550,551,552,553,554,555,556,557,558,559,560,561,562,563,564,565,566,567,568,569,570,571,572,573,574,575,576,577,578,579,580,581,582,583,584,585,586,587,588,589,590,591,592,593,594,595,596,597,598,599,600],"tree_info":[0,0,0,0,0,0,0,0,0,0,0,0,0,0,0,0,0,0,0,0,0,0,0,0,0,0,0,0,0,0,0,0,0,0,0,0,0,0,0,0,0,0,0,0,0,0,0,0,0,0,0,0,0,0,0,0,0,0,0,0,0,0,0,0,0,0,0,0,0,0,0,0,0,0,0,0,0,0,0,0,0,0,0,0,0,0,0,0,0,0,0,0,0,0,0,0,0,0,0,0,0,0,0,0,0,0,0,0,0,0,0,0,0,0,0,0,0,0,0,0,0,0,0,0,0,0,0,0,0,0,0,0,0,0,0,0,0,0,0,0,0,0,0,0,0,0,0,0,0,0,0,0,0,0,0,0,0,0,0,0,0,0,0,0,0,0,0,0,0,0,0,0,0,0,0,0,0,0,0,0,0,0,0,0,0,0,0,0,0,0,0,0,0,0,0,0,0,0,0,0,0,0,0,0,0,0,0,0,0,0,0,0,0,0,0,0,0,0,0,0,0,0,0,0,0,0,0,0,0,0,0,0,0,0,0,0,0,0,0,0,0,0,0,0,0,0,0,0,0,0,0,0,0,0,0,0,0,0,0,0,0,0,0,0,0,0,0,0,0,0,0,0,0,0,0,0,0,0,0,0,0,0,0,0,0,0,0,0,0,0,0,0,0,0,0,0,0,0,0,0,0,0,0,0,0,0,0,0,0,0,0,0,0,0,0,0,0,0,0,0,0,0,0,0,0,0,0,0,0,0,0,0,0,0,0,0,0,0,0,0,0,0,0,0,0,0,0,0,0,0,0,0,0,0,0,0,0,0,0,0,0,0,0,0,0,0,0,0,0,0,0,0,0,0,0,0,0,0,0,0,0,0,0,0,0,0,0,0,0,0,0,0,0,0,0,0,0,0,0,0,0,0,0,0,0,0,0,0,0,0,0,0,0,0,0,0,0,0,0,0,0,0,0,0,0,0,0,0,0,0,0,0,0,0,0,0,0,0,0,0,0,0,0,0,0,0,0,0,0,0,0,0,0,0,0,0,0,0,0,0,0,0,0,0,0,0,0,0,0,0,0,0,0,0,0,0,0,0,0,0,0,0,0,0,0,0,0,0,0,0,0,0,0,0,0,0,0,0,0,0,0,0,0,0,0,0,0,0,0,0,0,0,0,0,0,0,0,0,0,0,0,0,0,0,0,0,0,0,0,0,0,0,0,0,0,0,0,0,0,0,0,0,0,0,0,0,0,0,0,0,0,0,0,0,0,0,0,0,0,0,0,0,0,0,0,0,0,0,0,0,0,0,0,0,0,0,0,0,0,0,0,0,0,0,0,0,0,0,0,0,0,0,0,0,0,0,0,0,0,0],"trees":[{"base_weights":[-1.2427868E-1,-2.797573E-1,1.1972776E-1,-3.6658663E-1,-1.6939436E-1,5.4274085E-3,3.0018127E-1,-4.0516722E-1,-3.080022E-1,-2.428125E-1,-1.107879E-1,7.844593E-2,-4.7825303E-2,2.6040715E-1,4.0247497E-1,-2.1360725E-2,-1.8924674E-2,-1.3591572E-2,-1.8149262E-2,-7.4626864E-3,-1.2985975E-2,-4.01825E-3,-1.0245065E-2,-2.379707E-3,5.8732987E-3,-4.1230507E-3,7.0267133E-3,8.591976E-3,1.4932831E-2,2.0322774E-2,6E-3],"categories":[],"categories_nodes":[],"categories_segments":[],"categories_sizes":[],"default_left":[0,0,0,0,0,0,0,0,0,0,0,0,0,0,0,0,0,0,0,0,0,0,0,0,0,0,0,0,0,0,0],"id":0,"left_children":[1,3,5,7,9,11,13,15,17,19,21,23,25,27,29,-1,-1,-1,-1,-1,-1,-1,-1,-1,-1,-1,-1,-1,-1,-1,-1],"loss_changes":[1.5252842E3,2.3526123E2,3.2275247E2,3.09375E1,4.65076E1,3.725884E1,2.458368E1,4.7093506E0,1.0762085E1,7.5538635E0,1.7208557E1,1.9879593E1,3.616089E1,1.4759552E1,1.859314E0,0E0,0E0,0E0,0E0,0E0,0E0,0E0,0E0,0E0,0E0,0E0,0E0,0E0,0E0,0E0,0E0],"parents":[2147483647,0,0,1,1,2,2,3,3,4,4,5,5,6,6,7,7,8,8,9,9,10,10,11,11,12,12,13,13,14,14],"right_children":[2,4,6,8,10,12,14,16,18,20,22,24,26,28,30,-1,-1,-1,-1,-1,-1,-1,-1,-1,-1,-1,-1,-1,-1,-1,-1],"split_conditions":[2.76E1,1.9E1,1.8644444E1,1.42E1,2.2E1,3.96875E0,2.564626E1,1.02E1,3.2E0,1.8947369E0,6.340909E0,9.386861E0,3.294737E1,3.3411766E1,1.24E1,-1E-1,-5E-2,-5E-2,-5E-2,0E0,-5E-2,0E0,0E0,0E0,5E-2,0E0,5E-2,1E-1,1.5E-1,2E-1,5E-2],"split_indices":[3,3,7,3,10,8,7,3,1,8,8,7,10,10,8,0,0,0,0,0,0,0,0,0,0,0,0,0,0,0,0],"split_type":[0,0,0,0,0,0,0,0,0,0,0,0,0,0,0,0,0,0,0,0,0,0,0,0,0,0,0,0,0,0,0],"sum_hessian":[4.0203E4,2.4556E4,1.5647E4,1.3742E4,1.0814E4,9.58E3,6.067E3,8.282E3,5.46E3,4.799E3,6.015E3,4.04E3,5.54E3,4.371E3,1.696E3,4.526E3,3.756E3,3.297E3,2.163E3,7.36E2,4.063E3,4.547E3,1.468E3,9.55E2,3.085E3,4.68E3,8.6E2,1.32E3,3.051E3,1.672E3,2.4E1],"tree_param":{"num_deleted":"0","num_feature":"16","num_nodes":"31","size_leaf_vector":"1"}},{"base_weights":[-5.7077684E-2,-2.1138972E-1,2.8512165E-1,-2.7674994E-1,-7.087015E-2,1.5402612E-1,3.7586066E-1,-3.334301E-1,-2.2961104E-1,8.388158E-3,-1.1249352E-1,7.333815E-2,1.8379605E-1,3.3361468E-1,4.5073062E-1,-1.8630765E-2,-1.4853532E-2,-9.2209745E-3,-1.5568214E-2,-1.5685797E-3,4.568528E-3,-9.367872E-3,-1.3975727E-3,1.06382985E-2,2.2391304E-3,9.618036E-3,-3.7190083E-3,1.0373712E-2,1.7239202E-2,8.59375E-3,2.2697119E-2],"categories":[],"categories_nodes":[],"categories_segments":[],"categories_sizes":[],"default_left":[0,0,0,0,0,0,0,0,0,0,0,0,0,0,0,0,0,0,0,0,0,0,0,0,0,0,0,0,0,0,0],"id":1,"left_children":[1,3,5,7,9,11,13,15,17,19,21,23,25,27,29,-1,-1,-1,-1,-1,-1,-1,-1,-1,-1,-1,-1,-1,-1,-1,-1],"loss_changes":[2.129758E3,2.5527881E2,1.49052E2,5.0613647E1,2.9117897E1,1.2306755E1,2.327771E1,1.2159302E1,3.8221863E1,1.0032921E1,3.662156E1,5.5007806E0,8.29744E0,6.6052246E0,2.312378E0,0E0,0E0,0E0,0E0,0E0,0E0,0E0,0E0,0E0,0E0,0E0,0E0,0E0,0E0,0E0,0E0],"parents":[2147483647,0,0,1,1,2,2,3,3,4,4,5,5,6,6,7,7,8,8,9,9,10,10,11,11,12,12,13,13,14,14],"right_children":[2,4,6,8,10,12,14,16,18,20,22,24,26,28,30,-1,-1,-1,-1,-1,-1,-1,-1,-1,-1,-1,-1,-1,-1,-1,-1],"split_conditions":[2.8181818E0,1.5714285E0,4.037037E0,8.965517E-1,2.2153847E1,3.090909E0,6.030303E0,6E-1,2.267647E1,8.2E0,2.28E0,2.1166666E1,8.1E1,7.6E0,2.7024391E1,-9.5E-2,-5E-2,-4.7500003E-2,-5E-2,-4.4999998E-2,2.4999976E-3,-2.4999976E-3,0E0,5.0000013E-3,4.7500003E-2,5E-2,0E0,5.25E-2,1.425E-1,5E-2,2.4249999E-1],"split_indices":[9,9,9,9,10,9,9,9,10,0,9,10,11,0,10,0,0,0,0,0,0,0,0,0,0,0,0,0,0,0,0],"split_type":[0,0,0,0,0,0,0,0,0,0,0,0,0,0,0,0,0,0,0,0,0,0,0,0,0,0,0,0,0,0,0],"sum_hessian":[4.033E4,2.7796E4,1.2534E4,1.8971E4,8.825E3,5.128E3,7.406E3,8.611E3,1.036E4,3.039E3,5.786E3,1.383E3,3.745E3,4.738E3,2.668E3,4.14E3,4.471E3,6.674E3,3.686E3,2.055E3,9.84E2,3.068E3,2.718E3,2.34E2,1.149E3,3.625E3,1.2E2,3.87E2,4.351E3,3.1E1,2.637E3],"tree_param":{"num_deleted":"0","num_feature":"16","num_nodes":"31","size_leaf_vector":"1"}},{"base_weights":[-2.3949716E-2,-1.9756871E-1,1.2506348E-1,-2.8375784E-1,-9.950563E-2,4.8958957E-2,2.9763162E-1,-4.0292275E-1,-2.6347837E-1,-1.4944951E-1,-5.13544E-2,1.841208E-2,1.14699095E-1,1.1956522E-1,3.2139194E-1,-2.1243352E-2,-1.8913995E-2,-1.5006693E-2,-1.1722057E-2,-3.815955E-3,-9.643391E-3,-5.025663E-4,-4.8733875E-3,1.6882716E-3,-1.9506002E-3,4.198756E-3,9.45122E-3,7.3103453E-3,-1.0775862E-2,1.4407595E-2,2.015699E-2],"categories":[],"categories_nodes":[],"categories_segments":[],"categories_sizes":[],"default_left":[0,0,0,0,0,0,0,0,0,0,0,0,0,0,0,0,0,0,0,0,0,0,0,0,0,0,0,0,0,0,0],"id":2,"left_children":[1,3,5,7,9,11,13,15,17,19,21,23,25,27,29,-1,-1,-1,-1,-1,-1,-1,-1,-1,-1,-1,-1,-1,-1,-1,-1],"loss_changes":[1.0413794E3,1.571023E2,2.8446402E2,2.380371E1,2.0909798E1,3.01865E1,2.80083E1,6.1634827E-1,8.932129E0,1.3540199E1,8.436501E0,9.051477E0,1.0874462E1,7.0125484E0,1.5774597E1,0E0,0E0,0E0,0E0,0E0,0E0,0E0,0E0,0E0,0E0,0E0,0E0,0E0,0E0,0E0,0E0],"parents":[2147483647,0,0,1,1,2,2,3,3,4,4,5,5,6,6,7,7,8,8,9,9,10,10,11,11,12,12,13,13,14,14],"right_children":[2,4,6,8,10,12,14,16,18,20,22,24,26,28,30,-1,-1,-1,-1,-1,-1,-1,-1,-1,-1,-1,-1,-1,-1,-1,-1],"split_conditions":[2.3E1,1.56E1,3.2658535E1,5.2E0,1.9041958E1,3.08E1,1.6758064E1,3.8E0,1.1E1,2.2222223E0,3.5714285E0,6.4E0,1.84E1,9.586206E0,2.564626E1,-9.025E-2,-9.025E-2,-9.025E-2,-4.5125004E-2,-4.5000006E-2,-4.5125004E-2,0E0,-4.5125004E-2,2.3749948E-3,-2.3749948E-3,2.4999976E-3,5.0125003E-2,4.7500003E-2,-2.3749948E-3,1.30375E-1,1.82875E-1],"split_indices":[3,3,10,3,10,3,7,3,3,8,8,8,0,8,7,0,0,0,0,0,0,0,0,0,0,0,0,0,0,0,0],"split_type":[0,0,0,0,0,0,0,0,0,0,0,0,0,0,0,0,0,0,0,0,0,0,0,0,0,0,0,0,0,0,0],"sum_hessian":[4.025E4,1.859E4,2.166E4,9.893E3,8.697E3,1.5032E4,6.628E3,1.436E3,8.457E3,4.268E3,4.429E3,1.0264E4,4.768E3,7.81E2,5.847E3,7.51E2,6.85E2,3.734E3,4.723E3,1.591E3,2.677E3,2.337E3,2.092E3,8.099E3,2.165E3,3.375E3,1.393E3,7.24E2,5.7E1,4.16E3,1.687E3],"tree_param":{"num_deleted":"0","num_feature":"16","num_nodes":"31","size_leaf_vector":"1"}},{"base_weights":[-2.1472622E-2,-1.585969E-1,2.8189152E-1,-2.852439E-1,-6.8117104E-2,1.4376615E-1,3.7458283E-1,-3.302729E-1,-1.8546365E-1,-1.1918245E-1,8.8440655E-3,1.0907924E-1,2.002091E-1,3.3139655E-1,4.523008E-1,-1.8908095E-2,-1.4571006E-2,-1.3448509E-2,-8.190259E-3,-1.0562685E-2,-3.8620017E-3,2.5732159E-3,-2.1167635E-3,1.0908019E-2,4.5935414E-3,4.9418607E-3,1.1472372E-2,1.1520468E-2,1.7654477E-2,1.6976744E-2,2.309882E-2],"categories":[],"categories_nodes":[],"categories_segments":[],"categories_sizes":[],"default_left":[0,0,0,0,0,0,0,0,0,0,0,0,0,0,0,0,0,0,0,0,0,0,0,0,0,0,0,0,0,0,0],"id":3,"left_children":[1,3,5,7,9,11,13,15,17,19,21,23,25,27,29,-1,-1,-1,-1,-1,-1,-1,-1,-1,-1,-1,-1,-1,-1,-1,-1],"loss_changes":[1.6728905E3,3.1734894E2,1.602273E2,5.179254E1,6.349492E1,9.824097E0,2.4992554E1,1.4683594E1,6.450714E0,3.748842E1,1.4060504E1,5.830921E0,5.647354E0,1.0475708E1,2.7595825E0,0E0,0E0,0E0,0E0,0E0,0E0,0E0,0E0,0E0,0E0,0E0,0E0,0E0,0E0,0E0,0E0],"parents":[2147483647,0,0,1,1,2,2,3,3,4,4,5,5,6,6,7,7,8,8,9,9,10,10,11,11,12,12,13,13,14,14],"right_children":[2,4,6,8,10,12,14,16,18,20,22,24,26,28,30,-1,-1,-1,-1,-1,-1,-1,-1,-1,-1,-1,-1,-1,-1,-1,-1],"split_conditions":[2.8181818E0,1.0769231E0,3.987805E0,1.86E1,1.828125E0,3.5E0,6.030303E0,6E-1,6.511628E-1,1.82E1,2.731579E1,2.0243902E1,9.6E0,2.6E1,2.78E1,-8.57375E-2,-8.7987505E-2,-4.3E-2,-4.524375E-2,-4.2868752E-2,-4.5125004E-2,2.2562505E-3,-1.1874438E-4,5.1999994E-2,4.5006264E-2,4.738126E-2,8.348125E-2,9.293438E-2,1.2885626E-1,1.3650624E-1,2.2635627E-1],"split_indices":[9,9,9,3,9,9,9,9,9,3,10,10,0,3,3,0,0,0,0,0,0,0,0,0,0,0,0,0,0,0,0],"split_type":[0,0,0,0,0,0,0,0,0,0,0,0,0,0,0,0,0,0,0,0,0,0,0,0,0,0,0,0,0,0,0],"sum_hessian":[4.0213E4,2.7695E4,1.2518E4,1.154E4,1.6155E4,5.028E3,7.49E3,7.95E3,3.59E3,9.711E3,6.444E3,3.116E3,1.912E3,4.818E3,2.672E3,3.557E3,4.393E3,7.37E2,2.853E3,3.038E3,6.673E3,3.516E3,2.928E3,4.23E2,2.693E3,4.29E2,1.483E3,8.54E2,3.964E3,2.14E2,2.458E3],"tree_param":{"num_deleted":"0","num_feature":"16","num_nodes":"31","size_leaf_vector":"1"}},{"base_weights":[-1.9860568E-2,-1.4216691E-1,3.0514473E-1,-2.8749353E-1,-4.6819337E-2,1.9127017E-1,3.9000633E-1,-3.3499482E-1,-1.928332E-1,-1.0988333E-1,1.7270861E-2,7.18232E-2,2.3518303E-1,3.4362084E-1,4.5253164E-1,-1.8984264E-2,-1.4899527E-2,-1.1521051E-2,-7.1514063E-3,-1.0607107E-2,-3.0294217E-3,-7.031422E-4,2.5521081E-3,9.45122E-4,8.426339E-3,9.46449E-3,1.411314E-2,6.0294117E-3,1.7723989E-2,8.088236E-3,2.2804372E-2],"categories":[],"categories_nodes":[],"categories_segments":[],"categories_sizes":[],"default_left":[0,0,0,0,0,0,0,0,0,0,0,0,0,0,0,0,0,0,0,0,0,0,0,0,0,0,0,0,0,0,0],"id":4,"left_children":[1,3,5,7,9,11,13,15,17,19,21,23,25,27,29,-1,-1,-1,-1,-1,-1,-1,-1,-1,-1,-1,-1,-1,-1,-1,-1],"loss_changes":[1.6022151E3,4.0578918E2,1.06427734E2,5.2103638E1,7.148085E1,2.4677765E1,1.81568E1,1.2660339E1,7.228775E0,4.4921173E1,9.2830715E0,6.4808483E0,7.383499E0,8.746307E0,2.703308E0,0E0,0E0,0E0,0E0,0E0,0E0,0E0,0E0,0E0,0E0,0E0,0E0,0E0,0E0,0E0,0E0],"parents":[2147483647,0,0,1,1,2,2,3,3,4,4,5,5,6,6,7,7,8,8,9,9,10,10,11,11,12,12,13,13,14,14],"right_children":[2,4,6,8,10,12,14,16,18,20,22,24,26,28,30,-1,-1,-1,-1,-1,-1,-1,-1,-1,-1,-1,-1,-1,-1,-1,-1],"split_conditions":[3.142857E0,1.0769231E0,4.4135337E0,1.8E1,1.7313433E0,2.6E1,6.030303E0,5.9090906E-1,8.863636E-1,1.82E1,2.4285715E0,3.7931035E0,3.7368422E0,1.94E1,2.7024391E1,-8.1450626E-2,-8.358812E-2,-4.298125E-2,-4.2981565E-2,-4.0725317E-2,-4.2868752E-2,-1.1280775E-4,6.8934322E-3,4.3207195E-2,4.7630943E-2,4.5368433E-2,9.047844E-2,4.748453E-2,1.2241345E-1,8.6057186E-2,2.1253844E-1],"split_indices":[9,9,9,3,9,3,9,9,9,3,9,9,9,3,10,0,0,0,0,0,0,0,0,0,0,0,0,0,0,0,0],"split_type":[0,0,0,0,0,0,0,0,0,0,0,0,0,0,0,0,0,0,0,0,0,0,0,0,0,0,0,0,0,0,0],"sum_hessian":[4.0305E4,2.9285E4,1.102E4,1.1601E4,1.7684E4,4.707E3,6.313E3,7.723E3,3.878E3,8.913E3,8.771E3,1.266E3,3.441E3,3.628E3,2.685E3,3.494E3,4.229E3,2.208E3,1.67E3,2.898E3,6.015E3,4.55E3,4.221E3,8.19E2,4.47E2,1.745E3,1.696E3,1.69E2,3.459E3,3.3E1,2.652E3],"tree_param":{"num_deleted":"0","num_feature":"16","num_nodes":"31","size_leaf_vector":"1"}},{"base_weights":[-2.2151664E-2,-1.8942228E-1,2.254522E-1,-2.9127657E-1,-9.725301E-2,9.4303265E-2,3.6236167E-1,-3.3312383E-1,-1.9539568E-1,-1.815965E-1,-5.9631452E-2,4.79685E-2,1.895473E-1,2.7705696E-1,4.18527E-1,-1.8976158E-2,-1.4768845E-2,-1.3193659E-2,-8.600078E-3,-1.2348569E-2,-6.22297E-3,-4.4209794E-3,-1.5804922E-3,4.4784914E-3,1.4906194E-3,5.1748254E-3,1.1008487E-2,1.2009456E-2,1.7566923E-2,1.9853627E-2,2.3089072E-2],"categories":[],"categories_nodes":[],"categories_segments":[],"categories_sizes":[],"default_left":[0,0,0,0,0,0,0,0,0,0,0,0,0,0,0,0,0,0,0,0,0,0,0,0,0,0,0,0,0,0,0],"id":5,"left_children":[1,3,5,7,9,11,13,15,17,19,21,23,25,27,29,-1,-1,-1,-1,-1,-1,-1,-1,-1,-1,-1,-1,-1,-1,-1,-1],"loss_changes":[1.66968E3,2.2584302E2,2.9181506E2,4.5792053E1,4.0072197E1,3.6632965E1,3.79834E1,1.3820496E1,5.521454E0,1.452211E1,7.045252E0,4.2172937E0,7.1367416E0,8.569565E0,4.2645264E0,0E0,0E0,0E0,0E0,0E0,0E0,0E0,0E0,0E0,0E0,0E0,0E0,0E0,0E0,0E0,0E0],"parents":[2147483647,0,0,1,1,2,2,3,3,4,4,5,5,6,6,7,7,8,8,9,9,10,10,11,11,12,12,13,13,14,14],"right_children":[2,4,6,8,10,12,14,16,18,20,22,24,26,28,30,-1,-1,-1,-1,-1,-1,-1,-1,-1,-1,-1,-1,-1,-1,-1,-1],"split_conditions":[2.4E0,1.0769231E0,4.2E0,1.86E1,1.76E1,3.322314E0,4.7065215E0,6E-1,8E-1,1.4166666E0,1.5714285E0,8.035714E0,9.6E0,5.4E0,6.7272725E0,-7.7378094E-2,-7.940872E-2,-4.297E-2,-4.0832486E-2,-3.8689047E-2,-3.881405E-2,-4.0844064E-2,-5.7622197E-4,6.8928185E-3,2.2681416E-3,4.2859394E-2,7.379278E-2,7.953878E-2,1.2928954E-1,1.4678651E-1,2.519115E-1],"split_indices":[2,9,2,3,3,9,9,9,2,9,9,7,0,2,9,0,0,0,0,0,0,0,0,0,0,0,0,0,0,0,0],"split_type":[0,0,0,0,0,0,0,0,0,0,0,0,0,0,0,0,0,0,0,0,0,0,0,0,0,0,0,0,0,0,0],"sum_hessian":[4.0312E4,2.4059E4,1.6253E4,1.1428E4,1.2631E4,8.302E3,7.951E3,7.954E3,3.474E3,3.895E3,8.736E3,5.586E3,2.716E3,3.159E3,4.792E3,3.564E3,4.39E3,8.82E2,2.592E3,1.815E3,2.08E3,4.308E3,4.428E3,1.696E3,3.89E3,7.14E2,2.002E3,2.114E3,1.045E3,3.21E3,1.582E3],"tree_param":{"num_deleted":"0","num_feature":"16","num_nodes":"31","size_leaf_vector":"1"}},{"base_weights":[-2.5120243E-2,-1.7757583E-1,2.3373E-1,-2.9915634E-1,-9.6870884E-2,1.1180855E-1,3.6268678E-1,-3.3341953E-1,-1.8581803E-1,-1.3887677E-1,-3.277325E-2,7.199918E-2,1.8203181E-1,3.0604348E-1,4.117571E-1,-1.9716002E-2,-1.5723964E-2,-1.0259315E-2,-3.8623593E-3,-1.0375138E-2,-4.713078E-3,-3.1268392E-3,2.964805E-4,2.741738E-3,7.988722E-3,7.715563E-3,1.2138728E-2,1.2948431E-2,1.6852127E-2,1.9438937E-2,2.2720534E-2],"categories":[],"categories_nodes":[],"categories_segments":[],"categories_sizes":[],"default_left":[0,0,0,0,0,0,0,0,0,0,0,0,0,0,0,0,0,0,0,0,0,0,0,0,0,0,0,0,0,0,0],"id":6,"left_children":[1,3,5,7,9,11,13,15,17,19,21,23,25,27,29,-1,-1,-1,-1,-1,-1,-1,-1,-1,-1,-1,-1,-1,-1,-1,-1],"loss_changes":[1.58358E3,2.4776703E2,2.3381732E2,3.906256E1,4.0867264E1,2.136441E1,1.9964294E1,8.798096E0,4.9068756E0,2.8056808E1,6.9246464E0,7.3465157E0,4.619995E0,4.814453E0,3.616394E0,0E0,0E0,0E0,0E0,0E0,0E0,0E0,0E0,0E0,0E0,0E0,0E0,0E0,0E0,0E0,0E0],"parents":[2147483647,0,0,1,1,2,2,3,3,4,4,5,5,6,6,7,7,8,8,9,9,10,10,11,11,12,12,13,13,14,14],"right_children":[2,4,6,8,10,12,14,16,18,20,22,24,26,28,30,-1,-1,-1,-1,-1,-1,-1,-1,-1,-1,-1,-1,-1,-1,-1,-1],"split_conditions":[2.6E0,1E0,4.4E0,1.86E1,1.8E0,3.6E0,5.8E0,6.2E0,1.3327103E1,1.86E1,2.2E0,1.9571428E1,1.88E1,3.0020834E1,7.8E0,-7.3509194E-2,-7.3509194E-2,-3.8909312E-2,-4.1065242E-2,-3.6754597E-2,-3.8683113E-2,-3.031953E-2,4.6640635E-5,6.9050253E-3,3.1349123E-2,4.544684E-2,7.0759356E-2,8.8879324E-2,1.0895345E-1,1.5382846E-1,2.3931594E-1],"split_indices":[2,2,2,3,2,2,2,3,7,3,2,7,0,10,2,0,0,0,0,0,0,0,0,0,0,0,0,0,0,0,0],"split_type":[0,0,0,0,0,0,0,0,0,0,0,0,0,0,0,0,0,0,0,0,0,0,0,0,0,0,0,0,0,0,0],"sum_hessian":[4.0126E4,2.5253E4,1.4873E4,1.0074E4,1.5179E4,7.646E3,7.227E3,7.734E3,2.34E3,9.169E3,6.01E3,4.881E3,2.765E3,3.358E3,3.869E3,1.83E3,5.904E3,1.985E3,3.55E2,3.611E3,5.558E3,3.397E3,2.613E3,4.084E3,7.97E2,1.901E3,8.64E2,1.337E3,2.021E3,2.521E3,1.348E3],"tree_param":{"num_deleted":"0","num_feature":"16","num_nodes":"31","size_leaf_vector":"1"}},{"base_weights":[-2.6589667E-2,-1.8370149E-1,2.0623228E-1,-2.9019862E-1,-8.4711075E-2,7.462686E-2,3.3766633E-1,-3.3329183E-1,-1.9270833E-1,-1.2358672E-1,-6.751869E-3,4.2624664E-2,2.2659574E-1,2.4778956E-1,3.7233135E-1,-1.818399E-2,-1.3814378E-2,-1.3480942E-2,-8.342728E-3,-1.0070912E-2,-3.5992803E-3,-3.7196358E-3,7.1993674E-4,1.0776273E-3,5.923764E-3,5.8103977E-3,1.2984318E-2,5.0223214E-3,1.3192742E-2,1.7024498E-2,2.1210076E-2],"categories":[],"categories_nodes":[],"categories_segments":[],"categories_sizes":[],"default_left":[0,0,0,0,0,0,0,0,0,0,0,0,0,0,0,0,0,0,0,0,0,0,0,0,0,0,0,0,0,0,0],"id":7,"left_children":[1,3,5,7,9,11,13,15,17,19,21,23,25,27,29,-1,-1,-1,-1,-1,-1,-1,-1,-1,-1,-1,-1,-1,-1,-1,-1],"loss_changes":[1.4727115E3,2.5339923E2,2.8057373E2,4.8585327E1,3.776187E1,3.9417427E1,2.5193787E1,1.3807678E1,7.0178986E0,3.337612E1,5.9339547E0,1.0703081E1,5.12027E0,5.327896E0,9.525818E0,0E0,0E0,0E0,0E0,0E0,0E0,0E0,0E0,0E0,0E0,0E0,0E0,0E0,0E0,0E0,0E0],"parents":[2147483647,0,0,1,1,2,2,3,3,4,4,5,5,6,6,7,7,8,8,9,9,10,10,11,11,12,12,13,13,14,14],"right_children":[2,4,6,8,10,12,14,16,18,20,22,24,26,28,30,-1,-1,-1,-1,-1,-1,-1,-1,-1,-1,-1,-1,-1,-1,-1,-1],"split_conditions":[2.4E0,1.088E0,3.7931035E0,1.86E1,1.85E0,4.2E0,4.6E0,8E-1,8E-1,1.94E1,1.4E0,3.1818182E0,1.02E1,7.2E0,6.8E0,-6.983373E-2,-3.0393397E-2,-3.8876038E-2,-3.6856707E-2,-3.4916867E-2,-3.7348382E-2,-3.491655E-2,1.2060583E-3,3.8128973E-3,3.6903884E-2,4.297023E-2,8.2625926E-2,3.7858512E-2,7.2026186E-2,1.1600878E-1,1.8688077E-1],"split_indices":[2,9,9,3,9,2,2,2,2,3,2,9,0,0,2,0,0,0,0,0,0,0,0,0,0,0,0,0,0,0,0],"split_type":[0,0,0,0,0,0,0,0,0,0,0,0,0,0,0,0,0,0,0,0,0,0,0,0,0,0,0,0,0,0,0],"sum_hessian":[4.0259E4,2.4038E4,1.6221E4,1.1579E4,1.2459E4,8.106E3,8.115E3,8.028E3,3.551E3,8.313E3,4.146E3,6.697E3,1.409E3,2.261E3,5.854E3,5.233E3,2.795E3,8.91E2,2.66E3,3.313E3,5E3,9.87E2,3.159E3,5.242E3,1.455E3,3.26E2,1.083E3,2.23E2,2.038E3,3.632E3,2.222E3],"tree_param":{"num_deleted":"0","num_feature":"16","num_nodes":"31","size_leaf_vector":"1"}},{"base_weights":[-2.7528062E-2,-2.0168114E-1,1.1106404E-1,-3.0116248E-1,-1.2392693E-1,4.7734678E-2,2.573052E-1,-3.816894E-1,-2.7519837E-1,-1.6975082E-1,-6.9063805E-2,-9.934281E-3,8.9162186E-2,1.9379157E-1,2.8892082E-1,-2.1156417E-2,-1.7730802E-2,-1.1775362E-2,-1.5057295E-2,-5.9518456E-3,-1.0225518E-2,-5.5578095E-3,-9.775871E-4,5.4015714E-4,-2.917941E-3,2.8355736E-3,6.853413E-3,1.4090019E-2,8.395416E-3,1.3472601E-2,1.7069673E-2],"categories":[],"categories_nodes":[],"categories_segments":[],"categories_sizes":[],"default_left":[0,0,0,0,0,0,0,0,0,0,0,0,0,0,0,0,0,0,0,0,0,0,0,0,0,0,0,0,0,0,0],"id":8,"left_children":[1,3,5,7,9,11,13,15,17,19,21,23,25,27,29,-1,-1,-1,-1,-1,-1,-1,-1,-1,-1,-1,-1,-1,-1,-1,-1],"loss_changes":[9.719406E2,1.3799536E2,2.0766443E2,1.6261902E1,2.517395E1,3.738762E1,1.35503845E1,1.9882507E0,6.029114E0,9.59697E0,9.503317E0,6.571112E0,1.4149841E1,5.0894775E0,4.527588E0,0E0,0E0,0E0,0E0,0E0,0E0,0E0,0E0,0E0,0E0,0E0,0E0,0E0,0E0,0E0,0E0],"parents":[2147483647,0,0,1,1,2,2,3,3,4,4,5,5,6,6,7,7,8,8,9,9,10,10,11,11,12,12,13,13,14,14],"right_children":[2,4,6,8,10,12,14,16,18,20,22,24,26,28,30,-1,-1,-1,-1,-1,-1,-1,-1,-1,-1,-1,-1,-1,-1,-1,-1],"split_conditions":[2.24E1,1.38E1,3.254762E1,6.2E0,1.86E1,2.76E1,1.98E1,3.8E0,1.8717948E0,2.4242425E0,2.0044117E1,4.8203125E0,1.52E1,4.095238E0,2.8E1,-6.634205E-2,-6.634205E-2,-3.9225217E-2,-6.634205E-2,-2.6962131E-2,-3.3171024E-2,-3.2625288E-2,-3.303653E-3,1.5023173E-3,-1.7717576E-2,1.0132903E-2,4.2404484E-2,9.752678E-2,4.7039248E-2,9.594273E-2,1.2892869E-1],"split_indices":[3,3,10,3,3,3,0,3,8,8,10,8,0,8,0,0,0,0,0,0,0,0,0,0,0,0,0,0,0,0,0],"split_type":[0,0,0,0,0,0,0,0,0,0,0,0,0,0,0,0,0,0,0,0,0,0,0,0,0,0,0,0,0,0,0],"sum_hessian":[4.0267E4,1.7844E4,2.2423E4,7.827E3,1.0017E4,1.5648E4,6.775E3,1.905E3,5.922E3,5.457E3,4.56E3,6.542E3,9.106E3,2.254E3,4.521E3,7.47E2,1.158E3,2.345E3,3.577E3,2.221E3,3.236E3,2.464E3,2.096E3,4.581E3,1.961E3,5.43E3,3.676E3,5.1E2,1.744E3,3.302E3,1.219E3],"tree_param":{"num_deleted":"0","num_feature":"16","num_nodes":"31","size_leaf_vector":"1"}},{"base_weights":[-2.9421259E-2,-1.8185982E-1,1.956348E-1,-2.8966513E-1,-8.428526E-2,6.419196E-2,3.0300492E-1,-3.3322856E-1,-1.8929088E-1,-1.1672677E-1,1.1953444E-2,4.1639924E-2,1.9390582E-1,2.362577E-1,3.7185016E-1,-1.7464219E-2,-1.1295761E-2,-1.3306908E-2,-8.142247E-3,-9.633396E-3,-3.3424105E-3,-2.757079E-3,1.4946194E-3,1.2715886E-3,6.509336E-3,1.2572534E-2,7.054674E-3,9.232877E-3,1.3537078E-2,1.624248E-2,2.0846326E-2],"categories":[],"categories_nodes":[],"categories_segments":[],"categories_sizes":[],"default_left":[0,0,0,0,0,0,0,0,0,0,0,0,0,0,0,0,0,0,0,0,0,0,0,0,0,0,0,0,0,0,0],"id":9,"left_children":[1,3,5,7,9,11,13,15,17,19,21,23,25,27,29,-1,-1,-1,-1,-1,-1,-1,-1,-1,-1,-1,-1,-1,-1,-1,-1],"loss_changes":[1.3818276E3,2.5256976E2,2.2952899E2,4.982007E1,3.935894E1,2.1387657E1,4.1048645E1,1.36258545E1,6.978256E0,3.5698837E1,3.8279366E0,8.940732E0,3.255844E0,8.042603E0,9.1970215E0,0E0,0E0,0E0,0E0,0E0,0E0,0E0,0E0,0E0,0E0,0E0,0E0,0E0,0E0,0E0,0E0],"parents":[2147483647,0,0,1,1,2,2,3,3,4,4,5,5,6,6,7,7,8,8,9,9,10,10,11,11,12,12,13,13,14,14],"right_children":[2,4,6,8,10,12,14,16,18,20,22,24,26,28,30,-1,-1,-1,-1,-1,-1,-1,-1,-1,-1,-1,-1,-1,-1,-1,-1],"split_conditions":[2.4E0,1.0769231E0,3.5294118E0,1.86E1,2.0648148E0,4.2E0,5.4E0,1.2E0,8E-1,1.94E1,1.08E2,3.1818182E0,5.0508523E0,4E0,6.8E0,-6.3024946E-2,-2.5625331E-2,-3.6046356E-2,-3.4964006E-2,-3.1822916E-2,-3.5378277E-2,-5.562735E-3,1.4511704E-3,3.2437325E-3,3.8141217E-2,7.30832E-2,4.413352E-2,5.261096E-2,8.316455E-2,1.2102695E-1,1.8284647E-1],"split_indices":[2,9,9,3,9,2,2,2,2,3,14,9,6,2,2,0,0,0,0,0,0,0,0,0,0,0,0,0,0,0,0],"split_type":[0,0,0,0,0,0,0,0,0,0,0,0,0,0,0,0,0,0,0,0,0,0,0,0,0,0,0,0,0,0,0],"sum_hessian":[4.0276E4,2.4012E4,1.6264E4,1.1407E4,1.2605E4,7.313E3,8.951E3,7.953E3,3.454E3,9.427E3,3.178E3,6.231E3,1.082E3,4.547E3,4.404E3,6.916E3,1.037E3,8.82E2,2.572E3,3.736E3,5.691E3,6.7E2,2.508E3,5.268E3,9.63E2,5.16E2,5.66E2,1.824E3,2.723E3,2.16E3,2.244E3],"tree_param":{"num_deleted":"0","num_feature":"16","num_nodes":"31","size_leaf_vector":"1"}},{"base_weights":[-3.0446364E-2,-1.7441435E-1,1.9673342E-1,-3.0145317E-1,-9.1596134E-2,1.0169868E-1,3.2687044E-1,-3.5088032E-1,-2.3327616E-1,-1.5413879E-1,-2.594989E-2,5.4761495E-2,1.8681662E-1,2.9784712E-1,4.2371202E-1,-1.878407E-2,-1.5773041E-2,-1.3033095E-2,-8.166811E-3,-9.928557E-3,-4.0139616E-3,-2.7735564E-3,1.2598721E-3,1.3330654E-3,5.2625244E-3,9.572108E-3,-6.382979E-3,1.3000413E-2,1.6622491E-2,1.51724145E-2,2.180657E-2],"categories":[],"categories_nodes":[],"categories_segments":[],"categories_sizes":[],"default_left":[0,0,0,0,0,0,0,0,0,0,0,0,0,0,0,0,0,0,0,0,0,0,0,0,0,0,0,0,0,0,0],"id":10,"left_children":[1,3,5,7,9,11,13,15,17,19,21,23,25,27,29,-1,-1,-1,-1,-1,-1,-1,-1,-1,-1,-1,-1,-1,-1,-1,-1],"loss_changes":[1.3138263E3,2.586659E2,1.9267773E2,3.2615295E1,6.111331E1,3.5974503E1,1.835675E1,4.820923E0,7.774002E0,2.5000854E1,1.0969547E1,8.235874E0,4.680687E0,6.542694E0,2.1289673E0,0E0,0E0,0E0,0E0,0E0,0E0,0E0,0E0,0E0,0E0,0E0,0E0,0E0,0E0,0E0,0E0],"parents":[2147483647,0,0,1,1,2,2,3,3,4,4,5,5,6,6,7,7,8,8,9,9,10,10,11,11,12,12,13,13,14,14],"right_children":[2,4,6,8,10,12,14,16,18,20,22,24,26,28,30,-1,-1,-1,-1,-1,-1,-1,-1,-1,-1,-1,-1,-1,-1,-1,-1],"split_conditions":[2.357143E0,9.6E-1,4.6E0,8E-1,1.6E0,3.5294118E0,6.7272725E0,6E-1,1.4E0,8.8E0,2.4E0,3.2E0,8.6E1,4.92E0,6.2E0,-5.9873696E-2,-6.1802782E-2,-3.45173E-2,-3.1387325E-2,-3.1481363E-2,-3.4256708E-2,-2.9921323E-2,2.4725317E-3,2.3772537E-3,3.8144972E-2,5.461959E-2,-2.535581E-2,8.461311E-2,1.2285353E-1,1.3769655E-1,2.0820132E-1],"split_indices":[9,9,2,2,2,9,9,9,2,0,2,2,11,9,2,0,0,0,0,0,0,0,0,0,0,0,0,0,0,0,0],"split_type":[0,0,0,0,0,0,0,0,0,0,0,0,0,0,0,0,0,0,0,0,0,0,0,0,0,0,0,0,0,0,0],"sum_hessian":[4.0168E4,2.4587E4,1.5581E4,9.702E3,1.4885E4,9.006E3,6.575E3,5.622E3,4.08E3,7.622E3,7.263E3,5.806E3,3.2E3,5.062E3,1.513E3,3.301E3,2.321E3,2.93E3,1.15E3,4.758E3,2.864E3,4.605E3,2.658E3,3.731E3,2.075E3,3.154E3,4.6E1,2.422E3,2.64E3,1.44E2,1.369E3],"tree_param":{"num_deleted":"0","num_feature":"16","num_nodes":"31","size_leaf_vector":"1"}},{"base_weights":[-3.58703E-2,-1.9390152E-1,1.678953E-1,-3.032991E-1,-1.0629638E-1,6.422925E-2,2.9425564E-1,-3.3532512E-1,-1.9249555E-1,-1.6707827E-1,-6.225922E-2,2.3139462E-2,1.0512661E-1,2.5585127E-1,3.727308E-1,-2.0246368E-2,-1.5875E-2,-1.0857559E-2,-5.628518E-3,-1.1036126E-2,-5.890386E-3,-4.457733E-3,-1.7339833E-3,3.0076292E-3,1.3736264E-4,4.224237E-3,7.918215E-3,1.1095005E-2,1.4033367E-2,1.6726477E-2,2.041542E-2],"categories":[],"categories_nodes":[],"categories_segments":[],"categories_sizes":[],"default_left":[0,0,0,0,0,0,0,0,0,0,0,0,0,0,0,0,0,0,0,0,0,0,0,0,0,0,0,0,0,0,0],"id":11,"left_children":[1,3,5,7,9,11,13,15,17,19,21,23,25,27,29,-1,-1,-1,-1,-1,-1,-1,-1,-1,-1,-1,-1,-1,-1,-1,-1],"loss_changes":[1.2900498E3,2.1620691E2,2.2920532E2,3.5538452E1,3.3530853E1,1.615355E1,2.3671387E1,9.526428E0,4.413353E0,1.38871765E1,5.388052E0,3.6205113E0,5.2812424E0,4.4014587E0,3.382141E0,0E0,0E0,0E0,0E0,0E0,0E0,0E0,0E0,0E0,0E0,0E0,0E0,0E0,0E0,0E0,0E0],"parents":[2147483647,0,0,1,1,2,2,3,3,4,4,5,5,6,6,7,7,8,8,9,9,10,10,11,11,12,12,13,13,14,14],"right_children":[2,4,6,8,10,12,14,16,18,20,22,24,26,28,30,-1,-1,-1,-1,-1,-1,-1,-1,-1,-1,-1,-1,-1,-1,-1,-1],"split_conditions":[2.2E0,1E0,4.2E0,1.86E1,1.9489796E1,3E0,6.6E0,5.6E0,2.7556818E1,1.4E0,1.6E0,2.254717E1,3.8E0,5E0,7.8E0,-5.688001E-2,-5.688001E-2,-3.1478632E-2,-3.3972826E-2,-2.8657699E-2,-2.814722E-2,-3.173242E-2,-1.04163885E-2,5.4260553E-3,3.2189488E-4,2.8547907E-2,4.404042E-2,6.5533005E-2,9.8044485E-2,1.3602526E-1,1.9365656E-1],"split_indices":[2,2,2,3,10,2,2,3,10,2,2,10,2,2,2,0,0,0,0,0,0,0,0,0,0,0,0,0,0,0,0],"split_type":[0,0,0,0,0,0,0,0,0,0,0,0,0,0,0,0,0,0,0,0,0,0,0,0,0,0,0,0,0,0,0],"sum_hessian":[4.006E4,2.2562E4,1.7498E4,1.0032E4,1.253E4,9.613E3,7.885E3,7.781E3,2.251E3,5.263E3,7.267E3,4.796E3,4.817E3,5.297E3,2.588E3,1.582E3,6.199E3,1.719E3,5.32E2,2.518E3,2.745E3,3.678E3,3.589E3,1.703E3,3.093E3,3.473E3,1.344E3,2.241E3,3.056E3,1.253E3,1.335E3],"tree_param":{"num_deleted":"0","num_feature":"16","num_nodes":"31","size_leaf_vector":"1"}},{"base_weights":[-3.633746E-2,-1.9430017E-1,1.6014145E-1,-2.8580266E-1,-8.567512E-2,6.2085357E-2,2.861415E-1,-3.288706E-1,-1.7449763E-1,-1.2448469E-1,-8.62069E-3,1.982207E-2,1.3539128E-1,2.2376905E-1,3.33933E-1,-1.8358503E-2,-1.3396031E-2,-1.2509336E-2,-6.2438906E-3,-8.489161E-3,-3.5288432E-3,-1.1682243E-2,-6.785284E-5,-3.4990793E-3,1.4066496E-3,3.7508847E-3,8.636563E-3,9.788116E-3,1.3627215E-2,1.5531062E-2,2.0942409E-2],"categories":[],"categories_nodes":[],"categories_segments":[],"categories_sizes":[],"default_left":[0,0,0,0,0,0,0,0,0,0,0,0,0,0,0,0,0,0,0,0,0,0,0,0,0,0,0,0,0,0,0],"id":12,"left_children":[1,3,5,7,9,11,13,15,17,19,21,23,25,27,29,-1,-1,-1,-1,-1,-1,-1,-1,-1,-1,-1,-1,-1,-1,-1,-1],"loss_changes":[1.2504543E3,2.2196344E2,2.218299E2,5.8051636E1,3.0540382E1,3.1285526E1,2.3348999E1,2.0301514E1,1.2677971E1,1.65737E1,5.5929184E0,4.783841E0,8.312347E0,4.607559E0,8.672791E0,0E0,0E0,0E0,0E0,0E0,0E0,0E0,0E0,0E0,0E0,0E0,0E0,0E0,0E0,0E0,0E0],"parents":[2147483647,0,0,1,1,2,2,3,3,4,4,5,5,6,6,7,7,8,8,9,9,10,10,11,11,12,12,13,13,14,14],"right_children":[2,4,6,8,10,12,14,16,18,20,22,24,26,28,30,-1,-1,-1,-1,-1,-1,-1,-1,-1,-1,-1,-1,-1,-1,-1,-1],"split_conditions":[2E0,1.2E0,4.2E0,1.86E1,2E0,3.142857E0,4.92E0,8.235294E-1,8.965517E-1,2.3E1,8.5714287E-1,1.42E1,1.12E1,5.4E0,7.5147057E0,-5.403601E-2,-2.6775604E-2,-2.9817468E-2,-3.0952413E-2,-2.7011646E-2,-3.238203E-2,-3.6788885E-2,-8.929968E-5,-2.8000543E-2,2.382356E-3,2.6928468E-2,4.439348E-2,5.6904424E-2,8.573262E-2,1.1234274E-1,2.2719947E-1],"split_indices":[9,2,2,3,2,9,9,9,9,3,9,3,0,2,9,0,0,0,0,0,0,0,0,0,0,0,0,0,0,0,0],"split_type":[0,0,0,0,0,0,0,0,0,0,0,0,0,0,0,0,0,0,0,0,0,0,0,0,0,0,0,0,0,0,0],"sum_hessian":[4.0288E4,2.2333E4,1.7955E4,1.2121E4,1.0212E4,1.0098E4,7.857E3,8.738E3,3.383E3,6.791E3,3.421E3,6.406E3,3.692E3,3.411E3,4.446E3,5.363E3,3.375E3,1.338E3,2.045E3,3.689E3,3.102E3,1.06E2,3.315E3,5.42E2,5.864E3,1.412E3,2.28E3,2.17E3,1.241E3,3.492E3,9.54E2],"tree_param":{"num_deleted":"0","num_feature":"16","num_nodes":"31","size_leaf_vector":"1"}},{"base_weights":[-3.8848024E-2,-1.9199663E-1,1.59429E-1,-3.0574903E-1,-1.0787856E-1,5.8189657E-2,2.6805836E-1,-3.464243E-1,-2.1304496E-1,-1.8625136E-1,-5.0366424E-2,3.2442477E-2,1.4595516E-1,2.0109612E-1,3.168855E-1,-1.847942E-2,-1.4591684E-2,-1.3946506E-2,-9.153884E-3,-1.1121554E-2,-4.548451E-3,-3.6689264E-3,5.493164E-4,-6.2037036E-3,1.9359393E-3,9.7222225E-4,7.901762E-3,8.74653E-3,1.3222544E-2,1.4815268E-2,2.1161167E-2],"categories":[],"categories_nodes":[],"categories_segments":[],"categories_sizes":[],"default_left":[0,0,0,0,0,0,0,0,0,0,0,0,0,0,0,0,0,0,0,0,0,0,0,0,0,0,0,0,0,0,0],"id":13,"left_children":[1,3,5,7,9,11,13,15,17,19,21,23,25,27,29,-1,-1,-1,-1,-1,-1,-1,-1,-1,-1,-1,-1,-1,-1,-1,-1],"loss_changes":[1.217853E3,2.1648608E2,1.9219986E2,3.6197144E1,5.8631744E1,2.044116E1,2.7502075E1,8.34436E0,5.7457733E0,1.8960526E1,1.0596785E1,6.8782835E0,3.1329117E0,5.8518677E0,1.0541077E1,0E0,0E0,0E0,0E0,0E0,0E0,0E0,0E0,0E0,0E0,0E0,0E0,0E0,0E0,0E0,0E0],"parents":[2147483647,0,0,1,1,2,2,3,3,4,4,5,5,6,6,7,7,8,8,9,9,10,10,11,11,12,12,13,13,14,14],"right_children":[2,4,6,8,10,12,14,16,18,20,22,24,26,28,30,-1,-1,-1,-1,-1,-1,-1,-1,-1,-1,-1,-1,-1,-1,-1,-1],"split_conditions":[2.0370371E0,9.6E-1,4E0,1.76E1,2.04E1,3.5294118E0,4.7065215E0,8E-1,8E-1,1.6E0,2.2E0,1.14E1,2.2E0,5.4E0,7.814815E0,-5.133421E-2,-5.5929888E-2,-2.8032333E-2,-2.8554562E-2,-2.5589311E-2,-2.5982816E-2,-2.9737508E-2,1.1514187E-3,-2.7058393E-2,4.4767023E-3,1.2540281E-3,4.269996E-2,4.794953E-2,8.9979604E-2,1.0606094E-1,2.1748877E-1],"split_indices":[9,9,2,3,3,9,9,2,2,2,2,3,2,2,9,0,0,0,0,0,0,0,0,0,0,0,0,0,0,0,0],"split_type":[0,0,0,0,0,0,0,0,0,0,0,0,0,0,0,0,0,0,0,0,0,0,0,0,0,0,0,0,0,0,0],"sum_hessian":[4.0104E4,2.2627E4,1.7477E4,9.618E3,1.3009E4,9.047E3,8.43E3,6.683E3,2.935E3,5.505E3,7.504E3,6.996E3,2.051E3,3.557E3,4.873E3,4.688E3,1.995E3,9.15E2,2.02E3,3.989E3,1.516E3,5.457E3,2.047E3,2.69E2,6.727E3,1.79E2,1.872E3,2.52E3,1.037E3,4.086E3,7.87E2],"tree_param":{"num_deleted":"0","num_feature":"16","num_nodes":"31","size_leaf_vector":"1"}},{"base_weights":[-3.4321874E-2,-1.7898592E-1,1.5157357E-1,-2.4536845E-1,-6.179844E-2,6.083436E-2,2.6389593E-1,-2.9004478E-1,-1.7775269E-1,-1.0500309E-1,1.0479041E-3,2.002148E-2,1.4294535E-1,1.9628562E-1,3.0821773E-1,-1.4875616E-2,-1.0745891E-2,-1.0720962E-2,-5.474181E-3,-9.133647E-3,-3.5322055E-3,-1.0465116E-2,4.7478205E-4,3.3442758E-3,-3.9808918E-4,1.2234043E-3,8.14982E-3,1.0843236E-2,7.3985043E-3,1.4437727E-2,2.1834936E-2],"categories":[],"categories_nodes":[],"categories_segments":[],"categories_sizes":[],"default_left":[0,0,0,0,0,0,0,0,0,0,0,0,0,0,0,0,0,0,0,0,0,0,0,0,0,0,0,0,0,0,0],"id":14,"left_children":[1,3,5,7,9,11,13,15,17,19,21,23,25,27,29,-1,-1,-1,-1,-1,-1,-1,-1,-1,-1,-1,-1,-1,-1,-1,-1],"loss_changes":[1.0836559E3,1.7626929E2,1.7972055E2,4.3647705E1,2.2254332E1,3.269131E1,2.3552856E1,4.8218994E0,1.4389877E1,1.2948761E1,5.937112E0,8.548294E0,7.6905518E0,3.0730743E0,1.1772003E1,0E0,0E0,0E0,0E0,0E0,0E0,0E0,0E0,0E0,0E0,0E0,0E0,0E0,0E0,0E0,0E0],"parents":[2147483647,0,0,1,1,2,2,3,3,4,4,5,5,6,6,7,7,8,8,9,9,10,10,11,11,12,12,13,13,14,14],"right_children":[2,4,6,8,10,12,14,16,18,20,22,24,26,28,30,-1,-1,-1,-1,-1,-1,-1,-1,-1,-1,-1,-1,-1,-1,-1,-1],"split_conditions":[2.2E0,1.2972972E0,4.2E0,1E0,1.85E0,3.1818182E0,4.7065215E0,1E1,9.2E0,6E0,1.8E0,2.254717E1,7.2E0,3.275E1,8.280702E0,-4.87675E-2,-2.8496722E-2,-2.5480008E-2,-2.7192254E-2,-2.4803022E-2,-2.7120484E-2,-2.9604508E-2,9.38344E-4,6.143844E-3,-7.631779E-4,2.0194221E-2,3.8991738E-2,6.5166056E-2,4.518689E-2,9.898942E-2,2.2134045E-1],"split_indices":[2,9,2,2,9,9,9,0,0,0,0,10,0,10,9,0,0,0,0,0,0,0,0,0,0,0,0,0,0,0,0],"split_type":[0,0,0,0,0,0,0,0,0,0,0,0,0,0,0,0,0,0,0,0,0,0,0,0,0,0,0,0,0,0,0],"sum_hessian":[4.0294E4,2.266E4,1.7634E4,1.4465E4,8.195E3,9.755E3,7.879E3,8.708E3,5.757E3,4.856E3,3.339E3,6.517E3,3.238E3,3.122E3,4.757E3,7.918E3,7.9E2,3.744E3,2.013E3,1.488E3,3.368E3,1.28E2,3.211E3,2.436E3,4.081E3,4.69E2,2.769E3,2.187E3,9.35E2,4.134E3,6.23E2],"tree_param":{"num_deleted":"0","num_feature":"16","num_nodes":"31","size_leaf_vector":"1"}},{"base_weights":[-2.8562203E-2,-1.6484399E-1,1.4237724E-1,-2.3203011E-1,-8.223881E-2,4.6537485E-2,2.4988121E-1,-2.4195063E-1,-5.1857587E-2,-1.769645E-1,-3.8868744E-2,1.048218E-2,1.1544389E-1,1.8927759E-1,2.932898E-1,-1.01546785E-2,-1.3094777E-2,-4.680617E-3,2.3316063E-3,-1.05942525E-2,-5.5932975E-3,-2.917821E-3,1.6205267E-3,-4.0625E-3,9.792628E-4,5.1334704E-4,6.698695E-3,8.518032E-3,1.2397661E-2,1.368582E-2,1.9563882E-2],"categories":[],"categories_nodes":[],"categories_segments":[],"categories_sizes":[],"default_left":[0,0,0,0,0,0,0,0,0,0,0,0,0,0,0,0,0,0,0,0,0,0,0,0,0,0,0,0,0,0,0],"id":15,"left_children":[1,3,5,7,9,11,13,15,17,19,21,23,25,27,29,-1,-1,-1,-1,-1,-1,-1,-1,-1,-1,-1,-1,-1,-1,-1,-1],"loss_changes":[9.379877E2,1.2431586E2,1.8401297E2,2.2069092E1,4.1281128E1,2.3461857E1,2.2089905E1,9.02124E0,2.6609843E0,7.1507645E0,9.579511E0,5.179704E0,6.3209496E0,3.8603973E0,9.296631E0,0E0,0E0,0E0,0E0,0E0,0E0,0E0,0E0,0E0,0E0,0E0,0E0,0E0,0E0,0E0,0E0],"parents":[2147483647,0,0,1,1,2,2,3,3,4,4,5,5,6,6,7,7,8,8,9,9,10,10,11,11,12,12,13,13,14,14],"right_children":[2,4,6,8,10,12,14,16,18,20,22,24,26,28,30,-1,-1,-1,-1,-1,-1,-1,-1,-1,-1,-1,-1,-1,-1,-1,-1],"split_conditions":[2E0,1.96E1,4E0,2E0,1.0769231E0,3.142857E0,4.7065215E0,9.8E0,1.625E0,1.4E0,2.4E0,1.42E1,1.071E2,5.6E0,7.814815E0,-4.6329122E-2,-2.3338819E-2,-2.4789637E-2,9.54063E-3,-2.583203E-2,-2.5832642E-2,-2.670127E-2,2.9658675E-3,-2.575239E-2,1.4824212E-3,2.8340698E-3,3.276975E-2,4.715841E-2,8.263122E-2,9.2390634E-2,1.955473E-1],"split_indices":[9,3,2,2,9,9,9,3,9,2,2,3,14,2,9,0,0,0,0,0,0,0,0,0,0,0,0,0,0,0,0],"split_type":[0,0,0,0,0,0,0,0,0,0,0,0,0,0,0,0,0,0,0,0,0,0,0,0,0,0,0,0,0,0,0],"sum_hessian":[4.0262E4,2.2402E4,1.786E4,1.2353E4,1.0049E4,9.443E3,8.417E3,1.1708E4,6.45E2,3.155E3,6.894E3,6.2E3,3.243E3,3.515E3,4.902E3,3.975E3,7.733E3,4.53E2,1.92E2,2.052E3,1.103E3,5.414E3,1.48E3,5.59E2,5.641E3,4.86E2,2.757E3,2.661E3,8.54E2,4.089E3,8.13E2],"tree_param":{"num_deleted":"0","num_feature":"16","num_nodes":"31","size_leaf_vector":"1"}},{"base_weights":[-2.845842E-2,-1.4284E-1,1.5981044E-1,-2.0734791E-1,-5.188861E-2,8.338165E-2,2.600822E-1,-2.3172022E-1,-1.4751004E-1,-1.09215826E-1,-1.2585255E-2,3.1906813E-2,1.2684491E-1,2.3727712E-1,3.6321548E-1,-9.6821105E-3,-1.3225547E-2,-1.0991593E-2,-4.0726536E-3,-1.0471082E-2,-3.7539683E-3,1.2293471E-3,-1.9353054E-3,1.7610145E-3,-1.25E-2,7.153076E-4,7.329646E-3,8.037341E-3,1.2841147E-2,1.8309262E-2,2.0833334E-3],"categories":[],"categories_nodes":[],"categories_segments":[],"categories_sizes":[],"default_left":[0,0,0,0,0,0,0,0,0,0,0,0,0,0,0,0,0,0,0,0,0,0,0,0,0,0,0,0,0,0,0],"id":16,"left_children":[1,3,5,7,9,11,13,15,17,19,21,23,25,27,29,-1,-1,-1,-1,-1,-1,-1,-1,-1,-1,-1,-1,-1,-1,-1,-1],"loss_changes":[8.656878E2,1.467074E2,1.1641211E2,2.1302063E1,2.3381836E1,1.9287888E1,1.5368561E1,1.2926758E1,2.0223763E1,1.44229355E1,5.9801817E0,3.6975312E0,1.0387688E1,8.01239E0,1.1191711E0,0E0,0E0,0E0,0E0,0E0,0E0,0E0,0E0,0E0,0E0,0E0,0E0,0E0,0E0,0E0,0E0],"parents":[2147483647,0,0,1,1,2,2,3,3,4,4,5,5,6,6,7,7,8,8,9,9,10,10,11,11,12,12,13,13,14,14],"right_children":[2,4,6,8,10,12,14,16,18,20,22,24,26,28,30,-1,-1,-1,-1,-1,-1,-1,-1,-1,-1,-1,-1,-1,-1,-1,-1],"split_conditions":[2.4285715E0,1.4E0,4.6E0,1.98E1,1.4038461E0,3.142857E0,8E0,1.12E1,1.0625E0,1.82E1,2.254717E1,1.2E1,2.6E0,4.037037E0,8.5E1,-4.4012666E-2,-2.357139E-2,-2.4572855E-2,-2.5390519E-2,-2.1927232E-2,-2.3794252E-2,4.5095803E-3,-3.018278E-3,4.866785E-3,-5.169605E-2,1.132083E-3,3.862704E-2,4.892459E-2,8.561881E-2,1.5708794E-1,8.5769944E-2],"split_indices":[9,2,2,3,9,9,2,3,9,3,10,13,2,9,11,0,0,0,0,0,0,0,0,0,0,0,0,0,0,0,0],"split_type":[0,0,0,0,0,0,0,0,0,0,0,0,0,0,0,0,0,0,0,0,0,0,0,0,0,0,0,0,0,0,0],"sum_hessian":[4.0198E4,2.5006E4,1.5192E4,1.4629E4,1.0377E4,8.622E3,6.57E3,1.0393E4,4.236E3,4.22E3,6.157E3,3.948E3,4.674E3,5.383E3,1.187E3,4.812E3,5.581E3,2.021E3,2.215E3,1.071E3,3.149E3,2.541E3,3.616E3,3.903E3,4.5E1,6.98E2,3.976E3,1.097E3,4.286E3,1.176E3,1.1E1],"tree_param":{"num_deleted":"0","num_feature":"16","num_nodes":"31","size_leaf_vector":"1"}},{"base_weights":[-2.8211718E-2,-1.5246171E-1,1.3226968E-1,-1.8893391E-1,-2.6258638E-2,5.4250613E-2,2.4080405E-1,-2.1078396E-1,-1.05313875E-1,-9.0114325E-2,2.7940766E-4,1.8456107E-2,1.1077313E-1,2.112256E-1,3.3249158E-1,-8.647635E-3,-1.1536347E-2,-8.2916375E-3,-3.3683975E-3,-1.2296748E-2,-2.9589373E-3,-1.4880953E-3,1.7748786E-3,3.7410823E-4,7.4226805E-3,2.6837524E-3,6.5504806E-3,8.40667E-3,1.193687E-2,1.4962438E-2,2.0000001E-2],"categories":[],"categories_nodes":[],"categories_segments":[],"categories_sizes":[],"default_left":[0,0,0,0,0,0,0,0,0,0,0,0,0,0,0,0,0,0,0,0,0,0,0,0,0,0,0,0,0,0,0],"id":17,"left_children":[1,3,5,7,9,11,13,15,17,19,21,23,25,27,29,-1,-1,-1,-1,-1,-1,-1,-1,-1,-1,-1,-1,-1,-1,-1,-1],"loss_changes":[7.990483E2,1.0395624E2,1.480625E2,3.1992249E1,8.5832E0,2.0583973E1,1.976242E1,1.044043E1,8.329514E0,7.1533833E0,3.7876382E0,8.887941E0,4.5512733E0,6.5182953E0,3.8794098E0,0E0,0E0,0E0,0E0,0E0,0E0,0E0,0E0,0E0,0E0,0E0,0E0,0E0,0E0,0E0,0E0],"parents":[2147483647,0,0,1,1,2,2,3,3,4,4,5,5,6,6,7,7,8,8,9,9,10,10,11,11,12,12,13,13,14,14],"right_children":[2,4,6,8,10,12,14,16,18,20,22,24,26,28,30,-1,-1,-1,-1,-1,-1,-1,-1,-1,-1,-1,-1,-1,-1,-1,-1],"split_conditions":[2.2E0,1.5714285E0,3.987805E0,2.44E1,1.76E1,2.9363637E0,7.2E0,1.12E1,1.0769231E0,1.069E2,2.0952382E0,4.2E0,1.02E1,4.8E0,8.280702E0,-4.1812032E-2,-2.1630308E-2,-2.4814421E-2,-2.5388813E-2,-3.3187207E-2,-2.014022E-2,-2.6209945E-2,1.6964198E-3,8.8276865E-4,3.2499976E-2,2.1608187E-2,3.691274E-2,4.764641E-2,8.054898E-2,1.08379506E-1,2.2626626E-1],"split_indices":[2,9,9,3,3,9,2,3,9,14,9,2,0,2,9,0,0,0,0,0,0,0,0,0,0,0,0,0,0,0,0],"split_type":[0,0,0,0,0,0,0,0,0,0,0,0,0,0,0,0,0,0,0,0,0,0,0,0,0,0,0,0,0,0,0],"sum_hessian":[4.0071E4,2.2585E4,1.7486E4,1.7521E4,5.064E3,1.0174E4,7.312E3,1.389E4,3.631E3,1.486E3,3.578E3,6.23E3,3.944E3,5.531E3,1.781E3,4.798E3,9.092E3,1.398E3,2.233E3,2.45E2,1.241E3,1.931E3,1.647E3,5.746E3,4.84E2,1.033E3,2.911E3,2.158E3,3.373E3,1.197E3,5.84E2],"tree_param":{"num_deleted":"0","num_feature":"16","num_nodes":"31","size_leaf_vector":"1"}},{"base_weights":[-2.3482032E-2,-1.2802415E-1,1.3828914E-1,-1.7926018E-1,-5.2912183E-2,7.080504E-2,2.33694E-1,-1.8935671E-1,-7.9672374E-2,-1.0641026E-1,-1.2296532E-2,4.420505E-2,1.409804E-1,2.0730577E-1,3.551282E-1,-7.8691635E-3,-1.0215293E-2,-8.126722E-3,-2.4464834E-3,-6.72429E-3,1.4236903E-4,-3.267974E-4,-5.7885908E-3,2.433257E-3,-6.107955E-3,3.3158814E-3,8.126896E-3,7.1646343E-3,1.1228215E-2,1.59271E-2,1.9861111E-2],"categories":[],"categories_nodes":[],"categories_segments":[],"categories_sizes":[],"default_left":[0,0,0,0,0,0,0,0,0,0,0,0,0,0,0,0,0,0,0,0,0,0,0,0,0,0,0,0,0,0,0],"id":18,"left_children":[1,3,5,7,9,11,13,15,17,19,21,23,25,27,29,-1,-1,-1,-1,-1,-1,-1,-1,-1,-1,-1,-1,-1,-1,-1,-1],"loss_changes":[6.824129E2,9.431961E1,1.0196631E2,1.4635925E1,2.1599085E1,1.7314537E1,2.0953857E1,6.2910156E0,3.4132118E0,1.3159813E1,3.3682766E0,4.9995975E0,4.0935593E0,5.9258423E0,1.6753387E0,0E0,0E0,0E0,0E0,0E0,0E0,0E0,0E0,0E0,0E0,0E0,0E0,0E0,0E0,0E0,0E0],"parents":[2147483647,0,0,1,1,2,2,3,3,4,4,5,5,6,6,7,7,8,8,9,9,10,10,11,11,12,12,13,13,14,14],"right_children":[2,4,6,8,10,12,14,16,18,20,22,24,26,28,30,-1,-1,-1,-1,-1,-1,-1,-1,-1,-1,-1,-1,-1,-1,-1,-1],"split_conditions":[2.3333333E0,1.4E0,4.6E0,2.7556818E1,1.4038461E0,3.7931035E0,8E0,1.2384615E1,1.1666666E0,2.2E0,3.2434345E1,8.1E1,3.2E0,4.037037E0,8.280702E0,-3.972143E-2,-2.2023449E-2,-2.4386153E-2,-2.3968453E-2,-2.1173758E-2,1.4908195E-3,-9.1882347E-4,-1.2426746E-2,1.1207635E-2,-3.299675E-2,1.7186446E-2,4.5406293E-2,4.396367E-2,7.435577E-2,1.1734181E-1,2.1495295E-1],"split_indices":[9,2,2,10,9,9,2,10,9,2,10,11,2,9,9,0,0,0,0,0,0,0,0,0,0,0,0,0,0,0,0],"split_type":[0,0,0,0,0,0,0,0,0,0,0,0,0,0,0,0,0,0,0,0,0,0,0,0,0,0,0,0,0,0,0],"sum_hessian":[4.0349E4,2.451E4,1.5839E4,1.457E4,9.94E3,9.278E3,6.561E3,1.3228E4,1.342E3,4.289E3,5.651E3,6.729E3,2.549E3,5.392E3,1.169E3,4.218E3,9.01E3,3.62E2,9.8E2,3.412E3,8.77E2,5.354E3,2.97E2,6.554E3,1.75E2,5.72E2,1.977E3,1.147E3,4.245E3,6.3E2,5.39E2],"tree_param":{"num_deleted":"0","num_feature":"16","num_nodes":"31","size_leaf_vector":"1"}},{"base_weights":[-2.3643102E-2,-1.3354681E-1,1.18032224E-1,-1.6499034E-1,-2.379536E-2,4.219671E-2,2.1089298E-1,-1.7893541E-1,-9.9122524E-2,-1.2796208E-1,-8.841532E-3,2.5475714E-2,1.2158145E-1,1.8380237E-1,3.139464E-1,-7.852899E-3,-9.766756E-3,-8.163265E-3,-3.100974E-3,-8.246888E-3,-4.9342104E-4,-2.0778538E-3,7.964954E-4,2.7788766E-3,5.7681743E-4,4.9875313E-3,8.802083E-3,7.4860076E-3,1.0990458E-2,1.3657624E-2,1.946864E-2],"categories":[],"categories_nodes":[],"categories_segments":[],"categories_sizes":[],"default_left":[0,0,0,0,0,0,0,0,0,0,0,0,0,0,0,0,0,0,0,0,0,0,0,0,0,0,0,0,0,0,0],"id":19,"left_children":[1,3,5,7,9,11,13,15,17,19,21,23,25,27,29,-1,-1,-1,-1,-1,-1,-1,-1,-1,-1,-1,-1,-1,-1,-1,-1],"loss_changes":[6.259868E2,7.812607E1,1.2367226E2,1.6146576E1,7.854306E0,1.2831455E1,2.1983368E1,5.1795654E0,7.312805E0,2.7624254E0,3.5753856E0,3.3511252E0,1.9821892E0,7.6419373E0,4.9459686E0,0E0,0E0,0E0,0E0,0E0,0E0,0E0,0E0,0E0,0E0,0E0,0E0,0E0,0E0,0E0,0E0],"parents":[2147483647,0,0,1,1,2,2,3,3,4,4,5,5,6,6,7,7,8,8,9,9,10,10,11,11,12,12,13,13,14,14],"right_children":[2,4,6,8,10,12,14,16,18,20,22,24,26,28,30,-1,-1,-1,-1,-1,-1,-1,-1,-1,-1,-1,-1,-1,-1,-1,-1],"split_conditions":[2.2E0,1.5714285E0,4.2E0,1.08E1,1E0,3.7931035E0,7.4E0,1.3833333E1,1.0769231E0,7.211873E0,2E0,2.2285715E1,9.02E1,5.4E0,8.280702E0,-3.7735358E-2,-2.0874096E-2,-2.1538494E-2,-2.2726912E-2,-2.5407756E-2,-8.916432E-3,-2.2320492E-2,1.3254107E-3,5.827272E-3,2.0044446E-3,3.3429045E-2,4.912069E-2,4.59322E-2,7.726698E-2,9.9992275E-2,2.042053E-1],"split_indices":[2,9,2,0,2,9,2,10,9,6,9,10,15,2,9,0,0,0,0,0,0,0,0,0,0,0,0,0,0,0,0],"split_type":[0,0,0,0,0,0,0,0,0,0,0,0,0,0,0,0,0,0,0,0,0,0,0,0,0,0,0,0,0,0,0],"sum_hessian":[4.0201E4,2.2639E4,1.7562E4,1.7597E4,5.042E3,9.668E3,7.894E3,1.4521E4,3.076E3,6.32E2,4.41E3,7.987E3,1.681E3,6.253E3,1.641E3,6.226E3,8.295E3,1.126E3,1.95E3,4.81E2,1.51E2,1.9E3,2.51E3,2.527E3,5.46E3,1.202E3,4.79E2,3.215E3,3.038E3,1.068E3,5.73E2],"tree_param":{"num_deleted":"0","num_feature":"16","num_nodes":"31","size_leaf_vector":"1"}},{"base_weights":[-2.3643015E-2,-1.1343121E-1,7.512804E-2,-1.4225084E-1,-5.4470487E-2,3.9437287E-2,1.4478555E-1,-1.2260158E-1,-2.0179692E-1,-8.1398726E-2,-2.7689645E-2,1.0199973E-2,8.129925E-2,1.1755453E-1,2.2040816E-1,-4.3054307E-3,-6.9623287E-3,-1.2330427E-2,-9.151516E-3,3.5416668E-3,-4.343252E-3,-2.3627363E-4,-3.430979E-3,1.4554196E-3,-2.6125868E-3,5.9701493E-3,1.9332519E-3,4.0680156E-3,7.5940313E-3,1.8300654E-2,1.0300704E-2],"categories":[],"categories_nodes":[],"categories_segments":[],"categories_sizes":[],"default_left":[0,0,0,0,0,0,0,0,0,0,0,0,0,0,0,0,0,0,0,0,0,0,0,0,0,0,0,0,0,0,0],"id":20,"left_children":[1,3,5,7,9,11,13,15,17,19,21,23,25,27,29,-1,-1,-1,-1,-1,-1,-1,-1,-1,-1,-1,-1,-1,-1,-1,-1],"loss_changes":[3.5635266E2,3.575757E1,4.756389E1,1.6516052E1,4.9824085E0,1.5485573E1,1.3322357E1,6.4461517E0,2.9032745E0,2.8737392E0,3.2583857E0,8.800131E0,8.447777E0,5.911438E0,3.518982E0,0E0,0E0,0E0,0E0,0E0,0E0,0E0,0E0,0E0,0E0,0E0,0E0,0E0,0E0,0E0,0E0],"parents":[2147483647,0,0,1,1,2,2,3,3,4,4,5,5,6,6,7,7,8,8,9,9,10,10,11,11,12,12,13,13,14,14],"right_children":[2,4,6,8,10,12,14,16,18,20,22,24,26,28,30,-1,-1,-1,-1,-1,-1,-1,-1,-1,-1,-1,-1,-1,-1,-1,-1],"split_conditions":[2.5E1,1.94E1,1.8E1,4E0,8.2E0,3.08E1,2.564626E1,1.8717948E0,1.109E2,3.0349813E0,4.65625E0,6.4E0,4.571429E0,3.44E1,3.9473684E0,-1.7934496E-2,-1.721893E-2,-3.584859E-2,-3.584859E-2,1.6152931E-2,-1.6440136E-2,-6.6947937E-4,-1.7321736E-2,7.056314E-3,-1.2757504E-2,3.3759374E-2,1.0039508E-2,3.013742E-2,4.6163797E-2,1.4763515E-1,7.1881585E-2],"split_indices":[3,3,7,13,7,3,7,8,14,6,8,8,8,3,8,0,0,0,0,0,0,0,0,0,0,0,0,0,0,0,0],"split_type":[0,0,0,0,0,0,0,0,0,0,0,0,0,0,0,0,0,0,0,0,0,0,0,0,0,0,0,0,0,0,0],"sum_hessian":[4.018E4,2.1047E4,1.9133E4,1.4136E4,6.911E3,1.2652E4,6.481E3,1.0631E4,3.505E3,3.445E3,3.466E3,7.45E3,5.202E3,4.767E3,1.714E3,3.332E3,7.299E3,1.031E3,2.474E3,1.19E2,3.326E3,2.221E3,1.245E3,5.719E3,1.731E3,2.746E3,2.456E3,2.322E3,2.445E3,1.52E2,1.562E3],"tree_param":{"num_deleted":"0","num_feature":"16","num_nodes":"31","size_leaf_vector":"1"}},{"base_weights":[-2.1842366E-2,-1.23984635E-1,1.0985258E-1,-1.5146351E-1,-7.049031E-2,5.3953364E-2,2.133236E-1,-1.5595378E-1,-2.4414062E-2,-1.1303555E-1,-3.864515E-2,3.1699426E-2,1.1451876E-1,1.7502251E-1,2.58298E-1,-1.0239624E-2,-7.399437E-3,2.6006713E-3,-6.511628E-3,-4.1129035E-3,-7.017796E-3,-1.5942756E-3,-5.1558753E-3,1.3189373E-3,6.8238215E-3,5.795082E-3,-7.8125E-3,7.967365E-3,1.1029412E-2,1.2285942E-2,1.7779505E-2],"categories":[],"categories_nodes":[],"categories_segments":[],"categories_sizes":[],"default_left":[0,0,0,0,0,0,0,0,0,0,0,0,0,0,0,0,0,0,0,0,0,0,0,0,0,0,0,0,0,0,0],"id":21,"left_children":[1,3,5,7,9,11,13,15,17,19,21,23,25,27,29,-1,-1,-1,-1,-1,-1,-1,-1,-1,-1,-1,-1,-1,-1,-1,-1],"loss_changes":[5.410378E2,3.3286926E1,1.01606705E2,8.5329895E0,1.0413151E1,1.5372284E1,1.0569244E1,5.591919E0,4.147544E0,2.7556992E0,1.9138379E0,4.648053E0,1.1657715E0,2.3440323E0,3.3785706E0,0E0,0E0,0E0,0E0,0E0,0E0,0E0,0E0,0E0,0E0,0E0,0E0,0E0,0E0,0E0,0E0],"parents":[2147483647,0,0,1,1,2,2,3,3,4,4,5,5,6,6,7,7,8,8,9,9,10,10,11,11,12,12,13,13,14,14],"right_children":[2,4,6,8,10,12,14,16,18,20,22,24,26,28,30,-1,-1,-1,-1,-1,-1,-1,-1,-1,-1,-1,-1,-1,-1,-1,-1],"split_conditions":[2.2E0,1.4E0,4.8E0,3.12E1,2.2E1,3.8E0,6.4E0,6.4E0,6.279988E-1,2.6E0,7E1,1.243E2,1.2272824E1,1.175E2,1E1,-3.405616E-2,-1.9989504E-2,9.53753E-3,-2.3898521E-2,-1.6159296E-2,-1.6761536E-2,-1.1077023E-2,-2.4238212E-2,3.8957715E-3,2.241592E-2,3.2253336E-2,-5.8297636E-3,5.0244715E-2,7.1728244E-2,8.928899E-2,1.9040094E-1],"split_indices":[2,2,2,3,3,2,2,3,4,1,11,14,6,14,2,0,0,0,0,0,0,0,0,0,0,0,0,0,0,0,0],"split_type":[0,0,0,0,0,0,0,0,0,0,0,0,0,0,0,0,0,0,0,0,0,0,0,0,0,0,0,0,0,0,0],"sum_hessian":[4.0219E4,2.2651E4,1.7568E4,1.4963E4,7.688E3,1.1407E4,6.161E3,1.4452E4,5.11E2,3.29E3,4.398E3,8.343E3,3.064E3,3.33E3,2.831E3,2.023E3,1.2429E4,2.97E2,2.14E2,1.549E3,1.741E3,3.982E3,4.16E2,7.941E3,4.02E2,3.049E3,1.5E1,2.481E3,8.49E2,2.51E3,3.21E2],"tree_param":{"num_deleted":"0","num_feature":"16","num_nodes":"31","size_leaf_vector":"1"}},{"base_weights":[-2.3361817E-2,-1.2531765E-1,1.04919225E-1,-1.4211665E-1,5.076142E-3,3.475348E-2,1.8589899E-1,-1.5210827E-1,-6.653747E-2,4.0210944E-2,-4.5933016E-2,1.2967201E-2,8.236079E-2,1.528155E-1,2.5217864E-1,-7.870856E-3,-4.4193785E-3,-6.6990294E-3,-2.364491E-3,-1.1328125E-2,2.5962861E-3,2.3206752E-3,-3.6464774E-3,5.1708636E-3,2.2916666E-4,5.3280653E-3,1.3432017E-3,2.9157668E-3,8.071528E-3,1.1020408E-2,1.5216346E-2],"categories":[],"categories_nodes":[],"categories_segments":[],"categories_sizes":[],"default_left":[0,0,0,0,0,0,0,0,0,0,0,0,0,0,0,0,0,0,0,0,0,0,0,0,0,0,0,0,0,0,0],"id":22,"left_children":[1,3,5,7,9,11,13,15,17,19,21,23,25,27,29,-1,-1,-1,-1,-1,-1,-1,-1,-1,-1,-1,-1,-1,-1,-1,-1],"loss_changes":[5.265475E2,4.913553E1,1.0129231E2,1.4995575E1,4.591662E0,9.907172E0,1.8108795E1,5.923004E0,3.0079012E0,4.752681E0,2.608607E0,4.9703226E0,4.0249443E0,4.4869843E0,4.495682E0,0E0,0E0,0E0,0E0,0E0,0E0,0E0,0E0,0E0,0E0,0E0,0E0,0E0,0E0,0E0,0E0],"parents":[2147483647,0,0,1,1,2,2,3,3,4,4,5,5,6,6,7,7,8,8,9,9,10,10,11,11,12,12,13,13,14,14],"right_children":[2,4,6,8,10,12,14,16,18,20,22,24,26,28,30,-1,-1,-1,-1,-1,-1,-1,-1,-1,-1,-1,-1,-1,-1,-1,-1],"split_conditions":[2E0,2.2E0,3.7931035E0,1.2222222E1,2.254717E1,3.4E0,6.4E0,1.6E0,1E0,8.863636E-1,2.4E1,5.581081E0,3.151064E1,3E0,7.259259E0,-2.0907301E-2,-1.9724263E-2,-2.1247631E-2,-2.1241307E-2,-3.2302078E-2,6.2684836E-3,5.2987994E-3,-9.163928E-3,2.0292128E-2,3.6144853E-4,3.3657886E-2,1.112882E-2,1.49759175E-2,4.75605E-2,7.646238E-2,1.3831833E-1],"split_indices":[9,2,9,7,10,2,2,9,2,9,11,7,10,2,9,0,0,0,0,0,0,0,0,0,0,0,0,0,0,0,0],"split_type":[0,0,0,0,0,0,0,0,0,0,0,0,0,0,0,0,0,0,0,0,0,0,0,0,0,0,0,0,0,0,0],"sum_hessian":[4.0257E4,2.243E4,1.7827E4,1.987E4,2.56E3,9.552E3,8.275E3,1.7549E4,2.321E3,1.516E3,1.044E3,6.554E3,2.998E3,5.522E3,2.753E3,1.6198E4,1.351E3,5.14E2,1.807E3,6.3E1,1.453E3,2.36E2,8.08E2,5.55E2,5.999E3,2.087E3,9.11E2,4.62E2,5.06E3,1.714E3,1.039E3],"tree_param":{"num_deleted":"0","num_feature":"16","num_nodes":"31","size_leaf_vector":"1"}},{"base_weights":[-2.3440022E-2,-1.18060514E-1,9.523676E-2,-1.4227721E-1,-6.487951E-2,2.6798826E-2,1.7352694E-1,-1.21938966E-1,-1.6404359E-1,-1.4460464E-1,-2.6243387E-2,-1.2579618E-1,3.1992193E-2,1.553942E-1,2.9211956E-1,-9.477313E-3,-5.150249E-3,-9.412009E-3,-5.978261E-3,-1.6528925E-2,-6.708161E-3,2.1040551E-3,-2.6177245E-3,-4.3010754E-3,-2.1527778E-2,5.721831E-3,1.1798089E-3,6.6864947E-3,9.59324E-3,1.1590297E-2,1.6110355E-2],"categories":[],"categories_nodes":[],"categories_segments":[],"categories_sizes":[],"default_left":[0,0,0,0,0,0,0,0,0,0,0,0,0,0,0,0,0,0,0,0,0,0,0,0,0,0,0,0,0,0,0],"id":23,"left_children":[1,3,5,7,9,11,13,15,17,19,21,23,25,27,29,-1,-1,-1,-1,-1,-1,-1,-1,-1,-1,-1,-1,-1,-1,-1,-1],"loss_changes":[4.5224704E2,2.8849335E1,9.572171E1,6.7956543E0,2.1598137E1,7.559545E0,1.7873993E1,1.0173706E1,7.9781494E0,4.4005013E0,8.431734E0,3.769178E0,6.3801193E0,5.686844E0,1.9287262E0,0E0,0E0,0E0,0E0,0E0,0E0,0E0,0E0,0E0,0E0,0E0,0E0,0E0,0E0,0E0,0E0],"parents":[2147483647,0,0,1,1,2,2,3,3,4,4,5,5,6,6,7,7,8,8,9,9,10,10,11,11,12,12,13,13,14,14],"right_children":[2,4,6,8,10,12,14,16,18,20,22,24,26,28,30,-1,-1,-1,-1,-1,-1,-1,-1,-1,-1,-1,-1,-1,-1,-1,-1],"split_conditions":[2E0,1.3218391E0,3.7931035E0,1.5333333E1,1.98E1,1.14E1,7.259259E0,6.4E0,2.44E1,8.35E1,2.24E1,6E1,1.809375E1,5.418605E0,1.9571428E1,-3.1307988E-2,-2.1643579E-2,-1.6666714E-2,-1.9773304E-2,-2.93487E-2,-1.5117183E-2,5.777246E-3,-1.9842554E-2,-1.8335864E-2,-6.090182E-2,1.99826E-2,3.5733103E-3,3.8129747E-2,7.023924E-2,8.979242E-2,1.6653013E-1],"split_indices":[9,9,9,10,3,3,9,3,3,15,10,11,10,9,7,0,0,0,0,0,0,0,0,0,0,0,0,0,0,0,0],"split_type":[0,0,0,0,0,0,0,0,0,0,0,0,0,0,0,0,0,0,0,0,0,0,0,0,0,0,0,0,0,0,0],"sum_hessian":[4.0272E4,2.2407E4,1.7865E4,1.5395E4,7.012E3,9.533E3,8.332E3,7.962E3,7.433E3,2.288E3,4.724E3,3.13E2,9.22E3,7.229E3,1.103E3,1.74E3,6.222E3,4.812E3,2.621E3,1.2E2,2.168E3,1.306E3,3.418E3,2.78E2,3.5E1,8.51E2,8.369E3,4.538E3,2.691E3,3.7E2,7.33E2],"tree_param":{"num_deleted":"0","num_feature":"16","num_nodes":"31","size_leaf_vector":"1"}},{"base_weights":[-1.9579621E-2,-9.594891E-2,1.1918909E-1,-1.2484804E-1,-1.8657245E-2,6.716698E-2,1.8507367E-1,-1.1232598E-1,-1.7646262E-1,-9.659714E-2,-7.137064E-3,1.3718765E-2,8.5474394E-2,1.6483834E-1,2.7912188E-1,-6.0866256E-3,-3.9832746E-3,-1.1532738E-2,-7.802607E-3,-1.54639175E-2,-3.5582823E-3,4.4313148E-3,-9.4734924E-4,-9.473684E-3,1.1813046E-3,3.256113E-3,6.1805896E-3,3.167421E-3,8.465636E-3,6.1440677E-3,1.4864865E-2],"categories":[],"categories_nodes":[],"categories_segments":[],"categories_sizes":[],"default_left":[0,0,0,0,0,0,0,0,0,0,0,0,0,0,0,0,0,0,0,0,0,0,0,0,0,0,0,0,0,0,0],"id":24,"left_children":[1,3,5,7,9,11,13,15,17,19,21,23,25,27,29,-1,-1,-1,-1,-1,-1,-1,-1,-1,-1,-1,-1,-1,-1,-1,-1],"loss_changes":[4.2706564E2,5.8057236E1,4.901732E1,1.2207947E1,6.351824E0,7.8219223E0,1.1964432E1,4.6686707E0,4.047676E0,4.905409E0,6.9740334E0,4.113201E0,4.614086E0,2.3487854E0,3.1326141E0,0E0,0E0,0E0,0E0,0E0,0E0,0E0,0E0,0E0,0E0,0E0,0E0,0E0,0E0,0E0,0E0],"parents":[2147483647,0,0,1,1,2,2,3,3,4,4,5,5,6,6,7,7,8,8,9,9,10,10,11,11,12,12,13,13,14,14],"right_children":[2,4,6,8,10,12,14,16,18,20,22,24,26,28,30,-1,-1,-1,-1,-1,-1,-1,-1,-1,-1,-1,-1,-1,-1,-1,-1],"split_conditions":[2.5714285E0,1.5714285E0,4.4135337E0,4E0,4.6E0,9E0,7.259259E0,1.2972972E0,5.2E-1,1.064E2,6.5E0,2.8605458E-1,3.642857E0,1.038E2,1.1E1,-1.7008973E-2,-1.578095E-2,-2.9742587E-2,-2.9742587E-2,-4.2908944E-2,-1.4558861E-2,1.17025105E-2,-1.8148422E-3,-3.1969607E-2,3.519392E-3,2.387113E-2,3.7107583E-2,2.7914697E-2,5.2423358E-2,5.1658656E-2,1.2352331E-1],"split_indices":[9,9,9,13,0,0,9,9,9,14,7,4,9,14,11,0,0,0,0,0,0,0,0,0,0,0,0,0,0,0,0],"split_type":[0,0,0,0,0,0,0,0,0,0,0,0,0,0,0,0,0,0,0,0,0,0,0,0,0,0,0,0,0,0,0],"sum_hessian":[4.0296E4,2.5992E4,1.4304E4,1.8918E4,7.074E3,7.994E3,6.31E3,1.5227E4,3.691E3,9.1E2,6.164E3,2.04E3,5.954E3,5.195E3,1.115E3,1.182E4,3.407E3,1.007E3,2.684E3,9.6E1,8.14E2,6.76E2,5.488E3,9.4E1,1.946E3,3.884E3,2.07E3,2.2E2,4.975E3,1.17E2,9.98E2],"tree_param":{"num_deleted":"0","num_feature":"16","num_nodes":"31","size_leaf_vector":"1"}},{"base_weights":[-2.4090547E-2,-9.399334E-2,1.0999928E-1,-1.2583126E-1,-3.388998E-2,6.3757285E-2,1.9957401E-1,-2.1925643E-1,-1.197907E-1,-6.5523654E-2,-1.1849658E-2,3.423901E-2,9.2977464E-2,1.7810863E-1,2.7221704E-1,-1.3680555E-2,-9.528986E-3,-6.2381974E-3,-1.6872891E-3,-5.9641767E-3,-1.8359853E-3,4.056162E-4,-2.0482477E-3,3.998203E-3,9.6632505E-4,4.89756E-3,-1.09649125E-4,8.284229E-3,1.1305518E-2,-6.25E-3,1.3823251E-2],"categories":[],"categories_nodes":[],"categories_segments":[],"categories_sizes":[],"default_left":[0,0,0,0,0,0,0,0,0,0,0,0,0,0,0,0,0,0,0,0,0,0,0,0,0,0,0,0,0,0,0],"id":25,"left_children":[1,3,5,7,9,11,13,15,17,19,21,23,25,27,29,-1,-1,-1,-1,-1,-1,-1,-1,-1,-1,-1,-1,-1,-1,-1,-1],"loss_changes":[3.7722757E2,5.0617218E1,5.7111176E1,9.732849E0,6.387121E0,7.8432426E0,7.272476E0,1.582943E0,6.9473877E0,5.821066E0,3.139388E0,3.0853038E0,2.163906E0,2.125595E0,1.8383636E0,0E0,0E0,0E0,0E0,0E0,0E0,0E0,0E0,0E0,0E0,0E0,0E0,0E0,0E0,0E0,0E0],"parents":[2147483647,0,0,1,1,2,2,3,3,4,4,5,5,6,6,7,7,8,8,9,9,10,10,11,11,12,12,13,13,14,14],"right_children":[2,4,6,8,10,12,14,16,18,20,22,24,26,28,30,-1,-1,-1,-1,-1,-1,-1,-1,-1,-1,-1,-1,-1,-1,-1,-1],"split_conditions":[2.8E0,1.6E0,5.4E0,4.4E0,2E0,3.8E0,8.2E0,8.65E1,3.08E1,2.04E1,2.6916666E1,3.9454615E0,6E0,1.192E2,2.76E1,-2.8255457E-2,-2.8255457E-2,-1.6331563E-2,-1.8688891E-2,-1.2890947E-2,-1.3024012E-2,1.0207028E-3,-3.6237896E-3,2.4491608E-2,3.9685965E-3,3.0668115E-2,-1.8755555E-3,5.4824352E-2,8.864751E-2,-6.976292E-2,1.1451788E-1],"split_indices":[2,2,2,3,2,2,2,15,3,3,10,6,13,14,3,0,0,0,0,0,0,0,0,0,0,0,0,0,0,0,0],"split_type":[0,0,0,0,0,0,0,0,0,0,0,0,0,0,0,0,0,0,0,0,0,0,0,0,0,0,0,0,0,0,0],"sum_hessian":[4.0243E4,2.6453E4,1.379E4,1.7292E4,9.161E3,9.096E3,4.694E3,1.048E3,1.6244E4,3.761E3,5.4E3,4.526E3,4.57E3,3.626E3,1.068E3,3.59E2,6.89E2,1.5356E4,8.88E2,1.311E3,2.45E3,3.204E3,2.196E3,1.112E3,3.414E3,4.343E3,2.27E2,2.884E3,7.42E2,1.1E1,1.057E3],"tree_param":{"num_deleted":"0","num_feature":"16","num_nodes":"31","size_leaf_vector":"1"}},{"base_weights":[-2.2611251E-2,-1.00711726E-1,9.715475E-2,-1.2084353E-1,-1.6702129E-2,5.586021E-2,1.8437071E-1,-1.3241914E-1,-4.9138248E-2,-6.530706E-3,-1.4836796E-1,1.9710632E-2,8.462694E-2,1.7095032E-1,3.1788793E-1,-6.040594E-3,-8.852671E-3,-7.379518E-3,-1.3565023E-3,-1.0307018E-2,-5.8809692E-5,-1.5048544E-2,-4.0425532E-3,1.4267849E-3,-4.233871E-3,2.9296875E-3,5.487205E-3,6.999511E-3,9.7662285E-3,-2.0833334E-3,1.6335541E-2],"categories":[],"categories_nodes":[],"categories_segments":[],"categories_sizes":[],"default_left":[0,0,0,0,0,0,0,0,0,0,0,0,0,0,0,0,0,0,0,0,0,0,0,0,0,0,0,0,0,0,0],"id":26,"left_children":[1,3,5,7,9,11,13,15,17,19,21,23,25,27,29,-1,-1,-1,-1,-1,-1,-1,-1,-1,-1,-1,-1,-1,-1,-1,-1],"loss_changes":[3.7562964E2,4.110756E1,5.707776E1,1.6268768E1,6.2934055E0,1.1186668E1,9.071564E0,8.724884E0,5.9047346E0,4.664054E0,3.4478698E0,4.395769E0,3.910965E0,3.4665985E0,1.4855614E0,0E0,0E0,0E0,0E0,0E0,0E0,0E0,0E0,0E0,0E0,0E0,0E0,0E0,0E0,0E0,0E0],"parents":[2147483647,0,0,1,1,2,2,3,3,4,4,5,5,6,6,7,7,8,8,9,9,10,10,11,11,12,12,13,13,14,14],"right_children":[2,4,6,8,10,12,14,16,18,20,22,24,26,28,30,-1,-1,-1,-1,-1,-1,-1,-1,-1,-1,-1,-1,-1,-1,-1,-1],"split_conditions":[2.3333333E0,2E0,5.2E0,1.5714285E0,5E0,3.2E0,8.941176E0,4E0,1E0,8.863636E-1,1.4166666E0,5E0,3.7931035E0,5.418605E0,1.3115385E1,-1.5214199E-2,-2.7438879E-2,-2.0789742E-2,-1.4139438E-2,-2.1543646E-2,-1.8543602E-4,-3.8999997E-2,-1.25980675E-2,4.329014E-3,-1.1420429E-2,2.0252658E-2,3.2507993E-2,4.075969E-2,6.8353154E-2,-1.0934043E-2,1.5500434E-1],"split_indices":[9,2,2,9,13,2,9,13,2,9,9,13,9,9,7,0,0,0,0,0,0,0,0,0,0,0,0,0,0,0,0],"split_type":[0,0,0,0,0,0,0,0,0,0,0,0,0,0,0,0,0,0,0,0,0,0,0,0,0,0,0,0,0,0,0],"sum_hessian":[4.0156E4,2.4306E4,1.585E4,1.9607E4,4.699E3,1.0758E4,5.092E3,1.6881E4,2.726E3,4.363E3,3.36E2,4.768E3,5.99E3,4.629E3,4.63E2,1.34E4,3.481E3,4.97E2,2.229E3,1.13E2,4.25E3,1.02E2,2.34E2,4.397E3,3.71E2,2.943E3,3.047E3,2.042E3,2.587E3,1.1E1,4.52E2],"tree_param":{"num_deleted":"0","num_feature":"16","num_nodes":"31","size_leaf_vector":"1"}},{"base_weights":[-2.5156686E-2,-1.0709166E-1,7.70951E-2,-1.2225753E-1,1.3421474E-2,3.0520406E-2,1.5549055E-1,-1.3011788E-1,-6.1314512E-2,2.2590362E-2,-1.0982659E-1,-1.4473177E-3,5.793743E-2,1.3275024E-1,2.3226018E-1,-6.0063545E-3,-8.471597E-3,-6.557882E-3,-1.1160715E-3,2.570601E-3,-9.798729E-4,-1.6037736E-2,-8.264463E-4,3.8901602E-3,-4.3721028E-4,3.2701713E-3,-3.8765823E-3,7.749863E-3,3.939495E-3,4.037267E-3,1.25E-2],"categories":[],"categories_nodes":[],"categories_segments":[],"categories_sizes":[],"default_left":[0,0,0,0,0,0,0,0,0,0,0,0,0,0,0,0,0,0,0,0,0,0,0,0,0,0,0,0,0,0,0],"id":27,"left_children":[1,3,5,7,9,11,13,15,17,19,21,23,25,27,29,-1,-1,-1,-1,-1,-1,-1,-1,-1,-1,-1,-1,-1,-1,-1,-1],"loss_changes":[3.3687076E2,4.0799255E1,6.530506E1,9.489807E0,2.82308E0,9.835714E0,1.1606445E1,6.8772583E0,6.1710176E0,2.8268123E0,3.3991828E0,2.9973385E0,6.1150074E0,6.164131E0,4.070717E0,0E0,0E0,0E0,0E0,0E0,0E0,0E0,0E0,0E0,0E0,0E0,0E0,0E0,0E0,0E0,0E0],"parents":[2147483647,0,0,1,1,2,2,3,3,4,4,5,5,6,6,7,7,8,8,9,9,10,10,11,11,12,12,13,13,14,14],"right_children":[2,4,6,8,10,12,14,16,18,20,22,24,26,28,30,-1,-1,-1,-1,-1,-1,-1,-1,-1,-1,-1,-1,-1,-1,-1,-1],"split_conditions":[2E0,2.2E0,4.6E0,1.5714285E0,5E0,2.8181818E0,6.7272725E0,4E0,7.2E0,2.254717E1,1.122E2,1.6333334E1,6E0,5.4666667E0,1.1E1,-1.4713532E-2,-2.6066935E-2,-1.55826155E-2,-1.834618E-2,6.023845E-3,-2.2794963E-3,-4.3753367E-2,-1.01264E-2,1.5537358E-2,-8.8989735E-4,1.9958878E-2,-1.3800419E-2,5.067103E-2,2.4118258E-2,3.5575654E-2,1.0239706E-1],"split_indices":[9,2,2,9,13,9,9,13,0,10,14,10,13,8,11,0,0,0,0,0,0,0,0,0,0,0,0,0,0,0,0],"split_type":[0,0,0,0,0,0,0,0,0,0,0,0,0,0,0,0,0,0,0,0,0,0,0,0,0,0,0,0,0,0,0],"sum_hessian":[4.0207E4,2.2321E4,1.7886E4,1.9826E4,2.495E3,1.1221E4,6.665E3,1.756E4,2.266E3,2.323E3,1.72E2,5.181E3,6.04E3,5.144E3,1.521E3,1.4005E4,3.555E3,8.11E2,1.455E3,1.38E3,9.43E2,5.2E1,1.2E2,4.36E2,4.745E3,5.725E3,3.15E2,3.641E3,1.503E3,1.6E2,1.361E3],"tree_param":{"num_deleted":"0","num_feature":"16","num_nodes":"31","size_leaf_vector":"1"}},{"base_weights":[-2.3039924E-2,-8.724726E-2,5.5343404E-2,-7.3312625E-2,-1.4389068E-1,2.8819725E-2,1.12894736E-1,-1.8459916E-1,-7.024722E-2,-1.5885003E-1,-4.64716E-2,1.597189E-3,5.671031E-2,1.8413174E-1,9.768036E-2,-7.982674E-3,-1.6197184E-2,-3.8405363E-3,-1.2327189E-3,-8.65954E-3,-4.9659866E-3,-1.2365592E-2,-4.0899796E-4,7.862644E-4,-1.9993703E-3,4.4622794E-3,1.1431909E-3,7.52754E-3,1.6532259E-2,3.8147566E-3,7.1287127E-3],"categories":[],"categories_nodes":[],"categories_segments":[],"categories_sizes":[],"default_left":[0,0,0,0,0,0,0,0,0,0,0,0,0,0,0,0,0,0,0,0,0,0,0,0,0,0,0,0,0,0,0],"id":28,"left_children":[1,3,5,7,9,11,13,15,17,19,21,23,25,27,29,-1,-1,-1,-1,-1,-1,-1,-1,-1,-1,-1,-1,-1,-1,-1,-1],"loss_changes":[2.0195035E2,1.7399933E1,2.757859E1,6.0269012E0,6.3378143E0,9.391864E0,6.1598206E0,1.5959263E0,5.1547623E0,3.2047043E0,4.4661584E0,3.679037E0,6.7263203E0,4.8801193E0,4.500469E0,0E0,0E0,0E0,0E0,0E0,0E0,0E0,0E0,0E0,0E0,0E0,0E0,0E0,0E0,0E0,0E0],"parents":[2147483647,0,0,1,1,2,2,3,3,4,4,5,5,6,6,7,7,8,8,9,9,10,10,11,11,12,12,13,13,14,14],"right_children":[2,4,6,8,10,12,14,16,18,20,22,24,26,28,30,-1,-1,-1,-1,-1,-1,-1,-1,-1,-1,-1,-1,-1,-1,-1,-1],"split_conditions":[2.58E1,4E0,1.98E1,4.4E0,2.1883333E1,3.04E1,3.8421052E0,4.4444447E0,1.08E1,9.142857E1,1.7E1,6.6E0,4.5959597E0,2.4197369E1,2.564626E1,-2.6878685E-2,-3.047506E-2,-1.03367185E-2,-5.983466E-3,-2.476359E-2,-2.4167394E-2,-4.479217E-2,-1.9991398E-3,4.09143E-3,-1.14517035E-2,2.7698323E-2,5.8948994E-3,4.7620066E-2,1.2386918E-1,2.2960937E-2,5.0078835E-2],"split_indices":[3,13,0,3,10,3,8,7,0,15,3,1,8,7,7,0,0,0,0,0,0,0,0,0,0,0,0,0,0,0,0],"split_type":[0,0,0,0,0,0,0,0,0,0,0,0,0,0,0,0,0,0,0,0,0,0,0,0,0,0,0,0,0,0,0],"sum_hessian":[4.0125E4,2.2057E4,1.8068E4,1.7704E4,4.353E3,1.2369E4,5.699E3,4.73E2,1.7231E4,3.773E3,5.8E2,6.26E3,6.109E3,1.001E3,4.698E3,4.03E2,7E1,1.5062E4,2.169E3,3.039E3,7.34E2,9.2E1,4.88E2,4.673E3,1.587E3,3.114E3,2.995E3,8.16E2,1.85E2,3.184E3,1.514E3],"tree_param":{"num_deleted":"0","num_feature":"16","num_nodes":"31","size_leaf_vector":"1"}},{"base_weights":[-2.4891641E-2,-1.02656424E-1,7.573433E-2,-1.8455882E-1,-9.459394E-2,4.0387396E-2,1.6094962E-1,-2.2291853E-1,-1.3798702E-1,-1.0397095E-1,-4.6515062E-2,1.984233E-2,7.138536E-2,1.271351E-1,1.9458415E-1,-1.2180268E-2,-8.249159E-3,-4.684318E-3,-9.389401E-3,-3.8200342E-3,-6.0194978E-3,-5.9722224E-3,-1.6332982E-3,2.2129188E-3,-2.4174053E-4,-7.7380957E-3,3.665108E-3,5.4604933E-3,9.364407E-3,8.402424E-3,1.1763262E-2],"categories":[],"categories_nodes":[],"categories_segments":[],"categories_sizes":[],"default_left":[0,0,0,0,0,0,0,0,0,0,0,0,0,0,0,0,0,0,0,0,0,0,0,0,0,0,0,0,0,0,0],"id":29,"left_children":[1,3,5,7,9,11,13,15,17,19,21,23,25,27,29,-1,-1,-1,-1,-1,-1,-1,-1,-1,-1,-1,-1,-1,-1,-1,-1],"loss_changes":[3.1594846E2,1.5021698E1,5.3009453E1,3.6136627E0,9.343704E0,7.9223366E0,5.843918E0,1.2985344E0,2.0209522E0,7.8451843E0,3.4159794E0,4.5094595E0,2.1609612E0,2.7571373E0,2.750969E0,0E0,0E0,0E0,0E0,0E0,0E0,0E0,0E0,0E0,0E0,0E0,0E0,0E0,0E0,0E0,0E0],"parents":[2147483647,0,0,1,1,2,2,3,3,4,4,5,5,6,6,7,7,8,8,9,9,10,10,11,11,12,12,13,13,14,14],"right_children":[2,4,6,8,10,12,14,16,18,20,22,24,26,28,30,-1,-1,-1,-1,-1,-1,-1,-1,-1,-1,-1,-1,-1,-1,-1,-1],"split_conditions":[2.2E0,6.4E0,5.2E0,4E-1,1.2222222E1,3.6E0,1E0,1.12E1,4E0,1.5222222E1,1E0,2.6642857E1,1.52E1,8E0,7E0,-2.352541E-2,-2.637056E-2,-2.5534749E-2,-2.352541E-2,-1.2857742E-2,-1.2709579E-2,-1.5952988E-2,-1.139876E-2,5.484128E-3,-6.3601136E-4,-3.0690074E-2,2.2325277E-2,3.851502E-2,7.657995E-2,5.3772807E-2,9.778807E-2],"split_indices":[2,3,2,2,7,2,12,10,13,10,2,10,3,2,2,0,0,0,0,0,0,0,0,0,0,0,0,0,0,0,0],"split_type":[0,0,0,0,0,0,0,0,0,0,0,0,0,0,0,0,0,0,0,0,0,0,0,0,0,0,0,0,0,0,0],"sum_hessian":[4.0374E4,2.2774E4,1.76E4,2.039E3,2.0735E4,1.2441E4,5.159E3,1.116E3,9.23E2,1.735E4,3.385E3,7.483E3,4.958E3,2.575E3,2.584E3,8.2E2,2.96E2,4.9E2,4.33E2,6.478E3,1.0872E4,5.39E2,2.846E3,3.761E3,3.722E3,4.1E1,4.917E3,1.986E3,5.89E2,1.567E3,1.017E3],"tree_param":{"num_deleted":"0","num_feature":"16","num_nodes":"31","size_leaf_vector":"1"}},{"base_weights":[-2.3681914E-2,-9.937539E-2,7.062479E-2,-1.1882963E-1,-5.357143E-2,2.1104254E-2,1.2174309E-1,-2.1691176E-1,-1.1245569E-1,-1.2282447E-1,-2.3454389E-2,-2.9542567E-2,3.1729102E-2,1.08975194E-1,2.1173236E-1,-1.1672684E-2,-5.1229508E-3,-4.213989E-3,-6.9875154E-3,-4.6875E-3,-9.937051E-3,1.4865729E-3,-2.5301992E-3,-1.3302753E-2,-5.968622E-4,2.7972423E-3,-1.54321E-4,4.2378367E-3,6.6671013E-3,9.15493E-3,1.414791E-2],"categories":[],"categories_nodes":[],"categories_segments":[],"categories_sizes":[],"default_left":[0,0,0,0,0,0,0,0,0,0,0,0,0,0,0,0,0,0,0,0,0,0,0,0,0,0,0,0,0,0,0],"id":30,"left_children":[1,3,5,7,9,11,13,15,17,19,21,23,25,27,29,-1,-1,-1,-1,-1,-1,-1,-1,-1,-1,-1,-1,-1,-1,-1,-1],"loss_changes":[2.86364E2,1.9823761E1,4.5213394E1,9.740143E0,1.3837799E1,4.883791E0,1.0075256E1,1.7784729E0,1.12686615E1,4.4201164E0,6.6813293E0,6.550769E0,6.324144E0,4.532089E0,2.1732445E0,0E0,0E0,0E0,0E0,0E0,0E0,0E0,0E0,0E0,0E0,0E0,0E0,0E0,0E0,0E0,0E0],"parents":[2147483647,0,0,1,1,2,2,3,3,4,4,5,5,6,6,7,7,8,8,9,9,10,10,11,11,12,12,13,13,14,14],"right_children":[2,4,6,8,10,12,14,16,18,20,22,24,26,28,30,-1,-1,-1,-1,-1,-1,-1,-1,-1,-1,-1,-1,-1,-1,-1,-1],"split_conditions":[2E0,1.3421053E0,3.642857E0,4.4E0,1.94E1,1.08E2,7.259259E0,9.17E1,1.5426087E1,8.142858E0,2.3544554E1,1.4E1,2.8705128E1,1E0,9.634147E0,-2.1752944E-2,-2.1782754E-2,-2.237895E-2,-1.2683821E-2,-9.383124E-3,-1.6014326E-2,4.50269E-3,-1.5395972E-2,-2.9777396E-2,-1.8574119E-3,1.1580646E-2,-4.793525E-4,2.6868392E-2,3.984466E-2,8.414723E-2,1.4656113E-1],"split_indices":[9,9,9,3,3,14,9,15,10,7,10,3,10,12,9,0,0,0,0,0,0,0,0,0,0,0,0,0,0,0,0],"split_type":[0,0,0,0,0,0,0,0,0,0,0,0,0,0,0,0,0,0,0,0,0,0,0,0,0,0,0,0,0,0,0],"sum_hessian":[4.0114E4,2.2253E4,1.7861E4,1.5618E4,6.635E3,9.073E3,8.788E3,9.51E2,1.4667E4,2.01E3,4.625E3,1.573E3,7.5E3,7.698E3,1.09E3,8.3E2,1.21E2,7.219E3,7.448E3,1.455E3,5.55E2,1.563E3,3.062E3,1.08E2,1.465E3,4.423E3,3.077E3,3.863E3,3.835E3,7.8E2,3.1E2],"tree_param":{"num_deleted":"0","num_feature":"16","num_nodes":"31","size_leaf_vector":"1"}},{"base_weights":[-2.5046589E-2,-9.879246E-2,6.9480665E-2,-1.2030974E-1,-2.3880301E-2,1.982845E-2,1.209305E-1,-2.1565315E-1,-1.1522547E-1,-7.7560686E-2,3.1268613E-3,2.560631E-2,-8.161157E-2,9.189683E-2,1.5913346E-1,-1.2297078E-2,-7.326008E-3,-4.6513644E-3,-6.9560343E-3,-8.088236E-3,-2.6785715E-3,-1.3001696E-3,1.7767296E-3,1.0556097E-3,7.942239E-3,-5.1252847E-3,5.978261E-3,1.1986302E-3,4.92534E-3,7.601116E-3,1.6129032E-2],"categories":[],"categories_nodes":[],"categories_segments":[],"categories_sizes":[],"default_left":[0,0,0,0,0,0,0,0,0,0,0,0,0,0,0,0,0,0,0,0,0,0,0,0,0,0,0,0,0,0,0],"id":31,"left_children":[1,3,5,7,9,11,13,15,17,19,21,23,25,27,29,-1,-1,-1,-1,-1,-1,-1,-1,-1,-1,-1,-1,-1,-1,-1,-1],"loss_changes":[2.8055457E2,3.6439087E1,4.5055603E1,8.488861E0,7.315706E0,5.2635655E0,9.593033E0,1.8233719E0,8.83252E0,3.403101E0,3.1710284E0,5.0827622E0,2.0467076E0,2.2084007E0,4.296791E0,0E0,0E0,0E0,0E0,0E0,0E0,0E0,0E0,0E0,0E0,0E0,0E0,0E0,0E0,0E0,0E0],"parents":[2147483647,0,0,1,1,2,2,3,3,4,4,5,5,6,6,7,7,8,8,9,9,10,10,11,11,12,12,13,13,14,14],"right_children":[2,4,6,8,10,12,14,16,18,20,22,24,26,28,30,-1,-1,-1,-1,-1,-1,-1,-1,-1,-1,-1,-1,-1,-1,-1,-1],"split_conditions":[2.2E0,1.5714285E0,3.642857E0,4.2E0,1.88E1,6E0,5.8E0,6E-1,1.74E1,1.08E2,2.0952382E0,5.4E0,1.225E2,7.4E0,1.12E1,-2.0665295E-2,-2.3923447E-2,-2.3092633E-2,-1.1595783E-2,-1.8965561E-2,-9.8744035E-3,-1.8634353E-2,2.5290847E-3,3.5951496E-3,5.0846647E-2,-2.1614565E-2,2.2981985E-2,7.7077984E-3,2.8298182E-2,5.440138E-2,1.6919796E-1],"split_indices":[2,9,9,3,3,13,2,9,3,14,9,2,14,0,2,0,0,0,0,0,0,0,0,0,0,0,0,0,0,0,0],"split_type":[0,0,0,0,0,0,0,0,0,0,0,0,0,0,0,0,0,0,0,0,0,0,0,0,0,0,0,0,0,0,0],"sum_hessian":[4.0244E4,2.2607E4,1.7637E4,1.7562E4,5.045E3,8.976E3,8.661E3,8.87E2,1.6675E4,1.688E3,3.357E3,8.493E3,4.83E2,4.923E3,3.738E3,6.15E2,2.72E2,8.647E3,8.028E3,3.73E2,1.315E3,1.768E3,1.589E3,8.217E3,2.76E2,4.38E2,4.5E1,4.37E2,4.486E3,3.584E3,1.54E2],"tree_param":{"num_deleted":"0","num_feature":"16","num_nodes":"31","size_leaf_vector":"1"}},{"base_weights":[-2.4130793E-2,-9.59335E-2,6.544282E-2,-1.1029685E-1,-1.6934307E-2,2.8534371E-2,1.3344488E-1,-1.8259874E-1,-1.0289728E-1,-1.875E-1,-9.878419E-3,2.4931224E-3,5.4869566E-2,1.1792094E-1,2.137931E-1,-1.0969388E-2,-6.1567165E-3,-4.0421076E-3,-6.261044E-3,-6.0096155E-3,-1.9696971E-2,2.3834745E-4,-5.010893E-3,-5.9108525E-3,4.0474907E-4,3.0615975E-3,-3.482143E-3,3.0208332E-3,6.3504293E-3,1.3842282E-2,9.366295E-3],"categories":[],"categories_nodes":[],"categories_segments":[],"categories_sizes":[],"default_left":[0,0,0,0,0,0,0,0,0,0,0,0,0,0,0,0,0,0,0,0,0,0,0,0,0,0,0,0,0,0,0],"id":32,"left_children":[1,3,5,7,9,11,13,15,17,19,21,23,25,27,29,-1,-1,-1,-1,-1,-1,-1,-1,-1,-1,-1,-1,-1,-1,-1,-1],"loss_changes":[2.5787598E2,2.5250732E1,4.4771927E1,1.0055847E1,4.120109E0,7.931155E0,7.802971E0,3.7947884E0,8.401672E0,1.8423657E0,4.353327E0,3.9337442E0,4.559391E0,2.742134E0,1.6419945E0,0E0,0E0,0E0,0E0,0E0,0E0,0E0,0E0,0E0,0E0,0E0,0E0,0E0,0E0,0E0,0E0],"parents":[2147483647,0,0,1,1,2,2,3,3,4,4,5,5,6,6,7,7,8,8,9,9,10,10,11,11,12,12,13,13,14,14],"right_children":[2,4,6,8,10,12,14,16,18,20,22,24,26,28,30,-1,-1,-1,-1,-1,-1,-1,-1,-1,-1,-1,-1,-1,-1,-1,-1],"split_conditions":[2E0,2E0,4.4135337E0,6E0,8.965517E-1,2.909091E0,8.2E0,6E-1,1.78E1,3E0,1.4071428E1,1.14E1,6E0,2.56E1,3.857143E0,-1.9632032E-2,-2.2887459E-2,-2.1431398E-2,-1.12132225E-2,-1.3130808E-2,-3.3392537E-2,1.0398686E-3,-2.4438864E-2,-1.4295972E-2,9.332597E-4,1.841228E-2,-1.0663641E-2,1.9031478E-2,4.126915E-2,1.1126826E-1,7.5802825E-2],"split_indices":[9,2,9,3,9,9,2,9,3,13,7,3,13,3,8,0,0,0,0,0,0,0,0,0,0,0,0,0,0,0,0],"split_type":[0,0,0,0,0,0,0,0,0,0,0,0,0,0,0,0,0,0,0,0,0,0,0,0,0,0,0,0,0,0,0],"sum_hessian":[4.0093E4,2.2254E4,1.7839E4,1.883E4,3.424E3,1.1564E4,6.275E3,1.746E3,1.7084E4,1.35E2,3.289E3,5.815E3,5.749E3,5.261E3,1.014E3,1.077E3,6.69E2,8.596E3,8.488E3,1.03E2,3.2E1,2.831E3,4.58E2,2.57E2,5.558E3,5.47E3,2.79E2,7.19E2,4.542E3,2.97E2,7.17E2],"tree_param":{"num_deleted":"0","num_feature":"16","num_nodes":"31","size_leaf_vector":"1"}},{"base_weights":[-2.2424197E-2,-9.2863135E-2,6.818827E-2,-1.0753127E-1,6.508298E-4,3.885148E-2,1.4894524E-1,-1.6013357E-1,-9.630157E-2,-6.37045E-2,2.8738318E-2,1.771789E-2,8.269872E-2,1.8746737E-1,1.2234617E-1,-6.52403E-3,-1.1276795E-2,-2.503951E-3,-5.870409E-3,-9.326425E-3,-1.5835579E-3,8.3884085E-4,8.189655E-3,2.2514355E-3,5.0813007E-5,7.4884796E-4,4.523746E-3,7.844905E-3,1.1462206E-2,4.38253E-3,8.683036E-3],"categories":[],"categories_nodes":[],"categories_segments":[],"categories_sizes":[],"default_left":[0,0,0,0,0,0,0,0,0,0,0,0,0,0,0,0,0,0,0,0,0,0,0,0,0,0,0,0,0,0,0],"id":33,"left_children":[1,3,5,7,9,11,13,15,17,19,21,23,25,27,29,-1,-1,-1,-1,-1,-1,-1,-1,-1,-1,-1,-1,-1,-1,-1,-1],"loss_changes":[2.5702908E2,3.1078125E1,4.1722054E1,1.1553589E1,5.5565224E0,1.1971771E1,4.785759E0,6.649765E0,1.5742279E1,3.6688805E0,3.4543319E0,3.9774532E0,2.2114983E0,2.4096527E0,4.932472E0,0E0,0E0,0E0,0E0,0E0,0E0,0E0,0E0,0E0,0E0,0E0,0E0,0E0,0E0,0E0,0E0],"parents":[2147483647,0,0,1,1,2,2,3,3,4,4,5,5,6,6,7,7,8,8,9,9,10,10,11,11,12,12,13,13,14,14],"right_children":[2,4,6,8,10,12,14,16,18,20,22,24,26,28,30,-1,-1,-1,-1,-1,-1,-1,-1,-1,-1,-1,-1,-1,-1,-1,-1],"split_conditions":[2.2E0,1.9166666E0,5.4E0,5.4545456E-1,1.76E1,3.642857E0,4.1136365E0,4E0,1.51081085E1,1.077E2,9E0,2.3544554E1,7.4E0,1.161E2,6.5625E0,-2.1291746E-2,-1.868024E-2,-7.1002543E-3,-1.116018E-2,-2.5086379E-2,-9.623361E-3,1.3190985E-3,2.1471484E-2,5.5635334E-3,2.2989511E-4,4.7072056E-3,2.5501413E-2,4.7947418E-2,7.252129E-2,2.7889539E-2,7.7087976E-2],"split_indices":[2,9,2,9,3,9,8,13,10,14,1,10,0,14,9,0,0,0,0,0,0,0,0,0,0,0,0,0,0,0,0],"split_type":[0,0,0,0,0,0,0,0,0,0,0,0,0,0,0,0,0,0,0,0,0,0,0,0,0,0,0,0,0,0,0],"sum_hessian":[4.0268E4,2.2656E4,1.7612E4,1.9584E4,3.072E3,1.292E4,4.692E3,3.443E3,1.6141E4,9.33E2,2.139E3,8.719E3,4.201E3,1.914E3,2.778E3,2.371E3,1.072E3,5.061E3,1.108E4,1.92E2,7.41E2,1.966E3,1.73E2,3.308E3,5.411E3,4.33E2,3.768E3,1.108E3,8.06E2,1.659E3,1.119E3],"tree_param":{"num_deleted":"0","num_feature":"16","num_nodes":"31","size_leaf_vector":"1"}},{"base_weights":[-2.083489E-2,-8.8528074E-2,6.624552E-2,-1.07800126E-1,-2.1571344E-2,2.1785634E-2,1.1168009E-1,-1.5365663E-1,-9.488172E-2,-8.472222E-2,-4.4036238E-3,3.6110204E-2,-1.0185522E-2,9.7981E-2,2.0485175E-1,-6.417516E-3,-1.0451159E-2,-2.1241494E-3,-6.1793625E-3,-5.7668327E-3,1.7921148E-4,-2.0654507E-3,3.4505423E-4,1.2949837E-3,6.2401267E-3,-3.8602941E-3,5.9178745E-4,4.10685E-3,6.3263043E-3,2.4122808E-3,1.1125E-2],"categories":[],"categories_nodes":[],"categories_segments":[],"categories_sizes":[],"default_left":[0,0,0,0,0,0,0,0,0,0,0,0,0,0,0,0,0,0,0,0,0,0,0,0,0,0,0,0,0,0,0],"id":34,"left_children":[1,3,5,7,9,11,13,15,17,19,21,23,25,27,29,-1,-1,-1,-1,-1,-1,-1,-1,-1,-1,-1,-1,-1,-1,-1,-1],"loss_changes":[2.3681566E2,2.9164444E1,3.5491272E1,1.0382507E1,5.4778705E0,4.068085E0,1.1071564E1,5.375908E0,2.059536E1,2.9201417E0,1.6582563E0,5.5516925E0,4.05809E0,3.416893E0,3.0653992E0,0E0,0E0,0E0,0E0,0E0,0E0,0E0,0E0,0E0,0E0,0E0,0E0,0E0,0E0,0E0,0E0],"parents":[2147483647,0,0,1,1,2,2,3,3,4,4,5,5,6,6,7,7,8,8,9,9,10,10,11,11,12,12,13,13,14,14],"right_children":[2,4,6,8,10,12,14,16,18,20,22,24,26,28,30,-1,-1,-1,-1,-1,-1,-1,-1,-1,-1,-1,-1,-1,-1,-1,-1],"split_conditions":[2.2E0,1.5714285E0,3.642857E0,5.769231E-1,1.2E0,1.4071428E1,7.259259E0,4E0,1.5426087E1,1.165E2,6E0,1.56E1,2.4285715E0,5.418605E0,1.1E1,-2.1085517E-2,-1.7746227E-2,-5.982E-3,-1.0409141E-2,-1.6007293E-2,1.0894955E-3,-8.902091E-3,1.027441E-3,3.3492267E-3,3.0901838E-2,-7.865704E-3,5.495691E-3,2.1943713E-2,4.3742444E-2,2.162454E-2,8.6671285E-2],"split_indices":[2,9,9,9,2,7,9,13,10,14,0,0,9,9,11,0,0,0,0,0,0,0,0,0,0,0,0,0,0,0,0],"split_type":[0,0,0,0,0,0,0,0,0,0,0,0,0,0,0,0,0,0,0,0,0,0,0,0,0,0,0,0,0,0,0],"sum_hessian":[4.0172E4,2.2602E4,1.757E4,1.755E4,5.052E3,8.881E3,8.689E3,3.855E3,1.3695E4,1.079E3,3.973E3,6.133E3,2.748E3,7.577E3,1.112E3,2.648E3,1.207E3,4.848E3,8.847E3,8.01E2,2.78E2,9.31E2,3.042E3,5.501E3,6.32E2,6.79E2,2.069E3,4.875E3,2.702E3,1.13E2,9.99E2],"tree_param":{"num_deleted":"0","num_feature":"16","num_nodes":"31","size_leaf_vector":"1"}},{"base_weights":[-2.1724548E-2,-8.4194034E-2,5.8696516E-2,-1.8257956E-1,-7.574523E-2,2.9536711E-2,1.2968384E-1,-1.9359577E-1,2.7777778E-2,-9.108896E-2,-4.9637586E-2,1.3644524E-2,6.1741874E-2,1.13033876E-1,1.9410086E-1,-1.2855114E-2,-8.8452995E-3,-4.435484E-3,1.3793103E-2,-3.3774504E-3,-6.3900254E-3,-3.6118422E-3,-1.3878279E-3,1.406709E-3,-1.8018018E-3,2.9007918E-3,1.2345679E-2,4.8349057E-3,7.354056E-3,1.0879905E-2,4.976304E-3],"categories":[],"categories_nodes":[],"categories_segments":[],"categories_sizes":[],"default_left":[0,0,0,0,0,0,0,0,0,0,0,0,0,0,0,0,0,0,0,0,0,0,0,0,0,0,0,0,0,0,0],"id":35,"left_children":[1,3,5,7,9,11,13,15,17,19,21,23,25,27,29,-1,-1,-1,-1,-1,-1,-1,-1,-1,-1,-1,-1,-1,-1,-1,-1],"loss_changes":[2.0223549E2,1.881874E1,3.6425686E1,4.155731E0,8.354164E0,6.3845043E0,5.473755E0,1.7584801E0,2.6253555E0,1.1347664E1,3.8184643E0,6.015395E0,2.8296776E0,2.251686E0,2.3139267E0,0E0,0E0,0E0,0E0,0E0,0E0,0E0,0E0,0E0,0E0,0E0,0E0,0E0,0E0,0E0,0E0],"parents":[2147483647,0,0,1,1,2,2,3,3,4,4,5,5,6,6,7,7,8,8,9,9,10,10,11,11,12,12,13,13,14,14],"right_children":[2,4,6,8,10,12,14,16,18,20,22,24,26,28,30,-1,-1,-1,-1,-1,-1,-1,-1,-1,-1,-1,-1,-1,-1,-1,-1],"split_conditions":[2.2E0,6E0,5.2E0,1E0,1.4E0,3.8E0,8.2E0,1.3984118E0,9.02E1,1.82E1,2.34E1,5.6E1,1.22E1,1.167E2,6.3E1,-1.6857425E-2,-1.7272634E-2,-2.7022997E-2,4.691455E-2,-2.0232E-2,-9.113649E-3,-6.455207E-3,-8.487093E-3,4.7658384E-3,-4.1076005E-3,1.7303122E-2,3.376884E-2,2.8165389E-2,5.5009007E-2,7.427899E-2,4.4433117E-2],"split_indices":[2,3,2,2,2,2,2,5,15,3,3,11,1,14,11,0,0,0,0,0,0,0,0,0,0,0,0,0,0,0,0],"split_type":[0,0,0,0,0,0,0,0,0,0,0,0,0,0,0,0,0,0,0,0,0,0,0,0,0,0,0,0,0,0,0],"sum_hessian":[4.0253E4,2.2655E4,1.7598E4,1.79E3,2.0865E4,1.2475E4,5.123E3,1.701E3,8.9E1,1.314E4,7.725E3,8.354E3,4.121E3,4.073E3,1.05E3,3.51E2,1.35E3,6.1E1,2.8E1,8.008E3,5.132E3,3.799E3,3.926E3,6.468E3,1.886E3,4.041E3,8E1,2.755E3,1.318E3,8.4E2,2.1E2],"tree_param":{"num_deleted":"0","num_feature":"16","num_nodes":"31","size_leaf_vector":"1"}},{"base_weights":[-2.1822738E-2,-8.2823046E-2,5.429448E-2,-9.440577E-2,7.254902E-3,2.2557395E-2,1.0757508E-1,-1.7771399E-1,-8.5487746E-2,1.2825651E-2,-2.4107143E-1,-6.386555E-2,2.738632E-2,9.55435E-2,2.2675367E-1,-1.0535347E-2,-3.6413043E-3,-2.4863349E-3,-5.313935E-3,-6.6666673E-3,1.0588734E-3,-1.0416667E-3,-1.9696971E-2,-1.2079832E-3,-1.1041666E-2,6.2992126E-3,1.0564436E-3,5.186684E-3,1.3178295E-3,1.1730449E-2,-7.692308E-3],"categories":[],"categories_nodes":[],"categories_segments":[],"categories_sizes":[],"default_left":[0,0,0,0,0,0,0,0,0,0,0,0,0,0,0,0,0,0,0,0,0,0,0,0,0,0,0,0,0,0,0],"id":36,"left_children":[1,3,5,7,9,11,13,15,17,19,21,23,25,27,29,-1,-1,-1,-1,-1,-1,-1,-1,-1,-1,-1,-1,-1,-1,-1,-1],"loss_changes":[1.8713368E2,2.3343521E1,3.031668E1,1.4712936E1,3.5306697E0,4.6917043E0,9.575478E0,6.6150894E0,1.3310181E1,3.0484526E0,1.8771641E0,3.7030287E0,6.5643845E0,3.4430847E0,1.8688011E0,0E0,0E0,0E0,0E0,0E0,0E0,0E0,0E0,0E0,0E0,0E0,0E0,0E0,0E0,0E0,0E0],"parents":[2147483647,0,0,1,1,2,2,3,3,4,4,5,5,6,6,7,7,8,8,9,9,10,10,11,11,12,12,13,13,14,14],"right_children":[2,4,6,8,10,12,14,16,18,20,22,24,26,28,30,-1,-1,-1,-1,-1,-1,-1,-1,-1,-1,-1,-1,-1,-1,-1,-1],"split_conditions":[2E0,2.2E0,4.6E0,6.4E0,3.275E1,1.36E1,8.280702E0,8.125E-1,1.5426087E1,9.722222E-1,3.28E1,4.8E1,1.809375E1,4E0,8.5E1,-1.6409002E-2,-2.2653487E-2,-1.02953855E-2,-9.62649E-3,-2.5236746E-2,2.3616941E-3,-3.058672E-4,-4.1431837E-2,-8.238822E-3,-2.505207E-2,2.7658278E-2,4.5624496E-3,3.3273082E-2,7.366681E-3,1.0944624E-1,-2.846898E-2],"split_indices":[9,2,2,3,10,3,9,9,10,9,3,11,10,13,11,0,0,0,0,0,0,0,0,0,0,0,0,0,0,0,0],"split_type":[0,0,0,0,0,0,0,0,0,0,0,0,0,0,0,0,0,0,0,0,0,0,0,0,0,0,0,0,0,0,0],"sum_hessian":[4.0301E4,2.2372E4,1.7929E4,1.9823E4,2.549E3,1.1237E4,6.692E3,1.915E3,1.7908E4,2.494E3,5.5E1,5.94E2,1.0643E4,6.08E3,6.12E2,1.456E3,4.59E2,6.585E3,1.1323E4,1.34E2,2.36E3,2.3E1,3.2E1,4.75E2,1.19E2,6.34E2,1.0009E4,5.436E3,6.44E2,6E2,1.2E1],"tree_param":{"num_deleted":"0","num_feature":"16","num_nodes":"31","size_leaf_vector":"1"}},{"base_weights":[-2.2823174E-2,-8.000088E-2,5.138881E-2,-9.7513966E-2,-1.5441631E-2,2.0763533E-2,1.0747739E-1,-1.7578773E-1,-8.870868E-2,-4.7651935E-2,1.0610573E-2,5.899705E-3,5.3440496E-2,9.540954E-2,2.1238245E-1,-1.0659785E-2,-5.783046E-3,-2.8217523E-3,-6.1428756E-3,-5.7965303E-3,-9.746589E-4,1.2903226E-2,3.8591868E-4,8.1115135E-4,-1.9668739E-3,2.9788502E-3,-2.763158E-3,4.639927E-3,1.4788732E-2,7.834758E-3,1.3975695E-2],"categories":[],"categories_nodes":[],"categories_segments":[],"categories_sizes":[],"default_left":[0,0,0,0,0,0,0,0,0,0,0,0,0,0,0,0,0,0,0,0,0,0,0,0,0,0,0,0,0,0,0],"id":37,"left_children":[1,3,5,7,9,11,13,15,17,19,21,23,25,27,29,-1,-1,-1,-1,-1,-1,-1,-1,-1,-1,-1,-1,-1,-1,-1,-1],"loss_changes":[1.70957E2,2.5727158E1,3.0114697E1,1.2321503E1,4.076255E0,5.5085483E0,7.818672E0,4.044182E0,1.7728172E1,4.1737185E0,1.9203415E0,3.6418216E0,2.3686895E0,2.878666E0,2.341282E0,0E0,0E0,0E0,0E0,0E0,0E0,0E0,0E0,0E0,0E0,0E0,0E0,0E0,0E0,0E0,0E0],"parents":[2147483647,0,0,1,1,2,2,3,3,4,4,5,5,6,6,7,7,8,8,9,9,10,10,11,11,12,12,13,13,14,14],"right_children":[2,4,6,8,10,12,14,16,18,20,22,24,26,28,30,-1,-1,-1,-1,-1,-1,-1,-1,-1,-1,-1,-1,-1,-1,-1,-1],"split_conditions":[2.2E0,1.6E0,4.4135337E0,6.2E0,2.2E1,3.8E0,8.280702E0,6E-1,1.8E1,1.097E2,2.22E1,5.9E1,6E0,1.34E1,6.173106E-1,-1.5194103E-2,-1.9601418E-2,-1.739114E-2,-8.522505E-3,-1.5361524E-2,-4.9773487E-3,2.9485656E-2,1.055497E-3,2.874589E-3,-4.107136E-3,1.8415457E-2,-1.4862108E-2,2.8927505E-2,1.04191855E-1,7.604432E-2,1.0911112E-1],"split_indices":[2,9,9,3,3,2,9,9,3,14,3,11,13,1,4,0,0,0,0,0,0,0,0,0,0,0,0,0,0,0,0],"split_type":[0,0,0,0,0,0,0,0,0,0,0,0,0,0,0,0,0,0,0,0,0,0,0,0,0,0,0,0,0,0,0],"sum_hessian":[4.0287E4,2.2755E4,1.7532E4,1.7899E4,4.856E3,1.1341E4,6.191E3,1.808E3,1.6091E4,2.171E3,2.685E3,7.796E3,3.545E3,5.554E3,6.37E2,1.113E3,6.95E2,8.274E3,7.817E3,6.33E2,1.538E3,3E1,2.655E3,6.348E3,1.448E3,3.356E3,1.89E2,5.484E3,7E1,3.5E2,2.87E2],"tree_param":{"num_deleted":"0","num_feature":"16","num_nodes":"31","size_leaf_vector":"1"}},{"base_weights":[-2.3338381E-2,-7.9452425E-2,4.6638772E-2,-1.8064693E-1,-7.045787E-2,2.1540266E-2,1.0913162E-1,-1.9558823E-1,2.4E-2,-8.031706E-2,1.004016E-3,1.764626E-3,4.8396017E-2,9.808561E-2,2.1413934E-1,-1.1476239E-2,-7.408708E-3,-6.6176476E-3,4.0760874E-3,-2.5914635E-3,-5.339572E-3,1.3135351E-3,-2.9391893E-3,-5.290102E-3,3.1095406E-4,2.5789177E-3,-5.825243E-3,3.8833388E-3,6.948934E-3,1.4906833E-2,8.612805E-3],"categories":[],"categories_nodes":[],"categories_segments":[],"categories_sizes":[],"default_left":[0,0,0,0,0,0,0,0,0,0,0,0,0,0,0,0,0,0,0,0,0,0,0,0,0,0,0,0,0,0,0],"id":38,"left_children":[1,3,5,7,9,11,13,15,17,19,21,23,25,27,29,-1,-1,-1,-1,-1,-1,-1,-1,-1,-1,-1,-1,-1,-1,-1,-1],"loss_changes":[1.5815942E2,2.0332962E1,2.8112602E1,5.5819244E0,1.4464615E1,6.792551E0,5.936325E0,2.7014084E0,1.1350012E0,1.3600937E1,3.7630367E0,3.530563E0,2.8523617E0,3.871067E0,1.6654682E0,0E0,0E0,0E0,0E0,0E0,0E0,0E0,0E0,0E0,0E0,0E0,0E0,0E0,0E0,0E0,0E0],"parents":[2147483647,0,0,1,1,2,2,3,3,4,4,5,5,6,6,7,7,8,8,9,9,10,10,11,11,12,12,13,13,14,14],"right_children":[2,4,6,8,10,12,14,16,18,20,22,24,26,28,30,-1,-1,-1,-1,-1,-1,-1,-1,-1,-1,-1,-1,-1,-1,-1,-1],"split_conditions":[2E0,6.2E0,5.2E0,1.1904762E0,2.2E0,3.4E0,9.4E0,4E-1,1.081E2,1.78E1,5.1E1,1.08E1,8.1E1,1.166E2,3E1,-1.4828846E-2,-1.516991E-2,-3.490316E-2,1.1588248E-2,-1.5068484E-2,-8.345258E-3,2.7285428E-3,-2.1189272E-2,-1.1837608E-2,8.412093E-4,1.633091E-2,-2.2090537E-2,2.474152E-2,4.793452E-2,1.1711749E-1,5.9908774E-2],"split_indices":[9,3,2,9,2,2,2,2,14,3,11,3,11,14,11,0,0,0,0,0,0,0,0,0,0,0,0,0,0,0,0],"split_type":[0,0,0,0,0,0,0,0,0,0,0,0,0,0,0,0,0,0,0,0,0,0,0,0,0,0,0,0,0,0,0],"sum_hessian":[4.0276E4,2.2352E4,1.7924E4,1.823E3,2.0529E4,1.2789E4,5.135E3,1.699E3,1.24E2,1.804E4,2.489E3,7.366E3,5.423E3,4.648E3,4.87E2,9.88E2,7.11E2,3.3E1,9.1E1,8.691E3,9.349E3,1.75E3,7.39E2,2.92E2,7.074E3,5.321E3,1.02E2,3.102E3,1.546E3,1.6E2,3.27E2],"tree_param":{"num_deleted":"0","num_feature":"16","num_nodes":"31","size_leaf_vector":"1"}},{"base_weights":[-2.3818398E-2,-7.339843E-2,5.314898E-2,-1.1788666E-1,-4.985319E-2,4.1012153E-2,1.5361978E-1,-1.9425344E-1,-9.3706295E-2,4.5949626E-3,-6.2088754E-2,2.0520194E-2,6.543075E-2,1.20018974E-1,2.0820433E-1,-7.991413E-3,-1.1526795E-2,-3.0905078E-3,-1.0151411E-2,-1.7364204E-3,1.4454847E-3,-4.8673493E-3,-2.0853453E-3,-1.3590202E-3,1.6937103E-3,2.1044547E-3,4.4707744E-3,1.2731482E-2,5.2270326E-3,4.8076926E-4,1.1260505E-2],"categories":[],"categories_nodes":[],"categories_segments":[],"categories_sizes":[],"default_left":[0,0,0,0,0,0,0,0,0,0,0,0,0,0,0,0,0,0,0,0,0,0,0,0,0,0,0,0,0,0,0],"id":39,"left_children":[1,3,5,7,9,11,13,15,17,19,21,23,25,27,29,-1,-1,-1,-1,-1,-1,-1,-1,-1,-1,-1,-1,-1,-1,-1,-1],"loss_changes":[1.5356918E2,2.56324E1,1.9219929E1,1.5622292E1,1.0664207E1,7.038574E0,3.0911217E0,2.5061798E0,2.242596E1,2.8101346E0,9.388409E0,4.874565E0,3.5898685E0,2.1694384E0,2.1794777E0,0E0,0E0,0E0,0E0,0E0,0E0,0E0,0E0,0E0,0E0,0E0,0E0,0E0,0E0,0E0,0E0],"parents":[2147483647,0,0,1,1,2,2,3,3,4,4,5,5,6,6,7,7,8,8,9,9,10,10,11,11,12,12,13,13,14,14],"right_children":[2,4,6,8,10,12,14,16,18,20,22,24,26,28,30,-1,-1,-1,-1,-1,-1,-1,-1,-1,-1,-1,-1,-1,-1,-1,-1],"split_conditions":[2.3333333E0,8.863636E-1,6.5625E0,7.6E0,1.5426087E1,3.8333333E0,6.103002E-1,4E0,2.08E1,1.6E0,1.3108108E0,1.092E2,1E0,2.8E0,1.1432836E1,-1.5972633E-2,-1.3664636E-2,-1.8924132E-2,-8.447925E-3,-5.4832846E-3,3.589964E-3,-7.817171E-3,-6.5215467E-3,-3.993952E-3,9.924674E-3,1.3739455E-2,2.7750527E-2,7.724021E-2,4.26718E-2,5.5348873E-4,8.171383E-2],"split_indices":[9,9,9,3,10,9,4,13,3,1,9,14,12,1,7,0,0,0,0,0,0,0,0,0,0,0,0,0,0,0,0],"split_type":[0,0,0,0,0,0,0,0,0,0,0,0,0,0,0,0,0,0,0,0,0,0,0,0,0,0,0,0,0,0,0],"sum_hessian":[4.0241E4,2.4475E4,1.5766E4,8.469E3,1.6006E4,1.4068E4,1.698E3,2.035E3,6.434E3,2.937E3,1.3069E4,7.65E3,6.418E3,1.053E3,6.45E2,1.047E3,9.88E2,4.982E3,1.452E3,1.122E3,1.815E3,4.786E3,8.283E3,1.673E3,5.977E3,3.254E3,3.164E3,1.07E2,9.46E2,5.1E1,5.94E2],"tree_param":{"num_deleted":"0","num_feature":"16","num_nodes":"31","size_leaf_vector":"1"}},{"base_weights":[-2.110458E-2,-6.882814E-2,5.258675E-2,-1.0792091E-1,-4.8225094E-2,2.9761905E-2,9.9556245E-2,-8.52E-2,-1.7250797E-1,-6.127724E-2,-7.233796E-4,4.323196E-3,4.1421738E-2,9.1142625E-2,2.2798742E-1,-3.1521309E-3,-9.002536E-3,-1.1590376E-2,-6.742199E-3,-3.787879E-4,-3.6678032E-3,3.6632776E-4,-1.1946903E-2,-6.55632E-4,2.186589E-3,3.1773832E-3,7.3817413E-4,4.862762E-3,-1.3541667E-3,2.037037E-2,1.0530822E-2],"categories":[],"categories_nodes":[],"categories_segments":[],"categories_sizes":[],"default_left":[0,0,0,0,0,0,0,0,0,0,0,0,0,0,0,0,0,0,0,0,0,0,0,0,0,0,0,0,0,0,0],"id":40,"left_children":[1,3,5,7,9,11,13,15,17,19,21,23,25,27,29,-1,-1,-1,-1,-1,-1,-1,-1,-1,-1,-1,-1,-1,-1,-1,-1],"loss_changes":[1.4181207E2,1.9706894E1,1.6989368E1,1.2379601E1,9.937923E0,3.1640673E0,5.5798225E0,1.312392E1,4.8756485E0,8.155582E0,6.6290193E0,2.305179E0,4.313731E0,3.519146E0,9.0530396E-1,0E0,0E0,0E0,0E0,0E0,0E0,0E0,0E0,0E0,0E0,0E0,0E0,0E0,0E0,0E0,0E0],"parents":[2147483647,0,0,1,1,2,2,3,3,4,4,5,5,6,6,7,7,8,8,9,9,10,10,11,11,12,12,13,13,14,14],"right_children":[2,4,6,8,10,12,14,16,18,20,22,24,26,28,30,-1,-1,-1,-1,-1,-1,-1,-1,-1,-1,-1,-1,-1,-1,-1,-1],"split_conditions":[2.3333333E0,8.863636E-1,4.77E0,4E0,2.2E0,2.8E0,9.634147E0,1.79E1,4E-1,1.5333333E1,3.2658535E1,5E0,3.0092783E1,6E0,3.294737E1,-1.51532395E-2,-9.267983E-3,-1.2988962E-2,-1.4807048E-2,-6.6432956E-4,-7.6878252E-3,8.2404615E-4,-2.0264918E-2,-1.7464518E-3,7.8051537E-3,2.2317743E-2,4.5191944E-3,3.1870615E-2,-6.5289973E-3,1.9329914E-1,1.0675516E-1],"split_indices":[9,9,9,13,2,2,9,10,2,10,10,1,10,13,10,0,0,0,0,0,0,0,0,0,0,0,0,0,0,0,0],"split_type":[0,0,0,0,0,0,0,0,0,0,0,0,0,0,0,0,0,0,0,0,0,0,0,0,0,0,0,0,0,0,0],"sum_hessian":[4.0322E4,2.4473E4,1.5849E4,8.445E3,1.6028E4,1.0667E4,5.182E3,6.249E3,2.196E3,1.2573E4,3.455E3,3.353E3,7.314E3,4.865E3,3.17E2,5.067E3,1.182E3,8.51E2,1.345E3,2.309E3,1.0264E4,3.343E3,1.12E2,2.325E3,1.028E3,3.996E3,3.318E3,4.626E3,2.39E2,2.6E1,2.91E2],"tree_param":{"num_deleted":"0","num_feature":"16","num_nodes":"31","size_leaf_vector":"1"}},{"base_weights":[-2.0310028E-2,-8.037508E-2,3.5099808E-2,-1.8007082E-1,-6.9064416E-2,5.224916E-3,7.671747E-2,-1.9661972E-1,-3.448276E-2,-4.2908613E-2,-9.800604E-2,6.935909E-2,-1.3500135E-3,6.386578E-2,1.3029411E-1,-1.1696927E-2,-8.561321E-3,1.818182E-2,-2.849741E-3,-3.2565023E-3,-9.591514E-4,-8.48747E-3,-3.988636E-3,-6.564552E-4,6.2225475E-3,-4.263341E-3,2.8536585E-4,2.0710889E-3,4.331156E-3,-0E0,7.229112E-3],"categories":[],"categories_nodes":[],"categories_segments":[],"categories_sizes":[],"default_left":[0,0,0,0,0,0,0,0,0,0,0,0,0,0,0,0,0,0,0,0,0,0,0,0,0,0,0,0,0,0,0],"id":41,"left_children":[1,3,5,7,9,11,13,15,17,19,21,23,25,27,29,-1,-1,-1,-1,-1,-1,-1,-1,-1,-1,-1,-1,-1,-1,-1,-1],"loss_changes":[1.3462164E2,2.1873627E1,2.615912E1,4.7564545E0,1.3192429E1,5.1652236E0,6.045414E0,1.6420135E0,1.8401093E0,4.827528E0,1.0811142E1,5.1777377E0,6.580739E0,3.619276E0,3.1648197E0,0E0,0E0,0E0,0E0,0E0,0E0,0E0,0E0,0E0,0E0,0E0,0E0,0E0,0E0,0E0,0E0],"parents":[2147483647,0,0,1,1,2,2,3,3,4,4,5,5,6,6,7,7,8,8,9,9,10,10,11,11,12,12,13,13,14,14],"right_children":[2,4,6,8,10,12,14,16,18,20,22,24,26,28,30,-1,-1,-1,-1,-1,-1,-1,-1,-1,-1,-1,-1,-1,-1,-1,-1],"split_conditions":[1.6E0,6.4E0,3.642857E0,1.1090909E0,1.7789474E1,1.6911112E1,6.5625E0,4E-1,4E-1,8.035714E-1,9.318182E-1,1.38E1,1.64E1,1E0,1.1E1,-1.2339515E-2,-1.4394089E-2,1.6908556E-2,-3.1052684E-2,-1.6626352E-2,-1.735586E-3,-8.760947E-3,-7.4182274E-3,-2.1384507E-3,3.2550994E-2,-9.540123E-3,9.6294883E-4,1.1949348E-2,2.5598204E-2,1.1866093E-4,5.534775E-2],"split_indices":[9,3,9,9,10,10,9,9,8,9,9,3,3,12,11,0,0,0,0,0,0,0,0,0,0,0,0,0,0,0,0],"split_type":[0,0,0,0,0,0,0,0,0,0,0,0,0,0,0,0,0,0,0,0,0,0,0,0,0,0,0,0,0,0,0],"sum_hessian":[4.0447E4,1.9408E4,2.1039E4,1.976E3,1.7432E4,1.2248E4,8.791E3,1.774E3,2.02E2,9.158E3,8.274E3,1.138E3,1.111E4,7.092E3,1.699E3,7.15E2,1.059E3,1E1,1.92E2,4.728E3,4.43E3,1.675E3,6.599E3,4.56E2,6.82E2,8.61E2,1.0249E4,3.572E3,3.52E3,1.68E2,1.531E3],"tree_param":{"num_deleted":"0","num_feature":"16","num_nodes":"31","size_leaf_vector":"1"}},{"base_weights":[-2.1917058E-2,-8.0285035E-2,3.0113395E-2,-1.8983516E-1,-6.8638325E-2,1.4222756E-2,1.0351666E-1,-2.235196E-1,-1.2459807E-1,-4.2184036E-2,-9.80634E-2,-9.002849E-3,3.7652332E-2,9.48251E-2,1.9598766E-1,-9.546233E-3,-1.2702922E-2,3.2738098E-3,-7.6994435E-3,-5.1129363E-3,-9.983298E-4,-6.774147E-3,-3.5107527E-3,-2.6942207E-4,-5.0451807E-3,2.1998305E-3,-4.1189934E-3,1.1740332E-3,5.156553E-3,-6.25E-3,1.0819673E-2],"categories":[],"categories_nodes":[],"categories_segments":[],"categories_sizes":[],"default_left":[0,0,0,0,0,0,0,0,0,0,0,0,0,0,0,0,0,0,0,0,0,0,0,0,0,0,0,0,0,0,0],"id":42,"left_children":[1,3,5,7,9,11,13,15,17,19,21,23,25,27,29,-1,-1,-1,-1,-1,-1,-1,-1,-1,-1,-1,-1,-1,-1,-1,-1],"loss_changes":[1.2207718E2,2.415886E1,2.4788553E1,3.97155E0,1.3327072E1,9.50801E0,3.0210762E0,1.1449966E0,3.4848452E0,1.2037004E1,8.438568E0,2.9142203E0,6.627303E0,2.0473251E0,2.149251E0,0E0,0E0,0E0,0E0,0E0,0E0,0E0,0E0,0E0,0E0,0E0,0E0,0E0,0E0,0E0,0E0],"parents":[2147483647,0,0,1,1,2,2,3,3,4,4,5,5,6,6,7,7,8,8,9,9,10,10,11,11,12,12,13,13,14,14],"right_children":[2,4,6,8,10,12,14,16,18,20,22,24,26,28,30,-1,-1,-1,-1,-1,-1,-1,-1,-1,-1,-1,-1,-1,-1,-1,-1],"split_conditions":[1.5714285E0,6.2E0,5.418605E0,6.4E-1,1.88E1,2.8181818E0,9.634147E0,4E0,2.4444444E0,5.9090906E-1,1.0769231E0,2.126087E1,6E0,2.78E1,1.5E1,-1.3778604E-2,-1.1694221E-2,2.2919673E-2,-1.68592E-2,-1.6388947E-2,-2.0038248E-3,-6.0638906E-3,-7.239735E-3,-7.293701E-4,-1.7209066E-2,1.3481605E-2,-1.5316093E-2,1.096015E-2,3.45881E-2,-3.8050176E-3,9.8909095E-2],"split_indices":[9,3,9,9,3,9,9,13,7,9,9,7,13,3,0,0,0,0,0,0,0,0,0,0,0,0,0,0,0,0,0],"split_type":[0,0,0,0,0,0,0,0,0,0,0,0,0,0,0,0,0,0,0,0,0,0,0,0,0,0,0,0,0,0,0],"sum_hessian":[4.0196E4,1.8944E4,2.1252E4,1.819E3,1.7125E4,1.7471E4,3.781E3,1.198E3,6.21E2,9.019E3,8.106E3,8.774E3,8.697E3,3.458E3,3.23E2,5.83E2,6.15E2,8.3E1,5.38E2,2.434E3,6.585E3,3.457E3,4.649E3,8.443E3,3.31E2,8.261E3,4.36E2,3.61E2,3.097E3,1.9E1,3.04E2],"tree_param":{"num_deleted":"0","num_feature":"16","num_nodes":"31","size_leaf_vector":"1"}},{"base_weights":[-2.18055E-2,-6.261124E-2,4.694789E-2,-1.7070757E-1,-5.3217556E-2,3.0180898E-2,8.8174276E-2,-2.1201092E-1,-1.2134345E-1,-4.7480017E-2,-1.0375369E-1,2.5114855E-2,8.685714E-2,7.079898E-2,1.6240875E-1,-1.1692584E-2,-7.102273E-3,-5.2760737E-3,-1.1926605E-2,2.1829917E-4,-2.7478093E-3,-9.047203E-3,-3.9583333E-3,1.4480728E-3,-2.6864035E-3,-3.3898305E-3,4.895961E-3,2.572534E-3,6.216506E-3,1.9298246E-2,7.2780675E-3],"categories":[],"categories_nodes":[],"categories_segments":[],"categories_sizes":[],"default_left":[0,0,0,0,0,0,0,0,0,0,0,0,0,0,0,0,0,0,0,0,0,0,0,0,0,0,0,0,0,0,0],"id":43,"left_children":[1,3,5,7,9,11,13,15,17,19,21,23,25,27,29,-1,-1,-1,-1,-1,-1,-1,-1,-1,-1,-1,-1,-1,-1,-1,-1],"loss_changes":[1.1303226E2,2.5663849E1,1.0370121E1,4.094898E0,6.7402496E0,3.0611477E0,5.5838585E0,1.646164E0,1.6862154E0,8.098568E0,4.4855537E0,2.9721575E0,1.503581E0,3.6362896E0,3.0397491E0,0E0,0E0,0E0,0E0,0E0,0E0,0E0,0E0,0E0,0E0,0E0,0E0,0E0,0E0,0E0,0E0],"parents":[2147483647,0,0,1,1,2,2,3,3,4,4,5,5,6,6,7,7,8,8,9,9,10,10,11,11,12,12,13,13,14,14],"right_children":[2,4,6,8,10,12,14,16,18,20,22,24,26,28,30,-1,-1,-1,-1,-1,-1,-1,-1,-1,-1,-1,-1,-1,-1,-1,-1],"split_conditions":[2.6E0,6.4E0,5.6E0,4E-1,5E0,9.274218E0,1.196E2,1.155E1,1.3E1,1.7627119E0,6E-1,6E0,2.145283E1,8E0,2.4037037E1,-1.1158588E-2,-1.4581218E-2,-1.1852535E-2,-1.14554595E-2,5.82093E-4,-5.6903544E-3,-1.4125648E-2,-1.3565448E-2,7.5698732E-3,-9.74226E-3,-1.1183805E-2,2.6202524E-2,1.784873E-2,4.4244528E-2,7.262E-2,5.4106023E-2],"split_indices":[2,3,2,2,13,5,14,10,13,8,2,13,10,2,10,0,0,0,0,0,0,0,0,0,0,0,0,0,0,0,0],"split_type":[0,0,0,0,0,0,0,0,0,0,0,0,0,0,0,0,0,0,0,0,0,0,0,0,0,0,0,0,0,0,0],"sum_hessian":[4.0287E4,2.5282E4,1.5005E4,2.02E3,2.3262E4,1.0668E4,4.337E3,1.098E3,9.22E2,2.0892E4,2.37E3,9.794E3,8.74E2,3.516E3,8.21E2,8.35E2,2.63E2,8.14E2,1.08E2,2.633E3,1.8259E4,5.71E2,1.799E3,9.339E3,4.55E2,5.8E1,8.16E2,2.584E3,9.32E2,5.6E1,7.65E2],"tree_param":{"num_deleted":"0","num_feature":"16","num_nodes":"31","size_leaf_vector":"1"}},{"base_weights":[-2.040918E-2,-7.4856095E-2,2.9091341E-2,-1.7695901E-1,-6.3402005E-2,-2.1208008E-4,6.65006E-2,-2.0622042E-1,-8.017817E-2,-3.7971113E-2,-9.0472184E-2,-1.6096713E-2,2.7422728E-2,5.2910756E-2,1.269935E-1,-9.251792E-3,-1.353022E-2,3.618421E-3,-5.5481284E-3,-5.2723843E-3,-1.0058497E-3,-5.4190652E-3,7.910075E-4,2.8061224E-3,-1.0575962E-3,-9.1463415E-4,2.285296E-3,3.7416983E-3,1.2552616E-3,4.8085903E-3,8.988764E-3],"categories":[],"categories_nodes":[],"categories_segments":[],"categories_sizes":[],"default_left":[0,0,0,0,0,0,0,0,0,0,0,0,0,0,0,0,0,0,0,0,0,0,0,0,0,0,0,0,0,0,0],"id":44,"left_children":[1,3,5,7,9,11,13,15,17,19,21,23,25,27,29,-1,-1,-1,-1,-1,-1,-1,-1,-1,-1,-1,-1,-1,-1,-1,-1],"loss_changes":[1.0815588E2,2.2337868E1,2.3042542E1,5.440624E0,1.1826355E1,5.175006E0,7.583626E0,1.967205E0,2.1165588E0,1.0674237E1,1.584539E1,2.734198E0,3.5973852E0,4.5950127E0,2.7369251E0,0E0,0E0,0E0,0E0,0E0,0E0,0E0,0E0,0E0,0E0,0E0,0E0,0E0,0E0,0E0,0E0],"parents":[2147483647,0,0,1,1,2,2,3,3,4,4,5,5,6,6,7,7,8,8,9,9,10,10,11,11,12,12,13,13,14,14],"right_children":[2,4,6,8,10,12,14,16,18,20,22,24,26,28,30,-1,-1,-1,-1,-1,-1,-1,-1,-1,-1,-1,-1,-1,-1,-1,-1],"split_conditions":[1.6E0,6.4E0,3.8E0,8.125E-1,1.88E1,2.7419355E0,6.5625E0,1.2E0,2.878788E0,5.3246754E-1,2.2E0,5.0431657E0,8.64E1,1.8338709E1,6.149243E-1,-1.0579898E-2,-1.1024918E-2,1.8060176E-2,-1.7451031E-2,-1.5284981E-2,-2.0412505E-3,-6.381312E-3,3.167233E-3,1.2162886E-2,-2.4834217E-3,-3.9095166E-3,1.4023721E-2,2.2636747E-2,8.445573E-3,3.821334E-2,6.668242E-2],"split_indices":[9,3,2,9,3,9,9,1,7,9,2,7,15,7,4,0,0,0,0,0,0,0,0,0,0,0,0,0,0,0,0],"split_type":[0,0,0,0,0,0,0,0,0,0,0,0,0,0,0,0,0,0,0,0,0,0,0,0,0,0,0,0,0,0,0],"sum_hessian":[4.0128E4,1.9109E4,2.1019E4,1.926E3,1.7183E4,1.1787E4,9.232E3,1.478E3,4.48E2,8.861E3,8.322E3,7.485E3,4.302E3,7.54E3,1.692E3,1.115E3,3.63E2,7.5E1,3.73E2,1.853E3,7.008E3,7.122E3,1.2E3,4.89E2,6.996E3,1.229E3,3.073E3,4.215E3,3.325E3,1.07E3,6.22E2],"tree_param":{"num_deleted":"0","num_feature":"16","num_nodes":"31","size_leaf_vector":"1"}},{"base_weights":[-2.2035964E-2,-6.8139516E-2,3.6924735E-2,-1.5525308E-1,-5.8004353E-2,2.2000143E-2,9.247859E-2,-1.8516453E-1,-5.903399E-2,-6.905589E-2,1.4827327E-2,2.6505385E-2,-6.008287E-2,8.7052956E-2,2.423077E-1,-1.0976191E-2,-6.821237E-3,-4.7489083E-3,5.147059E-3,-2.286361E-3,-4.634622E-3,-4.5679016E-3,1.6924778E-3,4.5283945E-4,2.082448E-3,-6.761566E-3,-6.193694E-4,4.4408813E-3,-1.0227273E-2,9.139786E-3,1.9078948E-2],"categories":[],"categories_nodes":[],"categories_segments":[],"categories_sizes":[],"default_left":[0,0,0,0,0,0,0,0,0,0,0,0,0,0,0,0,0,0,0,0,0,0,0,0,0,0,0,0,0,0,0],"id":45,"left_children":[1,3,5,7,9,11,13,15,17,19,21,23,25,27,29,-1,-1,-1,-1,-1,-1,-1,-1,-1,-1,-1,-1,-1,-1,-1,-1],"loss_changes":[1.09297104E2,1.9912971E1,1.4626932E1,6.7553673E0,1.6271324E1,5.145193E0,3.0159683E0,2.972725E0,3.2643113E0,9.673546E0,5.3840585E0,3.4838142E0,2.5933156E0,1.8742409E0,1.0077286E0,0E0,0E0,0E0,0E0,0E0,0E0,0E0,0E0,0E0,0E0,0E0,0E0,0E0,0E0,0E0,0E0],"parents":[2147483647,0,0,1,1,2,2,3,3,4,4,5,5,6,6,7,7,8,8,9,9,10,10,11,11,12,12,13,13,14,14],"right_children":[2,4,6,8,10,12,14,16,18,20,22,24,26,28,30,-1,-1,-1,-1,-1,-1,-1,-1,-1,-1,-1,-1,-1,-1,-1,-1],"split_conditions":[2.2E0,7E0,5.418605E0,9.230769E-1,2E0,6E0,1.12E1,4E-1,1.19E2,1.86E1,1.42E1,3E0,5.228129E0,1.1E1,1.215E2,-1.0443862E-2,-1.0777478E-2,-1.9381797E-2,2.1363193E-2,-1.0701436E-2,-6.080154E-3,-1.5036247E-2,2.746743E-3,1.5061736E-3,1.2416578E-2,-2.754995E-2,-2.1469356E-3,3.0047655E-2,-4.8218846E-2,7.8916214E-2,1.5587187E-1],"split_indices":[2,3,9,9,9,13,2,2,14,3,3,9,5,2,14,0,0,0,0,0,0,0,0,0,0,0,0,0,0,0,0],"split_type":[0,0,0,0,0,0,0,0,0,0,0,0,0,0,0,0,0,0,0,0,0,0,0,0,0,0,0,0,0,0,0],"sum_hessian":[4.0206E4,2.2563E4,1.7643E4,2.35E3,2.0213E4,1.3908E4,3.735E3,1.792E3,5.58E2,1.755E4,2.663E3,1.3185E4,7.23E2,3.606E3,1.29E2,1.049E3,7.43E2,4.57E2,1.01E2,8.834E3,8.716E3,4.04E2,2.259E3,6.127E3,7.058E3,2.8E2,4.43E2,3.585E3,2.1E1,9.2E1,3.7E1],"tree_param":{"num_deleted":"0","num_feature":"16","num_nodes":"31","size_leaf_vector":"1"}},{"base_weights":[-2.0071087E-2,-7.079115E-2,2.6054768E-2,-1.7892541E-1,-5.876725E-2,2.4003254E-3,5.915509E-2,-2.1770918E-1,-1.091703E-1,-3.6596164E-2,-9.058176E-2,-4.5853E-2,9.021096E-3,5.3367063E-2,1.587137E-1,-9.208524E-3,-1.2782608E-2,-2.6462395E-3,-8.510638E-3,-1.1299261E-3,-4.6065496E-3,-5.234313E-3,1.1104061E-3,-3.4639928E-3,1.0335918E-3,1.0131919E-3,-7.4508105E-4,2.885225E-3,-1.438849E-3,6.8965517E-3,1.71875E-2],"categories":[],"categories_nodes":[],"categories_segments":[],"categories_sizes":[],"default_left":[0,0,0,0,0,0,0,0,0,0,0,0,0,0,0,0,0,0,0,0,0,0,0,0,0,0,0,0,0,0,0],"id":46,"left_children":[1,3,5,7,9,11,13,15,17,19,21,23,25,27,29,-1,-1,-1,-1,-1,-1,-1,-1,-1,-1,-1,-1,-1,-1,-1,-1],"loss_changes":[9.4124855E1,2.4903831E1,1.6497812E1,5.162422E0,1.2161362E1,3.9267514E0,5.0521374E0,1.5194321E0,2.3497133E0,7.899747E0,1.1268688E1,2.3126395E0,2.9071884E0,2.9592628E0,1.806139E0,0E0,0E0,0E0,0E0,0E0,0E0,0E0,0E0,0E0,0E0,0E0,0E0,0E0,0E0,0E0,0E0],"parents":[2147483647,0,0,1,1,2,2,3,3,4,4,5,5,6,6,7,7,8,8,9,9,10,10,11,11,12,12,13,13,14,14],"right_children":[2,4,6,8,10,12,14,16,18,20,22,24,26,28,30,-1,-1,-1,-1,-1,-1,-1,-1,-1,-1,-1,-1,-1,-1,-1,-1],"split_conditions":[1.6E0,6.4E0,3.642857E0,6.4E-1,1.8814816E1,1.4E0,9.4E0,1.1222222E0,2.0229886E0,4E0,2.2E0,2.58E1,2.9884615E1,6E0,1.239E2,-9.521152E-3,-9.921668E-3,-1.2050243E-2,-1.4973924E-2,-1.7076135E-3,-1.2592457E-2,-6.554899E-3,3.990692E-3,-8.0828965E-3,5.856955E-3,3.368801E-3,-2.556753E-3,1.836772E-2,-8.433128E-3,5.3890467E-2,1.16967395E-1],"split_indices":[9,3,9,9,10,2,2,8,8,13,2,3,10,13,14,0,0,0,0,0,0,0,0,0,0,0,0,0,0,0,0],"split_type":[0,0,0,0,0,0,0,0,0,0,0,0,0,0,0,0,0,0,0,0,0,0,0,0,0,0,0,0,0,0,0],"sum_hessian":[4.0231E4,1.9161E4,2.107E4,1.916E3,1.7245E4,1.2289E4,8.781E3,1.23E3,6.86E2,1.0164E4,7.081E3,1.482E3,1.0807E4,8.3E3,4.81E2,6.56E2,5.74E2,3.58E2,3.28E2,8.119E3,2.045E3,6.294E3,7.87E2,1.096E3,3.86E2,7.352E3,3.455E3,7.884E3,4.16E2,4.34E2,4.7E1],"tree_param":{"num_deleted":"0","num_feature":"16","num_nodes":"31","size_leaf_vector":"1"}},{"base_weights":[-2.1878798E-2,-6.4210385E-2,3.1444427E-2,-1.6910046E-1,-5.555823E-2,1.53852E-2,7.660256E-2,-2.4416517E-1,-1.3278547E-1,-6.3991025E-2,6.433454E-3,-5.828163E-3,2.9767975E-2,1.1074741E-1,5.4599717E-2,-1.3325741E-2,-7.983194E-3,-6.899563E-3,1.875E-2,-1.8999226E-3,-4.47474E-3,-1.12499995E-2,6.074959E-4,3.5287084E-3,-6.170951E-4,-1.3414635E-2,1.5665044E-3,4.0913657E-3,7.2494033E-3,1.134477E-3,5.494242E-3],"categories":[],"categories_nodes":[],"categories_segments":[],"categories_sizes":[],"default_left":[0,0,0,0,0,0,0,0,0,0,0,0,0,0,0,0,0,0,0,0,0,0,0,0,0,0,0,0,0,0,0],"id":47,"left_children":[1,3,5,7,9,11,13,15,17,19,21,23,25,27,29,-1,-1,-1,-1,-1,-1,-1,-1,-1,-1,-1,-1,-1,-1,-1,-1],"loss_changes":[9.099881E1,2.0385414E1,1.2937199E1,4.634445E0,1.0854027E1,4.015992E0,3.509962E0,1.0093842E0,3.1075516E0,1.2111908E1,3.292987E0,2.6479497E0,3.660603E0,1.8032532E0,5.0218287E0,0E0,0E0,0E0,0E0,0E0,0E0,0E0,0E0,0E0,0E0,0E0,0E0,0E0,0E0,0E0,0E0],"parents":[2147483647,0,0,1,1,2,2,3,3,4,4,5,5,6,6,7,7,8,8,9,9,10,10,11,11,12,12,13,13,14,14],"right_children":[2,4,6,8,10,12,14,16,18,20,22,24,26,28,30,-1,-1,-1,-1,-1,-1,-1,-1,-1,-1,-1,-1,-1,-1,-1,-1],"split_conditions":[2E0,4E-1,5.4E0,5.7058825E0,2.2E0,2.8181818E0,4.0588236E0,